0.001316
-0.152180
0.559208
0.483910
-0.238692
0.178619
0.033593
0.044705
-0.425118
0.382697
-0.364882
0.314173
0.121054
0.011620
0.087003
-0.081134
0.205467
-0.286283
0.067545
-0.015557
-0.112435
0.269765
-0.107684
-0.193504
0.348669
-0.563467
0.149217
-0.458139
0.123967
0.115369
-0.072200
-0.069911
-0.250634
-0.050655
-0.474613
-0.147398
-0.105593
0.096095
-0.011521
0.075666
-0.222564
0.239753
-0.298985
0.361496
0.358998
-0.205134
-0.207546
0.480452
0.073545
-0.156034
0.311676
-0.083928
-0.083339
0.297707
0.242250
-0.070199
-0.303381
0.171574
-0.644367
0.013731
0.245520
-0.157088
-0.217488
0.243925
0.142020
-0.079675
0.030212
-0.066736
-0.479515
0.183627
-0.134354
-0.297986
-0.341462
0.152494
-1.004604
0.270008
0.096584
-0.211209
-0.337141
0.192002
0.124723
-0.160058
-0.316708
0.266081
-0.513558
0.248289
-0.676854
-0.486174
-0.515465
0.223981
-0.572968
0.179890
0.231888
-0.000940
-0.239967
0.326384
0.430986
-0.299366
0.127360
-0.110268
-0.185193
0.207391
-0.215167
0.041593
-0.059082
0.154852
-0.504499
0.047993
-0.285434
-0.003562
0.142428
0.179717
0.004633
-0.106978
0.588762
-0.085443
-0.516828
0.041864
-0.510942
-0.099513
-0.175855
-0.143191
-0.223190
-0.030876
0.145343
0.136332
0.134244
0.082938
0.485437
-0.157886
0.146228
-0.389281
-0.278362
0.311197
-0.075475
-0.347925
-0.453926
0.162377
-0.336575
0.066639
-0.363694
0.126460
0.689179
-0.015811
0.421348
-0.115251
0.000388
0.094570
-0.079599
0.219871
-0.488261
-0.248962
-0.056193
-0.002874
-0.469405
0.153140
0.111686
-0.041458
0.233756
-0.060930
0.213937
-0.203740
-0.649769
0.115173
-0.249438
0.154335
-0.118539
-0.086016
-0.178830
0.203750
0.105572
0.064568
0.041489
-0.075768
0.430753
0.128298
0.151726
-0.183913
-0.181443
-0.272737
-0.252018
0.289577
-0.132470
-0.201315
0.123674
-0.113832
0.086943
-0.664118
-0.427652
0.081386
0.010487
-0.124248
-0.109620
-0.125514
0.268501
-0.108111
-0.190408
-0.027306
-0.385764
-0.056090
0.561534
-0.018730
-0.456409
-0.412173
0.413455
-0.204927
-0.098351
-0.716858
-0.543722
0.191266
0.225480
0.183090
-0.454289
-0.181862
0.485837
-0.276601
-0.599292
-0.131647
-0.460610
0.304562
-0.093648
-0.162552
-0.175740
-0.168151
0.568210
-0.595332
-0.205913
-0.943654
-0.328882
0.177393
-0.246597
-0.474092
-0.231935
0.098637
0.581270
-0.865291
-0.426345
-0.962566
-0.368747
0.209656
-0.200089
-0.609179
-0.114961
0.023742
0.271773
-0.883443
-0.111188
-1.458926
-0.712102
0.099464
-0.261764
-0.767756
-0.303732
0.120203
0.399863
-0.145495
-0.101279
-0.434952
-0.445900
-0.025302
-0.334597
-0.586964
-0.144268
0.082497
0.508193
-0.999635
0.097104
-0.474344
-0.561049
-0.133698
-0.121814
-0.695809
-0.100876
0.148023
0.499609
-0.806783
-0.096376
-0.722714
-0.197810
-0.029932
0.040336
-0.087533
0.179565
0.069288
0.110540
-0.357286
-0.166329
-0.214371
-0.360556
-0.341373
0.142940
0.020987
0.060915
0.066552
0.288641
0.147486
-0.088829
-0.452187
-0.153814
0.054672
-0.011397
-0.065464
0.047122
-0.065663
0.199223
0.061283
-0.095382
-0.630303
0.003529
0.113056
-0.003778
-0.491850
0.227816
0.011273
0.209485
-0.554568
0.032770
-0.262443
-0.021757
0.260307
-0.022877
-0.324289
0.201540
0.025878
0.242171
-0.598949
0.142651
-0.642425
-0.107680
0.136732
-0.022259
0.014935
0.115799
-0.090289
0.146686
-0.199387
-0.029268
-0.565925
-0.142500
0.148435
-0.044297
0.069143
0.076464
-0.056227
0.113038
-0.085650
-0.008003
-0.485143
-0.065101
0.098553
0.047098
0.010760
0.176486
0.034964
0.041097
-0.197149
-0.049224
-0.390401
-0.190436
0.152791
-0.002532
-0.207062
0.240185
0.025595
0.001427
-0.439294
-0.009431
-0.577018
-0.056812
-0.038304
0.014366
0.041196
-0.075866
-0.048885
0.086119
0.013812
-0.001997
0.020918
-0.102347
-0.361088
-0.038351
-0.219927
0.070633
0.029007
0.119213
-0.077570
0.005431
-0.034611
0.106190
-0.324231
0.002286
-0.210903
0.244648
0.162108
0.248428
-0.040104
0.074635
0.114126
0.035969
-0.094282
-0.086150
-0.374295
0.172738
0.056825
0.104733
-0.160398
0.039747
0.091749
0.015955
0.033532
-0.088465
-0.008369
0.150983
-0.053971
0.093238
-0.327777
-0.049133
0.003080
-0.127768
0.052380
0.038577
0.152460
0.110215
-0.311071
0.021121
-0.006459
-0.021263
-0.019329
-0.118854
0.068652
0.062913
0.103387
0.119886
-0.648324
-0.228670
0.034649
0.055755
0.017966
-0.021207
0.009862
0.120560
0.099060
0.087364
-0.386567
-0.414744
0.084360
0.119419
-0.016714
-0.006285
0.052610
0.061369
-0.044172
0.043799
-0.349746
-0.272008
-0.064911
0.021870
-0.131923
0.160813
0.074722
-0.222716
-0.156379
-0.120071
-0.088209
0.079229
0.001515
-0.069019
0.107407
0.106125
-0.416979
-0.223924
-0.205896
0.039761
0.048452
0.282401
0.049633
0.049469
0.146851
0.052700
-0.528563
-0.330794
-0.292232
0.103473
0.047822
0.075634
0.027354
0.015141
0.081454
0.073851
-0.099320
-0.234534
-0.296602
0.088338
0.006301
0.055855
0.002525
-0.067143
-0.015828
0.044801
0.025917
-0.060912
-0.031818
0.053567
-0.044361
0.056029
-0.119065
-0.056449
-0.059496
-0.051623
0.103744
0.088859
0.106189
0.098995
-0.340778
-0.086226
0.133659
0.094427
0.110530
0.088731
0.059432
0.143198
0.054752
0.132296
-0.961489
-0.505180
0.119769
0.094929
0.054097
0.140279
-0.025972
0.141609
0.029170
0.102299
-1.167202
-0.328971
0.100297
0.076977
0.046362
0.154691
-0.030259
0.100881
-0.069607
0.086653
-0.990167
-0.062705
0.080679
0.190355
0.067822
0.224016
-0.008408
-0.203158
-0.346467
0.038882
-0.214371
0.251819
0.083972
-0.149391
0.101340
0.117709
-0.179805
-0.530922
-0.324724
0.108015
-0.142277
0.161026
0.064690
-0.149378
0.126168
0.111286
-0.253376
-0.428899
-0.129067
0.126531
-0.014405
0.130417
0.169131
-0.039619
0.168962
0.134102
-0.066160
-0.149706
-0.352073
0.087347
0.024938
0.120018
0.034750
0.004418
-0.014963
-0.045850
0.035962
0.024808
-0.167449
-0.155764
-0.154133
-0.001859
0.022002
0.013383
-0.173044
-0.050244
0.045183
0.072914
-0.107154
0.058065
-0.217734
-0.168586
0.051381
-0.007088
0.018406
0.072535
-0.014242
0.054191
-0.119347
0.036371
-0.190707
-0.166154
0.070923
-0.087131
-0.001831
0.119541
-0.192800
0.060728
-0.173963
0.049889
-0.247284
-0.009927
0.086977
-0.132122
0.003825
0.179612
-0.147401
0.048597
-0.242987
0.036628
-0.354978
0.089816
0.155210
-0.078178
0.069000
0.195239
-0.953353
0.182317
-0.352046
0.114927
-0.227620
0.100169
0.061234
-0.242866
-0.069154
0.205091
-0.517587
0.075813
-0.377099
0.097391
-0.329840
0.094665
0.076355
-0.046329
0.150325
0.194739
-0.063602
-0.020333
-0.581317
0.136024
-0.272380
0.126017
0.130011
0.047460
0.024137
0.268635
0.102876
0.111043
-0.510206
-0.003535
-0.145134
0.197567
0.036032
0.231564
-0.442326
-0.070039
0.055509
0.006552
-0.344393
-0.102747
-0.061739
0.067425
0.008241
0.038567
-0.034696
-0.009992
0.029356
-0.008233
-0.078168
-0.015415
-0.028248
0.032677
0.009210
-0.126140
0.025239
0.047830
0.003796
-0.020144
0.057853
0.002631
-0.001500
0.028159
0.057629
-0.136533
0.068519
0.075203
-0.669224
-0.078655
-0.001013
-0.016863
-0.037092
0.022503
0.106503
-0.140124
0.069904
0.129526
-0.334028
-0.143899
-0.088887
-0.043381
-0.070879
0.051560
0.203010
-0.156910
-0.063743
0.141253
-0.189043
0.203972
-0.132782
-0.114577
0.000475
-0.016843
-0.270890
-0.042328
-0.184447
0.152726
-0.087359
0.148333
-0.287911
-0.242503
-0.233112
0.121205
-0.064792
0.157631
-0.176174
0.272780
0.022560
0.201104
-0.401769
-0.112588
-0.244763
0.212596
-0.075439
0.215521
-0.434414
0.093941
0.076348
0.065780
-0.684499
0.003234
-0.205527
0.099643
0.046824
0.114279
-0.054992
-0.123086
-0.003971
-0.055204
-0.142250
-0.001490
-0.017080
-0.069585
0.026074
-0.010177
0.042106
-0.006127
-0.047373
-0.107513
0.067362
0.046060
0.043917
0.022098
0.040483
0.032147
0.069266
0.040229
-0.314377
-0.096041
0.085671
0.037165
0.088305
0.026769
0.057499
0.031005
0.068567
0.020774
-0.387763
-0.142587
0.054309
-0.042276
0.010579
0.025949
0.018266
-0.027779
0.038304
0.120935
-0.237201
-0.147429
-0.014964
-0.061659
0.065800
-0.041320
0.063226
0.052694
-0.030697
0.095537
0.182198
0.072848
0.055687
-0.494064
-0.061465
-0.358252
-0.182992
0.102917
-0.442528
0.110907
0.160592
0.128845
0.002892
-0.277928
0.007126
-0.276444
-0.113038
0.140396
-0.154873
0.107018
0.166130
-0.022855
-0.368579
0.017604
-0.249693
-0.070685
0.101782
0.162070
0.096717
-0.117956
0.150472
-0.241899
-0.455666
0.054168
-0.192507
-0.313738
0.101261
0.017581
0.085452
-0.120063
-0.009817
-0.230832
-0.065124
0.031469
0.003928
-0.368604
0.024541
0.008356
0.042106
0.023252
-0.086369
-0.198967
0.060124
0.026159
0.057901
-0.098941
0.022214
0.071033
0.051322
0.097022
-0.138946
-0.167373
0.090502
0.006817
0.081582
-0.008215
0.020871
0.045046
0.017105
-0.014345
-0.019009
-0.151570
0.086547
-0.148517
0.073817
-0.046948
-0.041536
0.053418
-0.024622
0.104667
0.098686
-0.068406
0.073015
-0.027567
0.169733
-0.235204
-0.051354
0.056227
0.040731
-0.070512
0.189697
-0.230172
0.224915
0.034569
0.027487
-1.057761
0.282164
-0.155137
0.063332
-0.325983
0.198685
-0.438270
0.253997
0.038927
0.097366
-0.573262
0.328585
-0.094294
0.129582
-0.438428
0.127397
-0.725140
-0.170004
0.158534
-0.171460
-0.730438
0.301737
-0.265833
0.273418
-1.147766
0.143986
-1.233072
-0.366331
0.286309
-0.248506
-0.371913
0.363159
-0.221356
0.389592
-1.116738
0.110695
-1.040309
0.105136
0.228065
0.008370
-0.619306
0.263001
-0.261380
0.285159
-0.703253
0.089975
-0.781860
0.110110
0.130198
0.109427
-0.644183
0.197024
0.034599
0.160631
-0.313541
0.137087
-0.347103
0.154242
0.044857
0.110053
-0.171017
0.150486
0.084043
0.085562
-0.309176
0.098708
-0.079822
0.089855
0.040368
0.011377
-0.305968
0.061363
-0.020307
0.041297
-0.427426
0.128306
-0.226532
-0.276696
0.009185
0.094201
-0.388167
-0.243539
-0.074346
0.250308
-0.155258
0.110133
-0.403779
0.336051
0.213805
-0.375600
0.160607
-0.037401
-0.490725
-0.448553
-0.197572
0.265617
0.046334
-0.048807
0.194423
-0.426180
-0.020052
-0.113044
-0.243871
-0.794733
-0.001041
0.025107
0.282144
0.174978
0.110762
-0.214862
-0.160062
-0.082354
-0.327501
-0.664057
-0.087101
-0.127424
0.195462
0.108017
-0.201641
-0.234395
-0.384719
-0.101232
-0.147842
-0.128116
-0.172841
-0.163964
0.148189
0.126448
-0.579419
-0.164460
-0.291004
-0.282508
-0.049713
-0.016444
-0.018742
-0.271499
0.182662
0.098764
-0.545020
0.013253
-0.063352
-0.278331
0.072406
0.028040
-0.092385
-0.018942
0.085520
0.028491
-0.355599
0.020180
0.012576
-0.488794
0.079020
0.001425
0.004827
0.098618
0.124455
-0.052745
0.005895
0.065951
0.272749
-0.769174
0.115259
-0.077084
-0.114436
0.192084
-0.228586
-0.412267
0.585403
0.213290
0.357388
-0.830350
0.090988
-1.028722
-0.051012
0.089023
0.036067
0.211669
-0.127886
-0.678622
0.158759
0.215193
-0.555051
-0.997764
-0.267497
-0.076831
0.040276
0.143410
0.075870
-0.220085
-0.143109
0.247053
-0.249130
-0.974262
-0.196978
-0.119742
0.153222
0.146918
-0.118946
-0.048612
-0.349636
0.257586
-0.037960
-0.295942
-0.115494
-0.088354
0.095050
0.137699
-0.270569
-0.017362
-0.415938
0.171245
0.014366
-0.027110
-0.043780
-0.191163
0.093331
0.081377
-0.625498
0.059965
-0.244455
0.029109
0.058023
0.049256
-0.008901
-0.491886
0.057987
0.090285
-0.534406
0.071138
-0.049644
-0.046658
0.095687
0.059764
0.014377
-0.581057
0.048650
-0.020904
-0.496833
0.086446
0.039734
-0.111672
0.057073
0.062002
0.013501
-0.496180
-0.045512
-0.100026
-0.164813
0.115981
0.053874
-0.213241
0.037509
-0.011016
0.025758
-0.340072
-0.731878
-0.392491
0.376755
0.353101
0.113981
-0.141908
0.179702
-0.472894
0.018267
-0.007410
0.127513
0.187010
-0.148111
-0.444214
-0.142179
0.370674
-0.115902
-0.654071
-0.129290
0.062521
0.084932
0.239607
-0.191858
-0.204325
-0.392622
0.261272
-0.070961
-0.625080
-0.158234
0.000846
0.112635
0.156420
-0.354499
-0.054375
-0.587684
0.191509
-0.080962
-0.171098
-0.066445
0.001823
0.115039
0.131644
-0.569742
-0.005241
-0.570184
0.118285
0.024856
0.023421
-0.021454
-0.230165
0.065476
0.096613
-0.493914
0.057147
-0.464165
0.073810
0.027226
0.066180
0.018862
-0.681819
-0.004530
-0.007301
-0.611716
0.090663
-0.149350
0.020478
0.014134
0.015101
0.067362
-0.573513
-0.025398
-0.043361
-0.556931
0.142512
0.017173
0.026729
0.055053
0.040020
0.096128
-0.345651
-0.087036
-0.285461
-0.329281
0.222942
0.092060
-0.132035
0.108704
0.013486
0.066316
-0.299259
-0.384925
-0.810461
0.194907
0.346148
0.105423
-0.398177
0.134154
-0.233405
-0.164156
-0.278619
0.188513
0.214610
-0.090669
-0.368809
-0.551391
0.457903
-0.022085
-0.461966
-0.410851
0.032875
0.105153
0.138578
-0.094837
-0.031595
-0.764775
0.232919
0.078036
-0.316194
-0.170760
0.078372
0.090229
0.052938
-0.113861
-0.011015
-0.840604
0.146063
0.095642
-0.044602
-0.137869
-0.001600
0.024402
0.035952
-0.249839
0.000993
-0.674486
0.113851
0.020345
0.058189
-0.063935
-0.272419
-0.045476
0.020412
-0.250243
0.039523
-0.252485
0.074741
-0.018166
0.025863
0.152348
-0.530227
-0.012942
0.101666
-0.367710
0.139260
-0.015836
0.109165
0.038303
0.002097
0.091750
-0.583003
-0.175348
-0.008935
-0.643004
0.179425
0.056865
0.060857
-0.024356
-0.111804
0.052604
-0.143586
-0.240575
-0.160206
-0.262654
0.156173
0.034586
-0.155511
0.111424
-0.156458
-0.040026
-0.002550
-0.218722
-0.337653
0.139305
0.251518
-0.063033
-0.249042
0.296930
-0.505189
-0.170028
-0.080646
-0.204519
-0.042285
0.202795
-0.159442
-0.325867
0.281467
-0.137322
-0.111885
-0.403913
-0.064077
-0.108214
-0.019478
0.175540
0.093997
-0.539823
0.023729
0.079920
-0.026852
-0.634706
-0.068313
-0.041979
0.013063
0.096969
0.043035
-0.611513
-0.016009
0.037457
0.119845
-0.344532
-0.137226
-0.003202
0.083269
0.100279
0.076189
-0.402425
-0.045081
0.054688
0.153990
-0.226799
-0.228335
-0.061535
0.091700
0.153921
0.081301
0.038873
-0.138803
-0.027859
0.128849
-0.122292
-0.692679
-0.089290
0.116487
0.003659
0.122563
0.129049
-0.026365
0.014551
0.023899
-0.114460
-0.688347
-0.171232
0.131105
-0.004144
0.130319
0.180520
0.047935
0.096915
-0.209851
-0.042534
-0.242552
-0.054292
0.061248
-0.004359
0.057370
0.067641
-0.049277
0.107433
-0.498662
-0.394970
-0.086232
0.276411
-0.208242
0.202867
0.051112
0.043668
-0.016081
0.202824
-0.547975
-0.056795
-0.092735
-0.149153
-0.035087
0.423739
0.060604
-0.216774
0.160433
-0.425787
-0.030957
-0.154139
-0.058750
-0.107689
-0.004208
0.169387
0.119994
-0.240162
-0.035229
-0.048680
0.071862
-0.199127
-0.181414
-0.071886
-0.026784
0.097087
0.043437
-0.157171
-0.075281
-0.067316
0.086536
-0.236611
-0.290800
0.030792
0.032891
0.103653
0.045537
-0.151462
-0.089834
-0.019490
0.115769
-0.329294
-0.537536
-0.008785
0.002307
0.039333
-0.002328
-0.063875
-0.209756
-0.067113
0.066032
-0.333925
-0.428980
0.009746
0.105876
0.019459
0.070011
0.059709
-0.092424
0.059333
-0.009766
-0.361533
-0.444687
0.038664
0.096406
0.091222
0.086967
0.103691
0.136016
0.120354
-0.252671
-0.256677
-0.148269
0.153552
-0.041134
0.169030
-0.033998
0.047843
0.165017
0.058647
-0.437172
-0.412504
0.137219
0.487838
-0.451453
0.256903
-0.453048
-0.163817
0.045202
-0.101992
-0.324642
-0.014508
-0.023140
0.085931
0.142319
0.096697
0.096100
-0.340069
-0.092348
-0.409126
-0.273728
0.018024
0.149465
-0.035090
0.035782
0.020853
0.034817
-0.021952
-0.102378
-0.226546
-0.019071
-0.016032
-0.000691
-0.034356
-0.027105
-0.002714
0.049343
-0.048074
-0.092355
-0.209699
0.086976
-0.001162
-0.173440
-0.037168
0.001011
0.053415
0.019341
0.001332
-0.032870
-0.150790
0.094032
0.061653
-0.165151
0.119254
0.134687
0.131584
0.002093
0.079148
-0.055969
-0.021894
0.099536
0.012791
-0.038109
0.140230
0.051866
-0.007330
-0.094717
0.056268
-0.103446
-0.045295
-0.190621
0.057745
0.035058
0.204917
-0.037658
0.067938
-0.108149
0.133936
0.150107
-0.004908
-0.458467
0.103352
0.130541
0.233719
-0.240041
0.146951
-0.325339
0.053606
0.120804
-0.152909
-0.488324
0.028914
0.248321
0.418589
-0.713716
0.124885
-0.731599
-0.004950
0.007102
-0.774668
-0.345377
0.123195
0.335038
0.115810
0.148833
-0.117462
0.083555
-0.214617
-0.272834
-0.131468
-0.336996
0.014709
0.199475
0.022208
0.112407
-0.101061
0.081276
-0.045585
-0.247491
0.008347
-0.114394
-0.011378
0.098710
0.015327
0.064680
-0.113418
0.099644
0.010095
-0.243340
0.020521
0.002560
0.045191
-0.015959
0.049355
0.072237
-0.134146
0.090115
0.086233
-0.253300
0.089755
0.045487
0.112433
0.016131
0.085735
0.106660
-0.100196
0.098864
0.124430
-0.216370
0.088347
0.035271
0.040238
0.041769
0.050684
0.005436
-0.183294
-0.023125
0.093686
-0.221831
0.012069
-0.106451
-0.013728
0.007230
0.110768
-0.089875
-0.138037
-0.151364
0.010439
-0.214709
-0.107044
-0.285602
-0.023520
0.198371
0.242766
-0.204043
0.063042
-0.284962
0.035872
-0.109023
-0.155524
-0.058065
-0.172402
0.109266
0.394115
-0.460612
-0.115538
-0.532071
-0.045309
-0.268211
-0.535331
0.135274
0.029679
0.226808
0.048751
0.193523
-0.298802
-0.054973
-0.980418
0.119394
-0.195421
0.149957
0.006608
0.022105
-0.028497
0.131508
-0.157215
0.072835
-0.247363
-0.020826
0.018411
0.083048
-0.009807
-0.036283
-0.001934
0.094832
-0.200810
0.079978
-0.077027
-0.046054
0.044892
-0.008415
-0.011875
-0.098190
-0.061808
0.033136
-0.191089
0.052757
-0.053026
-0.148123
0.011241
-0.046216
0.080826
-0.024551
0.028791
0.116884
-0.218955
0.100065
0.072659
-0.158221
0.097336
-0.018758
0.046305
-0.063763
-0.002834
0.058977
-0.170957
0.041663
0.056939
-0.241492
0.017782
-0.056347
-0.035082
-0.083502
-0.036410
-0.134736
-0.153102
-0.067034
-0.068744
-0.354835
-0.020190
-0.100667
-0.094340
0.030292
0.153484
-0.065884
0.046288
-0.081368
-0.071232
-0.422707
0.012203
0.049519
-0.167197
-0.003928
0.116087
-0.450140
0.080024
0.053341
-0.503528
-0.478293
-0.008053
0.228692
-0.135038
-0.076363
0.046003
-0.097982
-0.030552
-0.135747
0.069367
-0.206407
-0.382984
-0.513523
-0.165866
-0.025444
0.161913
0.116328
-0.186108
-0.146240
0.097402
0.074642
-0.156504
-0.810005
-0.187155
0.123983
0.153429
0.049602
-0.199090
-0.126244
-0.048018
-0.134602
-0.197826
-0.387743
-0.070283
0.159315
0.032252
0.120128
0.051520
-0.031891
0.026441
0.056762
-0.050419
-0.573666
-0.049156
0.073414
-0.073424
0.024975
-0.065704
0.189750
0.121313
-0.428029
-0.071391
-1.136621
0.085578
0.153271
-0.375048
-0.203184
0.143836
0.190344
0.289245
-0.765638
-0.237719
-1.665592
-0.019309
0.586055
-1.116526
-0.608828
0.485170
-0.331054
0.137729
-0.281091
0.011815
-1.091762
-0.318374
-0.020944
-0.258420
-0.174022
0.519083
-0.054556
0.051014
-0.831081
0.180279
-0.784319
-0.409966
-0.183475
-0.346048
-0.091150
-0.467077
-0.079043
0.410579
-0.480134
0.008534
-0.166544
-0.013118
0.074867
0.041238
0.070564
0.048713
-0.046272
-0.011682
-0.020595
-0.063420
-0.083180
-0.207220
-0.255851
-0.001575
0.035117
-0.060591
-0.027534
-0.062869
0.088615
-0.034159
-0.154075
-0.156162
-0.024880
0.126157
0.082953
0.031292
0.001835
-0.128105
0.237782
-0.035913
-0.096418
-0.088072
0.094647
0.117720
0.079135
-0.013722
0.081770
0.012701
0.106539
0.043857
-0.169393
0.040641
0.169510
-0.023675
-0.087717
0.029141
0.089177
0.151081
-0.488813
-0.081629
-0.452133
-0.068474
0.469570
-0.196715
-0.263415
0.386321
0.101423
0.219903
-0.409396
-0.148168
-0.922477
-0.399724
0.330757
-0.906169
-0.838606
0.397664
0.160056
0.226211
-0.482264
0.028554
-0.850106
-0.568040
-0.170858
-0.877910
-0.513778
0.305721
0.411359
0.378397
-0.953387
0.147413
-1.062463
-0.412316
-0.048645
-0.698074
-0.508995
0.114484
0.126115
0.373581
-0.613699
-0.043864
-1.021224
-0.020556
-0.111170
0.041411
0.038882
-0.000790
-0.085938
-0.066311
0.011824
0.015682
-0.027703
-0.100256
-0.210228
-0.005169
0.003967
-0.062118
0.004854
-0.075307
0.022656
0.010054
-0.048254
-0.043524
-0.320497
0.044501
-0.011122
-0.019075
-0.019069
-0.056125
0.018528
0.037125
-0.006800
0.011871
-0.032904
0.041412
0.011841
-0.074147
0.073739
0.021328
-0.188112
0.050356
0.108361
-0.026088
0.243101
-0.020675
-0.065749
0.045431
0.046925
0.087318
-0.387415
-0.098201
-0.136924
-0.222365
0.245416
0.069004
-0.367618
0.261362
-0.074829
0.060905
-0.416094
-0.054115
-0.190600
-0.159982
-0.026717
-0.127076
-0.211046
0.261851
0.238839
0.210040
-0.335361
-0.063737
-0.188425
-0.439479
0.066720
-0.609527
-0.114318
0.147088
0.313411
0.227861
-0.200980
-0.007007
-0.477524
-0.330890
0.166947
-0.296342
-0.123914
0.303144
0.184407
0.229956
-0.106892
-0.026665
-0.535773
0.037624
-0.053133
-0.075824
-0.198900
-0.053459
-0.159950
-0.011688
-0.013985
-0.067147
-0.033301
0.078058
-0.286704
-0.129352
-0.072236
0.082858
0.026992
0.039974
0.005330
0.094042
0.074158
-0.021868
-0.233164
-0.208993
0.065629
0.029836
0.037369
-0.003144
-0.094422
-0.053025
0.047021
-0.173217
0.073998
-0.096641
0.264733
-0.201395
0.052720
-0.040558
-0.321136
-0.073061
0.043422
-0.316787
0.225608
0.142772
0.153006
-0.118451
-0.358312
-0.096135
0.113027
-0.271247
-0.037024
0.086957
-0.401737
0.116797
-0.306875
0.190236
-0.221012
0.131149
0.094336
-0.136257
0.057423
0.194522
-0.033200
0.128716
-0.078029
-0.028560
-0.058106
-0.006174
-0.073584
0.000566
-0.125650
-0.322787
-0.000507
-0.150094
0.049666
0.053227
0.015344
-0.045471
0.020689
0.123486
-0.114930
-0.469643
-0.007533
-0.112732
-0.026846
0.124989
0.007151
-0.013405
0.032382
0.097786
-0.201716
0.146707
-0.092845
0.077643
-0.163011
0.152779
-0.095995
0.073936
0.092186
-0.110050
0.072570
0.059238
-0.233354
-0.139081
-0.080626
0.071185
-0.058807
0.016865
-0.111982
-0.194658
-0.036229
-0.041605
-0.085192
-0.094429
0.216513
-0.002448
0.068227
0.111341
-0.142064
-0.214889
0.017054
-0.268135
0.071901
-0.016117
0.458660
-0.313439
0.041906
0.006889
0.063640
-0.332062
-0.248452
-0.141235
0.224054
-0.111522
0.230953
-0.056852
-0.210919
-0.030457
0.288991
-0.681888
-0.011467
0.217821
-0.121723
0.008837
-0.203188
0.175459
0.073185
0.009335
0.340815
-0.579476
-0.087405
0.155423
-0.006615
0.209754
0.084202
-0.366416
-0.229833
-0.258334
0.007824
0.168415
-0.090173
-0.122498
0.007664
0.169635
0.184441
0.072078
-0.656628
-0.475734
0.029104
0.249912
0.051673
-0.147240
-0.063364
0.093885
0.025504
0.198179
-0.490022
-0.436475
0.043075
0.338520
-0.068786
0.035548
-0.327081
0.037873
-0.106807
0.051001
-0.011208
-0.047253
-0.074291
-0.082417
-0.123615
0.035423
-0.270530
0.098782
-0.209136
-0.012139
-0.193584
-0.017978
0.023081
-0.049544
-0.164900
0.046435
0.093801
0.244223
0.054293
-0.066622
-0.129631
0.205000
0.232724
0.111177
-0.146659
-0.087145
0.232554
0.059527
0.173994
-0.315209
-0.089847
0.195934
0.149046
-0.061512
-0.478066
0.113977
0.266161
-0.286586
0.038018
-0.142424
0.058774
0.180136
0.234552
-0.428056
0.006705
0.042019
0.196673
-0.024560
-0.034154
-0.048830
-0.019516
-0.156433
0.106819
-0.431443
0.042481
-0.132420
0.053319
0.075077
-0.097166
0.072514
-0.544414
-0.271186
0.092696
0.056852
0.170915
0.117890
-0.264629
0.080565
-0.100581
0.243235
-0.917751
-0.018614
0.150896
0.135672
0.076441
0.145858
-0.135550
0.076816
-0.460672
0.249799
-0.857402
0.099031
0.064780
0.073413
0.101495
0.013792
0.091872
0.092532
-0.022975
0.021388
0.008745
-0.193088
-0.142103
0.074863
-0.229482
-0.122983
0.054603
0.005153
-0.065709
-0.181929
-0.046280
-0.140239
-0.127596
0.039356
-0.266018
-0.035704
0.060389
0.136928
-0.072622
-0.096919
-0.089435
0.035070
-0.001629
0.106704
-0.146579
-0.162099
0.122066
0.147435
-0.161032
-0.097977
-0.213128
0.042733
0.043082
0.063900
-0.087387
-0.248368
0.224438
-0.150595
-0.153423
0.003494
-0.225450
-0.228097
0.032233
-0.084998
0.095925
-0.440446
0.399024
0.045233
-0.247892
0.170731
-0.107217
-0.357047
0.204840
-0.198427
0.241502
0.158872
-0.261555
-0.208333
-0.057900
0.141038
-0.120373
0.152406
0.143122
-0.162191
0.199356
0.064113
-0.781969
-0.136951
-0.044083
0.180716
-0.252118
0.156920
0.317449
-0.265771
-0.029834
0.066681
-0.112816
-0.002252
-0.224843
0.027349
-0.338294
0.091475
0.222004
-0.393917
-0.100102
-0.127579
0.128329
0.031121
-0.011743
-0.322380
-0.141761
-0.736663
0.126433
-0.040360
-0.144316
-0.069385
0.160955
0.064354
0.101925
0.023475
0.119510
-0.364711
0.065439
0.079947
0.055048
-0.145122
0.038214
0.049862
0.017715
0.031953
0.131898
-0.281610
0.025486
-0.018700
0.046309
-0.356452
0.178614
0.016899
-0.030947
0.060738
-0.097634
-0.307226
0.082485
-0.116187
0.053719
-0.543802
0.219516
0.013582
-0.281636
0.095074
-0.081308
-0.578094
0.185060
-0.253727
0.160658
0.013752
-0.142075
-0.101720
-0.089982
0.047350
-0.047454
-0.051064
0.151202
-0.112498
0.165837
0.071293
-0.455823
-0.178079
0.165421
-0.163211
0.036447
0.114436
-0.098116
-0.023089
-0.071401
-0.018008
-0.209874
-0.034075
0.138707
-0.165939
0.000161
0.076506
-0.043850
-0.018482
-0.185933
0.190643
-0.040985
0.242311
0.156853
-0.046236
0.079494
0.095004
-0.140019
0.004988
-0.112073
-0.232205
-0.107051
-0.551707
0.385382
0.079309
-0.181798
-0.614185
0.192741
-0.468266
0.183690
-0.494589
0.009267
-0.310420
0.282045
0.099423
0.084771
-1.139142
0.213706
-0.272507
0.185072
-0.925912
-0.084578
-0.049914
0.166765
0.057962
0.119887
-0.860096
0.186111
-0.374454
0.180669
-0.569532
0.004702
-0.037646
0.005173
0.054099
0.030933
-0.220248
0.170227
-0.408064
0.115772
-0.163893
-0.077625
-0.111825
-0.016532
0.002852
0.058398
-0.072733
0.090927
-0.154232
0.073020
0.036015
-0.085097
-0.133281
0.181859
-0.104333
0.066595
-0.007699
-0.051673
0.063383
-0.044878
0.003979
-0.039038
-0.044652
0.091087
-0.082440
0.047703
0.032180
-0.140034
0.057381
-0.155359
-0.052506
0.096795
0.211288
0.068024
-0.076558
0.030719
-0.053025
-0.284799
0.040685
-0.258751
0.008353
0.030695
0.019526
-0.095306
0.034903
0.071613
-0.091107
-0.249163
0.027275
-0.047196
-0.407854
0.130502
-0.069241
0.053946
-0.098872
-0.287918
0.269636
-0.251536
-0.162510
-0.048077
-0.546485
-0.060505
0.020259
0.058705
-0.187730
-0.419414
0.411681
-0.279402
-0.507606
-0.482374
-0.357462
0.184032
0.400436
-0.047576
-0.099455
-0.340870
0.167937
-0.359643
-0.162777
-0.633459
-0.196983
0.155095
0.206020
-0.008321
0.143562
-0.268488
0.207328
-0.319880
-0.382431
-0.787668
-0.122459
0.117519
0.347942
0.187766
-0.189892
-0.338240
0.078236
-0.623170
0.063294
-0.144093
-0.153261
0.185977
0.156589
0.062879
-0.123740
-0.235940
0.109710
-0.625733
-0.030203
-0.247617
-0.079069
0.126715
0.186399
0.011216
-0.151538
-0.006797
0.072867
-0.483564
0.100783
-0.608820
-0.026289
0.107285
0.137825
-0.082874
-0.042659
-0.023099
0.228327
-1.011430
0.053155
-0.435750
-0.078819
0.058580
0.034941
-0.412219
0.090570
0.008465
0.326130
-0.853389
-0.148097
-1.015956
-0.251366
0.285367
-0.195291
0.012924
0.097785
0.007579
0.004437
0.061674
-0.220344
-0.551985
-0.046253
0.089141
-0.254580
-0.275110
0.094138
0.048084
0.127450
0.079328
0.046253
-0.874186
0.061557
0.333218
-0.047982
-0.104059
0.178258
0.159523
0.090751
0.094351
-0.024750
-0.554450
-0.065806
0.247679
-0.042365
0.001598
0.121663
0.049175
-0.128206
0.061593
-0.160094
-0.452391
0.024530
0.141828
0.083555
0.114672
0.161073
-0.001033
-0.112153
-0.009223
-0.151578
-0.219950
0.082577
0.136801
0.099748
0.030971
0.066596
-0.241266
-0.389885
-0.100996
-0.049131
0.007027
0.101729
0.038412
0.132596
0.056736
0.074020
-0.329285
-0.414372
0.069992
0.057695
0.192688
0.163149
-0.003038
0.104911
0.099452
-0.017068
-0.112486
-0.266064
0.050783
0.098877
0.066101
0.162221
0.154086
0.049809
-0.087037
0.000944
-0.078334
-0.161971
-0.052282
0.014580
-0.164575
-0.063983
-0.199428
-0.163460
-0.022438
0.089254
0.035575
0.028183
0.069371
-0.207085
-0.254064
-0.022663
0.034449
-0.357187
-0.172231
0.133923
0.057215
0.073379
0.082760
-0.024805
-0.145356
-0.058210
0.032127
-0.104438
-0.198663
0.244324
0.122601
0.026565
0.241049
0.059452
-0.215677
-0.088666
0.257368
-0.097670
-0.076426
0.183604
0.061950
-0.097307
0.113497
0.080466
-0.394675
-0.026734
0.054351
0.045181
-0.037285
0.128866
-0.109656
-0.289094
-0.033464
-0.044610
-0.018666
0.106289
0.101006
0.164525
0.063557
0.155748
-0.376029
-0.691179
-0.025520
0.085322
0.071532
0.205634
-0.290497
0.223469
0.105617
0.082767
-0.659168
-0.565295
0.057128
0.133554
0.154303
0.229033
-0.383268
0.153203
0.017363
-0.067029
-0.469796
-0.347933
0.152189
0.199522
0.111092
0.153138
-0.046943
-0.037415
-0.150693
-0.055535
-0.361527
-0.214612
0.088803
0.130162
-0.020012
0.041811
-0.082839
-0.325067
-0.326566
0.069898
-0.085592
0.197784
0.106823
0.016073
0.102714
0.020981
-0.082583
-0.477666
-0.477349
0.108874
0.050368
0.054368
0.076394
0.076664
0.050370
-0.044490
-0.191176
-0.331000
-0.402697
0.199360
0.113261
0.073944
-0.030047
0.101549
0.101342
-0.087655
0.128351
-0.192612
-0.154689
0.162312
0.086714
-0.009318
-0.252615
0.169167
0.174847
-0.309814
0.033977
-0.091914
-0.142100
-0.044671
-0.148177
-0.318209
-0.148970
0.114565
0.079243
0.182024
0.057281
0.152309
-0.126568
0.145604
-0.113898
-0.583183
0.078209
0.032199
0.084813
0.146160
-0.414865
0.123153
-0.182987
0.001509
-0.205890
-0.302002
-0.013445
-0.109385
0.028868
0.185228
-0.166131
0.137180
-0.203477
0.019602
-0.139212
-0.057293
0.024143
-0.042287
0.093431
0.321702
0.225819
0.098205
-0.526495
-0.082974
-0.435769
0.182392
0.036083
-0.054178
0.157363
0.121458
-0.065864
-0.457858
-0.335398
0.120324
-0.293025
0.150147
0.125305
0.117982
0.118248
0.081506
-0.024476
-0.493031
-0.410728
0.119872
0.006364
0.113407
-0.080901
0.086874
0.136861
0.023307
-0.448584
-0.432568
-0.183929
0.099918
0.090154
0.147298
-0.246706
0.123959
0.090825
-0.042027
0.092792
-0.297230
-0.120535
0.042149
0.092019
0.049919
-0.277249
0.173343
0.110585
-0.258473
0.057983
-0.081167
-0.092430
-0.069840
0.025306
-0.123612
0.024063
0.151273
-0.103449
0.044190
0.020845
0.004059
-0.186918
0.081910
-0.057120
-0.182331
0.162045
-0.297321
-0.003263
0.133582
-0.183267
-0.009760
-0.013291
0.003718
-0.005839
-0.044923
0.021758
-0.311075
-0.120498
0.190914
-0.216878
-0.147182
-0.005104
-0.048923
0.006528
0.026529
0.052961
-0.130758
-0.020972
0.216982
-0.480536
-0.253877
-0.018224
-0.019879
-0.081457
0.107263
0.035064
-0.153968
-0.063783
0.059577
-0.554938
0.015055
0.101797
0.069982
-0.162770
-0.025413
-0.008214
-0.087901
0.118191
0.100719
-0.588382
-0.036087
-0.046720
0.055795
-0.055976
0.155649
-0.184784
0.052238
0.093096
0.093754
-0.154637
-0.132465
-0.069504
-0.045696
0.033446
0.127204
-0.317561
0.045013
0.047980
-0.056472
0.089493
-0.131196
-0.064869
-0.087148
0.025344
0.076735
-0.231593
0.084367
-0.103805
-0.104966
0.054283
-0.071039
0.025836
-0.130236
0.079979
-0.031012
-0.088421
-0.012615
-0.265969
-0.024518
-0.002991
-0.137287
0.040369
0.021049
0.073443
0.012932
0.075383
-0.072694
0.046001
0.097613
-0.148524
-0.206750
0.094959
-0.210519
0.077035
0.066064
-0.092254
0.047649
-0.075477
0.141634
-0.066849
-0.201232
0.066992
-0.172879
0.070174
0.068912
-0.093045
0.054987
0.005545
0.017937
-0.230998
-0.134861
0.055298
-0.121858
0.039107
-0.029562
-0.158841
0.082128
-0.063263
0.108649
-0.420411
0.117048
0.191851
-0.226666
-0.066861
-0.081622
-0.234191
-0.105301
-0.151337
0.091607
-0.331871
0.059733
0.056472
-0.185156
0.019503
0.115372
-0.330604
0.011957
-0.055895
0.119263
0.036062
0.074344
-0.001133
-0.100254
0.028818
0.134517
-0.303037
0.056301
0.012383
0.083599
0.069070
-0.014446
-0.048143
-0.100284
-0.007734
0.105738
-0.130221
0.038652
-0.208051
-0.028382
0.161797
-0.066648
0.018771
-0.051358
0.039039
0.083357
-0.061940
0.030227
-0.069617
-0.137733
0.047269
-0.074257
0.046896
0.067905
0.015467
0.008903
-0.064324
0.061664
0.076667
-0.203541
-0.115471
-0.098370
0.024798
-0.059836
0.051193
-0.029009
-0.283923
0.080865
-0.027817
-0.167437
0.119189
-0.058551
-0.039286
-0.169457
0.032114
-0.030413
-0.403068
0.047841
-0.070229
-0.150784
0.058024
-0.089212
0.039299
-0.009695
0.176552
-0.084679
-0.291376
0.004216
0.201959
0.054716
-0.151815
0.086987
0.250673
-0.629467
-0.059803
-0.410565
-0.274821
0.064206
0.020227
0.072554
-0.073786
0.057110
0.142294
-0.530126
0.043068
-0.040940
-0.481822
0.089158
-0.076896
0.063415
-0.072902
0.034479
0.002021
-0.437749
0.032034
0.022085
-0.234818
0.032030
-0.076666
0.193042
-0.013517
0.007495
-0.079372
-0.180505
-0.001151
0.161632
-0.059786
0.149057
-0.095363
0.052312
0.111013
-0.087499
-0.136156
0.023257
-0.071661
0.073209
0.000016
0.122742
0.015820
-0.526475
0.050974
0.060039
-0.059644
0.103394
-0.011020
-0.468654
0.017325
0.076074
0.082943
-0.643413
0.013993
0.115188
-0.047932
0.072603
-0.108019
-0.456119
0.017571
0.043239
0.093311
-0.780178
0.233737
0.072543
-0.107457
0.054038
-0.064374
-0.428561
-0.155400
-0.042261
0.055188
-0.684210
-0.040712
-0.033763
-0.330754
0.114075
0.047304
-0.484917
-0.211222
-0.005813
0.263127
-0.046831
0.198257
-0.014698
0.392786
-0.375476
-0.186559
-0.467502
-0.107313
0.043921
-0.268111
-0.019034
-0.037010
-0.223234
0.232120
-0.341916
0.030686
-0.861368
-0.018493
0.107295
-0.024545
0.055142
-0.081721
-0.167436
0.159377
-0.055438
0.159801
-0.700839
-0.076115
0.139708
-0.052123
0.189359
-0.021259
-0.122111
-0.005121
-0.051081
0.074420
-0.215888
-0.012424
0.118623
-0.093888
-0.124647
0.007880
-0.139635
-0.466244
0.057828
-0.200018
-0.260198
0.126728
0.036151
0.059327
-1.110811
0.245364
-0.021255
-0.350713
0.210165
-0.360935
-0.769770
0.198801
-0.157268
0.194578
-0.986102
0.411387
0.153732
-0.256600
0.249175
-0.430102
-0.704947
0.183298
-0.475349
0.201058
-0.665202
-0.005436
0.262536
-0.538231
-0.003376
-0.167873
-0.689046
0.129249
-0.586588
0.265057
-0.578750
-0.399611
-0.201305
-0.179035
0.226048
0.077922
-0.361951
-0.087353
-0.493027
0.242264
-0.556257
0.751939
0.360177
0.105782
-0.373722
0.311969
-0.004292
0.170318
-0.747529
0.095178
