0.0013162389
-0.15217985
0.5592084
0.48391008
-0.23869239
0.17861886
0.033592977
0.04470484
-0.4251181
0.38269693
-0.36488152
0.3141726
0.12105425
0.011620216
0.08700268
-0.08113382
0.20546667
-0.28628305
0.06754516
-0.015556959
-0.11243528
0.26976496
-0.10768432
-0.1935037
0.34866875
-0.563467
0.14921689
-0.45813864
0.12396682
0.1153688
-0.072200075
-0.06991129
-0.2506336
-0.050655037
-0.47461265
-0.14739776
-0.105592504
0.09609525
-0.011521129
0.075666115
-0.22256373
0.2397528
-0.29898542
0.3614965
0.358998
-0.20513396
-0.20754635
0.48045155
0.07354507
-0.1560339
0.31167644
-0.08392807
-0.08333917
0.29770654
0.24225032
-0.07019879
-0.30338115
0.17157371
-0.64436674
0.013731082
0.24551973
-0.1570885
-0.21748821
0.24392454
0.14201961
-0.07967538
0.030212326
-0.06673632
-0.4795149
0.18362662
-0.13435444
-0.29798585
-0.34146157
0.1524939
-1.0046036
0.27000847
0.09658417
-0.21120909
-0.3371412
0.1920018
0.124723494
-0.16005789
-0.31670788
0.266081
-0.5135581
0.24828927
-0.6768542
-0.4861738
-0.51546496
0.22398071
-0.57296765
0.17989048
0.2318876
-0.0009402532
-0.23996715
0.3263838
0.43098637
-0.29936576
0.12736027
-0.110268354
-0.18519334
0.20739119
-0.2151665
0.04159298
-0.059082445
0.15485185
-0.50449914
0.047992654
-0.28543356
-0.0035620653
0.14242804
0.17971736
0.004633217
-0.106977694
0.5887621
-0.08544282
-0.5168283
0.041864473
-0.51094216
-0.099513315
-0.17585489
-0.14319122
-0.22318965
-0.030876355
0.14534263
0.13633221
0.13424431
0.0829381
0.48543692
-0.15788569
0.14622821
-0.38928065
-0.2783618
0.3111969
-0.075474896
-0.34792462
-0.45392597
0.16237743
-0.33657518
0.06663904
-0.3636936
0.12646036
0.6891788
-0.015811104
0.42134783
-0.115250565
0.00038844865
0.09457015
-0.0795988
0.21987142
-0.4882614
-0.24896222
-0.05619335
-0.0028737073
-0.46940497
0.1531402
0.1116865
-0.04145822
0.23375599
-0.060930327
0.21393739
-0.20374031
-0.6497693
0.115173236
-0.24943809
0.1543354
-0.11853863
-0.08601617
-0.17882977
0.20375
0.10557236
0.0645684
0.041489266
-0.075767905
0.43075323
0.12829755
0.15172604
-0.18391311
-0.18144251
-0.27273744
-0.25201815
0.2895772
-0.13247037
-0.20131467
0.123674005
-0.113832094
0.08694309
-0.664118
-0.42765197
0.08138641
0.010487262
-0.12424815
-0.1096199
-0.12551358
0.2685012
-0.10811097
-0.19040775
-0.027305784
-0.15525761
0.11013281
-0.40377858
0.33605132
0.21380462
-0.37560037
0.1606065
-0.037401162
-0.49072522
-0.44855288
-0.13503788
-0.07636278
0.046002645
-0.09798245
-0.030551765
-0.13574731
0.06936716
-0.20640688
-0.38298425
-0.51352304
-0.40785357
0.13050221
-0.06924103
0.05394551
-0.0988719
-0.28791785
0.26963583
-0.25153646
-0.16250978
-0.048076738
-0.38576418
-0.056090496
0.5615338
-0.018729739
-0.45640886
-0.41217342
0.41345495
-0.20492661
-0.09835148
-0.7168582
-0.1975716
0.2656168
0.046334483
-0.048806768
0.19442314
-0.42618048
-0.020051954
-0.113043845
-0.24387057
-0.7947327
-0.16586617
-0.025444247
0.16191293
0.11632849
-0.18610778
-0.1462401
0.09740232
0.07464172
-0.1565045
-0.8100046
-0.5464848
-0.060504742
0.02025863
0.058704775
-0.18772958
-0.41941375
0.41168118
-0.2794023
-0.5076064
-0.4823737
-0.54372203
0.19126567
0.22548047
0.18308993
-0.45428932
-0.18186179
0.48583663
-0.27660134
-0.5992917
-0.13164674
-0.0010405962
0.025106603
0.28214365
0.17497835
0.110761665
-0.21486217
-0.16006248
-0.08235415
-0.32750112
-0.6640565
-0.18715484
0.12398265
0.15342928
0.0496021
-0.19908997
-0.12624368
-0.048018195
-0.13460249
-0.19782595
-0.38774252
-0.35746214
0.18403189
0.40043557
-0.04757605
-0.09945463
-0.3408696
0.16793692
-0.3596426
-0.16277723
-0.6334587
-0.46060976
0.30456164
-0.09364849
-0.16255203
-0.17573956
-0.16815096
0.5682097
-0.5953315
-0.20591342
-0.94365424
-0.08710127
-0.12742366
0.19546226
0.108017184
-0.20164129
-0.23439527
-0.38471892
-0.10123166
-0.14784247
-0.12811634
-0.070283026
0.15931457
0.03225198
0.12012772
0.05151968
-0.031890813
0.026440907
0.056762032
-0.050418872
-0.5736655
-0.19698335
0.15509519
0.20601964
-0.008320772
0.14356245
-0.26848817
0.20732792
-0.31987995
-0.38243148
-0.78766793
-0.3288819
0.17739286
-0.24659674
-0.4740923
-0.23193495
0.09863744
0.58127004
-0.865291
-0.42634466
-0.9625661
-0.17284118
-0.1639644
0.1481893
0.12644829
-0.57941866
-0.16446017
-0.2910038
-0.28250837
-0.049713243
-0.016443871
-0.04915584
0.073413655
-0.07342449
0.024974713
-0.065704055
0.18974973
0.12131278
-0.4280294
-0.07139064
-1.136621
-0.12245947
0.11751906
0.34794152
0.18776637
-0.1898916
-0.3382399
0.07823581
-0.62316966
0.06329362
-0.14409257
-0.36874697
0.20965628
-0.20008895
-0.60917896
-0.11496054
0.02374163
0.27177307
-0.8834434
-0.111187905
-1.4589258
-0.018742045
-0.27149886
0.18266182
0.098764114
-0.5450203
0.013252715
-0.06335211
-0.2783314
0.07240643
0.028039517
0.08557824
0.15327133
-0.3750484
-0.20318432
0.14383596
0.19034387
0.28924477
-0.7656381
-0.2377187
-1.6655918
-0.15326121
0.18597665
0.15658881
0.06287884
-0.12374045
-0.23593979
0.10970966
-0.62573266
-0.030202733
-0.24761705
-0.71210194
0.099464454
-0.26176354
-0.76775557
-0.30373165
0.12020275
0.39986295
-0.14549486
-0.10127869
-0.4349517
-0.09238503
-0.018942293
0.08551982
0.028491158
-0.3555988
0.020180311
0.012575678
-0.48879445
0.079020105
0.0014253058
-0.019308865
0.58605534
-1.1165259
-0.60882795
0.48516962
-0.33105367
0.1377286
-0.2810911
0.011815114
-1.0917621
-0.07906927
0.12671472
0.18639907
0.0112160295
-0.15153755
-0.006796913
0.07286697
-0.4835644
0.100783125
-0.6088204
-0.44590005
-0.02530223
-0.33459696
-0.5869639
-0.14426787
0.08249707
0.50819296
-0.99963504
0.09710391
-0.4743438
0.0048269755
0.09861849
0.12445493
-0.052744642
0.005894828
0.06595093
0.27274877
-0.76917416
0.11525888
-0.07708397
-0.31837448
-0.020943835
-0.2584197
-0.17402169
0.5190833
-0.054555587
0.05101422
-0.831081
0.18027921
-0.7843189
-0.026289305
0.10728547
0.1378247
-0.08287354
-0.04265935
-0.023098873
0.22832718
-1.0114304
0.05315477
-0.43574995
-0.56104887
-0.1336985
-0.12181442
-0.69580877
-0.100876324
0.1480229
0.49960947
-0.8067832
-0.09637631
-0.72271395
-0.11443584
0.19208436
-0.22858573
-0.4122667
0.58540344
0.21329021
0.3573879
-0.83035004
0.090988144
-1.0287225
-0.40996632
-0.18347467
-0.34604767
-0.091149546
-0.46707696
-0.07904338
0.4105792
-0.4801337
0.00853368
-0.16654415
-0.07881894
0.05857963
0.034941427
-0.412219
0.09056999
0.008465372
0.32613
-0.85338926
-0.148097
-1.0159556
-0.1978098
-0.029931836
0.04033571
-0.08753273
0.17956522
0.06928839
0.11053968
-0.35728553
-0.16632915
-0.21437117
-0.0510124
0.089023165
0.036066506
0.21166942
-0.12788603
-0.678622
0.15875891
0.21519259
-0.5550509
-0.99776447
-0.013118138
0.07486673
0.041237745
0.07056409
0.04871318
-0.04627186
-0.011682159
-0.020595057
-0.063419566
-0.08318002
-0.25136578
0.28536674
-0.19529131
0.012924492
0.09778501
0.007579014
0.0044372366
0.061674453
-0.2203438
-0.55198467
-0.36055565
-0.3413733
0.14293957
0.020986594
0.060914632
0.06655231
0.28864104
0.14748563
-0.088828884
-0.45218736
-0.26749685
-0.07683125
0.040276047
0.14341049
0.07587042
-0.22008497
-0.14310901
0.24705306
-0.2491301
-0.9742618
-0.2072201
-0.25585118
-0.0015751888
0.03511741
-0.06059144
-0.027534243
-0.06286877
0.08861453
-0.034159012
-0.15407458
-0.04625301
0.089141354
-0.25457978
-0.27510995
0.09413798
0.048083786
0.12744953
0.07932765
0.046253238
-0.8741861
-0.15381375
0.05467228
-0.011396574
-0.06546392
0.04712157
-0.06566251
0.19922283
0.06128344
-0.0953822
-0.63030267
-0.19697824
-0.11974232
0.15322213
0.14691754
-0.11894639
-0.04861209
-0.3496364
0.2575863
-0.037960485
-0.2959415
-0.1561623
-0.024880124
0.12615739
0.082953244
0.031292427
0.0018347246
-0.12810518
0.23778151
-0.035912614
-0.09641786
0.06155671
0.33321795
-0.04798243
-0.104058616
0.17825788
0.15952343
0.09075147
0.09435085
-0.024749544
-0.5544505
0.003528716
0.11305633
-0.0037776888
-0.49184996
0.22781576
0.011272939
0.20948508
-0.5545677
0.03277014
-0.26244342
-0.11549356
-0.08835432
0.095050044
0.13769943
-0.2705692
-0.017362475
-0.41593817
0.17124462
0.014366442
-0.02711031
-0.08807171
0.09464685
0.11772024
0.079135425
-0.013722021
0.08177044
0.012701141
0.10653923
0.043856613
-0.16939327
-0.0658064
0.24767902
-0.042365447
0.0015983274
0.12166324
0.049174987
-0.12820603
0.06159302
-0.16009425
-0.4523912
-0.021757329
0.2603073
-0.022877106
-0.32428882
0.20154023
0.025878448
0.24217103
-0.59894866
0.14265122
-0.6424254
-0.043779865
-0.19116314
0.093331076
0.08137702
-0.62549835
0.05996463
-0.24445473
0.029109405
0.05802303
0.04925596
0.040640548
0.16950983
-0.023674624
-0.08771696
0.029141044
0.08917731
0.15108126
-0.4888133
-0.08162944
-0.45213348
0.024529913
0.14182818
0.08355473
0.11467189
0.16107322
-0.0010326905
-0.11215316
-0.00922316
-0.15157837
-0.2199504
-0.10767996
0.1367323
-0.022258954
0.01493543
0.115799
-0.09028909
0.14668602
-0.19938709
-0.02926761
-0.56592494
-0.008900705
-0.49188554
0.05798688
0.090285234
-0.5344061
0.07113824
-0.049643863
-0.046658486
0.09568717
0.059763793
-0.068473674
0.4695698
-0.19671501
-0.26341486
0.3863215
0.10142297
0.21990275
-0.4093961
-0.14816773
-0.9224771
0.08257674
0.13680118
0.09974764
0.030971143
0.06659627
-0.24126631
-0.3898848
-0.100995906
-0.049131393
0.007027131
-0.14250042
0.14843465
-0.044297483
0.06914336
0.07646433
-0.05622715
0.11303784
-0.085649885
-0.008003459
-0.48514283
0.014377481
-0.5810573
0.04864971
-0.020904172
-0.49683344
0.08644554
0.039733507
-0.11167192
0.057072736
0.062002197
-0.39972442
0.3307575
-0.9061685
-0.838606
0.39766353
0.160056
0.22621065
-0.4822639
0.028553853
-0.8501065
0.10172926
0.038411573
0.13259588
0.056735896
0.07402003
-0.32928547
-0.4143722
0.069991656
0.05769514
0.19268821
-0.06510066
0.098553285
0.04709814
0.010759815
0.17648555
0.034964256
0.041097015
-0.19714898
-0.049224477
-0.3904012
0.013500895
-0.4961801
-0.0455115
-0.10002641
-0.16481261
0.11598127
0.053874042
-0.21324077
0.037508946
-0.011015886
-0.5680404
-0.1708577
-0.87791044
-0.5137781
0.30572137
0.41135946
0.37839717
-0.95338684
0.14741278
-1.0624633
0.16314946
-0.0030377312
0.10491108
0.09945231
-0.017067857
-0.112486035
-0.26606393
0.050782576
0.098876745
0.06610145
-0.19043612
0.15279076
-0.0025316041
-0.20706202
0.24018548
0.025594609
0.0014272443
-0.43929353
-0.009430977
-0.57701784
0.025758477
-0.34007198
-0.7318779
-0.3924907
0.3767554
0.3531009
0.11398141
-0.14190839
0.17970206
-0.4728936
-0.41231608
-0.04864518
-0.6980742
-0.5089947
0.11448373
0.12611534
0.3735807
-0.6136987
-0.043864466
-1.0212244
0.16222125
0.15408596
0.049808674
-0.08703701
0.00094352104
-0.07833445
-0.16197078
-0.052282006
0.01458028
-0.16457534
-0.056811962
-0.038304366
0.014365751
0.041196477
-0.07586583
-0.04888546
0.08611908
0.013812251
-0.0019969682
0.020918325
0.018266995
-0.007409622
0.12751324
0.18701012
-0.14811133
-0.44421384
-0.14217927
0.37067375
-0.11590225
-0.65407085
-0.02055577
-0.11116984
0.041411094
0.038882457
-0.00078995334
-0.085938126
-0.06631109
0.011823722
0.015682153
-0.02770292
-0.06398267
-0.19942829
-0.16346012
-0.022438005
0.08925365
0.035575014
0.028183179
0.06937098
-0.2070847
-0.25406367
-0.102347456
-0.36108834
-0.038350582
-0.21992701
0.070632905
0.02900718
0.1192131
-0.0775697
0.0054313415
-0.034611203
-0.12929001
0.062520705
0.08493249
0.23960656
-0.19185807
-0.20432526
-0.39262187
0.2612718
-0.0709614
-0.62507993
-0.1002562
-0.21022776
-0.005168994
0.0039673196
-0.062118035
0.0048542875
-0.075306505
0.022656325
0.010053937
-0.04825391
-0.02266285
0.034448862
-0.35718685
-0.17223135
0.13392258
0.057215437
0.07337886
0.08276025
-0.024804933
-0.1453562
0.10619009
-0.32423055
0.0022859224
-0.21090318
0.24464801
0.16210783
0.24842805
-0.04010422
0.074635066
0.11412633
-0.15823418
0.00084627053
0.11263483
0.15642025
-0.35449886
-0.054374915
-0.5876839
0.19150859
-0.0809617
-0.17109789
-0.04352418
-0.32049665
0.04450149
-0.011121614
-0.019075425
-0.01906912
-0.05612499
0.018528404
0.03712451
-0.0067995926
-0.058210403
0.032126956
-0.10443788
-0.19866303
0.24432358
0.12260147
0.026565
0.24104865
0.05945183
-0.21567722
0.035969373
-0.094281636
-0.086149506
-0.37429476
0.17273821
0.056824684
0.1047325
-0.16039759
0.039746933
0.09174891
-0.066445254
0.0018233375
0.1150392
0.13164377
-0.5697416
-0.005241423
-0.5701844
0.11828457
0.024855595
0.023421496
0.011871292
-0.032903556
0.041411616
0.011841476
-0.07414748
0.07373876
0.02132781
-0.18811186
0.05035589
0.10836085
-0.088665836
0.2573679
-0.097669795
-0.07642613
0.18360437
0.061950497
-0.09730651
0.11349694
0.08046648
-0.39467466
0.0159552
0.03353167
-0.088464834
-0.008368536
0.15098275
-0.0539713
0.09323757
-0.32777718
-0.049132667
0.0030801913
-0.021454012
-0.23016492
0.06547634
0.09661286
-0.49391404
0.057146754
-0.4641653
0.073810466
0.027225977
0.06618001
-0.026087554
0.2431011
-0.020674597
-0.065749414
0.045431443
0.04692522
0.087317705
-0.38741517
-0.09820091
-0.13692404
-0.02673385
0.054351054
0.045180954
-0.037285015
0.12886614
-0.109655716
-0.289094
-0.033463635
-0.04461002
-0.018665584
-0.12776804
0.052379563
0.038576968
0.15246013
0.1102146
-0.31107116
0.021120746
-0.0064588985
-0.021262778
-0.019329274
0.018862216
-0.68181896
-0.004530117
-0.0073011583
-0.6117164
0.090662904
-0.14934976
0.020477822
0.014134227
0.015100921
-0.22236465
0.24541622
0.06900403
-0.36761776
0.26136196
-0.07482883
0.060904853
-0.4160937
-0.05411504
-0.19059974
0.10628865
0.10100567
0.16452515
0.06355745
0.1557483
-0.37602878
-0.6911789
-0.025519801
0.085321546
0.07153216
-0.1188539
0.06865151
0.062912636
0.103387475
0.11988605
-0.6483245
-0.22866973
0.034649458
0.055755254
0.017965635
0.06736233
-0.573513
-0.02539827
-0.0433614
-0.5569308
0.14251243
0.017172916
0.026729304
0.055053033
0.04002002
-0.15998174
-0.026716689
-0.12707585
-0.21104562
0.26185128
0.23883866
0.21003962
-0.33536118
-0.06373729
-0.18842494
0.20563425
-0.29049706
0.22346891
0.1056174
0.08276728
-0.65916765
-0.5652955
0.05712777
0.1335537
0.1543031
-0.021206597
0.009862146
0.12055951
0.09905992
0.087364234
-0.38656667
-0.41474414
0.084359966
0.11941871
-0.016713848
0.096128136
-0.3456511
-0.0870364
-0.28546137
-0.32928094
0.22294231
0.09206048
-0.13203481
0.108704194
0.013486128
-0.4394791
0.066719815
-0.609527
-0.11431822
0.14708829
0.31341133
0.22786063
-0.20098045
-0.007007341
-0.4775238
0.22903308
-0.3832679
0.15320303
0.01736329
-0.06702888
-0.469796
-0.34793314
0.15218934
0.1995221
0.11109243
-0.0062854304
0.05260966
0.061369386
-0.044172145
0.04379858
-0.34974605
-0.2720081
-0.064911336
0.021869706
-0.13192342
0.06631624
-0.29925945
-0.38492545
-0.8104607
0.19490694
0.34614778
0.105423205
-0.3981768
0.13415399
-0.23340502
-0.33088997
0.16694683
-0.29634175
-0.12391362
0.30314353
0.18440673
0.22995633
-0.10689222
-0.026664965
-0.5357734
0.15313847
-0.04694314
-0.03741493
-0.15069342
-0.055534665
-0.36152673
-0.21461198
0.08880311
0.13016197
-0.020012233
0.16081281
0.074722216
-0.22271617
-0.1563791
-0.120071456
-0.08820933
0.07922884
0.0015150296
-0.06901885
0.107407086
-0.16415574
-0.27861896
0.18851279
0.21460977
-0.090669006
-0.36880884
-0.5513908
0.4579026
-0.022084566
-0.4619661
0.037623864
-0.053133078
-0.07582418
-0.19890027
-0.05345931
-0.1599502
-0.011688126
-0.0139852045
-0.067147456
-0.03330056
0.041810554
-0.08283943
-0.32506695
-0.326566
0.069897674
-0.08559239
0.19778416
0.10682256
0.016072823
0.10271387
0.106124744
-0.4169793
-0.22392425
-0.20589618
0.039761037
0.04845166
0.28240094
0.049632978
0.04946937
0.14685148
-0.4108509
0.0328752
0.10515342
0.13857849
-0.09483693
-0.031594533
-0.76477486
0.23291852
0.07803572
-0.3161937
0.078058265
-0.28670385
-0.12935221
-0.07223639
0.082858436
0.026992405
0.039973795
0.0053300383
0.09404219
0.07415803
0.02098118
-0.0825827
-0.4776663
-0.4773489
0.10887448
0.050368097
0.054368265
0.07639373
0.07666374
0.05036994
0.052700218
-0.5285627
-0.3307941
-0.29223195
0.10347336
0.047821958
0.075634
0.027353825
0.015140646
0.08145397
-0.17076005
0.078372404
0.09022888
0.052937746
-0.11386138
-0.011014788
-0.8406043
0.14606278
0.095641874
-0.04460237
-0.0218677
-0.23316364
-0.2089926
0.06562884
0.029835628
0.037368998
-0.0031437953
-0.09442168
-0.05302533
0.047020875
-0.044490006
-0.19117558
-0.33099982
-0.40269715
0.19935971
0.11326104
0.07394373
-0.030046819
0.101548664
0.10134197
0.073850535
-0.09931989
-0.23453447
-0.29660165
0.08833768
0.0063012093
0.055854544
0.0025250693
-0.06714326
-0.015828282
-0.13786948
-0.0016001463
0.0244016
0.035952292
-0.24983911
0.0009931326
-0.6744864
0.113851056
0.02034481
0.058188748
-0.17321664
0.07399821
-0.0966413
0.26473302
-0.20139463
0.052720178
-0.040557876
-0.32113582
-0.073060825
0.043422054
-0.08765517
0.12835076
-0.19261247
-0.15468894
0.1623116
0.08671364
-0.009318061
-0.2526153
0.16916725
0.17484707
0.04480102
0.02591659
-0.060912315
-0.031818498
0.05356689
-0.04436114
0.05602904
-0.11906504
-0.05644879
-0.059495736
-0.06393528
-0.27241895
-0.045476478
0.020412125
-0.25024325
0.039523214
-0.25248477
0.07474135
-0.01816649
0.025862506
-0.31678683
0.22560784
0.14277218
0.1530056
-0.118451014
-0.35831204
-0.09613526
0.11302707
-0.27124727
-0.03702425
-0.3098141
0.03397743
-0.09191436
-0.1420996
-0.04467129
-0.14817674
-0.31820923
-0.1489703
0.11456544
0.07924259
-0.05162257
0.10374392
0.08885912
0.10618892
0.09899471
-0.34077814
-0.08622558
0.13365898
0.0944272
0.110530294
0.15234782
-0.53022677
-0.0129416725
0.10166578
-0.36770958
0.13925968
-0.015835878
0.109164916
0.03830294
0.0020971901
0.086957395
-0.40173674
0.11679715
-0.30687514
0.19023608
-0.22101198
0.13114914
0.09433612
-0.1362565
0.057423256
0.18202418
0.05728091
0.15230885
-0.12656802
0.14560395
-0.11389792
-0.5831827
0.07820934
0.032199085
0.084813036
0.08873146
0.059431653
0.1431976
0.05475209
0.13229579
-0.96148884
-0.5051804
0.11976863
0.09492922
0.054096546
0.091749966
-0.5830031
-0.1753479
-0.008934795
-0.6430039
0.17942487
0.056865238
0.060856503
-0.024355732
-0.11180404
0.1945225
-0.033199962
0.1287159
-0.07802902
-0.028560268
-0.058106158
-0.0061738044
-0.073583715
0.00056615623
-0.12565038
0.14616036
-0.41486523
0.12315334
-0.18298742
0.0015092329
-0.20588963
-0.3020022
-0.013445053
-0.10938525
0.028867764
0.14027889
-0.025972173
0.14160867
0.029169923
0.102298826
-1.1672015
-0.3289709
0.10029743
0.07697669
0.04636247
0.052603927
-0.1435861
-0.24057534
-0.1602063
-0.26265445
0.15617293
0.034585986
-0.15551093
0.11142449
-0.15645812
-0.32278696
-0.0005072553
-0.15009362
0.049665634
0.053226747
0.015344199
-0.045470644
0.020689076
0.12348606
-0.114930496
0.1852282
-0.16613053
0.13718008
-0.20347726
0.019601569
-0.1392116
-0.05729301
0.02414319
-0.04228656
0.09343064
0.15469068
-0.030258939
0.1008809
-0.069606535
0.0866533
-0.99016744
-0.06270531
0.080679245
0.19035512
0.06782183
-0.04002619
-0.0025501987
-0.21872221
-0.33765304
0.1393053
0.25151834
-0.06303308
-0.24904233
0.29693
-0.5051886
-0.46964297
-0.0075331447
-0.112731755
-0.026845576
0.12498902
0.0071506226
-0.013404624
0.032382034
0.09778589
-0.20171645
0.32170242
0.22581927
0.09820471
-0.52649474
-0.082974434
-0.43576914
0.18239152
0.036083054
-0.05417812
0.15736276
0.2240161
-0.008407899
-0.20315762
-0.3464672
0.038882032
-0.21437141
0.25181884
0.08397165
-0.14939134
0.10133991
-0.17002769
-0.080645554
-0.20451885
-0.04228478
0.20279549
-0.15944237
-0.32586655
0.28146654
-0.13732159
-0.11188501
0.14670704
-0.092845485
0.077643156
-0.1630106
0.15277912
-0.09599494
0.07393556
0.092186235
-0.110050455
0.072569884
0.12145842
-0.06586383
-0.45785767
-0.3353979
0.120323904
-0.29302484
0.15014742
0.12530477
0.117982484
0.11824834
0.117709324
-0.17980458
-0.5309223
-0.32472366
0.10801548
-0.14227724
0.16102639
0.064689994
-0.14937767
0.1261679
-0.40391338
-0.06407696
-0.10821428
-0.019478027
0.17553999
0.09399746
-0.53982323
0.023728888
0.07992015
-0.02685183
0.059238143
-0.23335388
-0.13908063
-0.08062602
0.0711851
-0.058807082
0.01686484
-0.11198171
-0.19465806
-0.036228575
0.081505634
-0.024475686
-0.4930308
-0.41072774
0.11987212
0.006363872
0.11340675
-0.080901116
0.08687425
0.1368613
0.11128607
-0.2533757
-0.4288988
-0.1290669
0.12653126
-0.01440489
0.13041678
0.16913064
-0.03961881
0.16896245
-0.6347063
-0.06831304
-0.041978616
0.013063255
0.096968964
0.04303513
-0.6115126
-0.016008634
0.037457112
0.11984545
-0.04160469
-0.0851922
-0.09442884
0.21651252
-0.0024484578
0.06822706
0.111341044
-0.14206392
-0.21488851
0.017054196
0.023307214
-0.44858438
-0.4325678
-0.18392886
0.099917784
0.090153754
0.14729846
-0.24670558
0.123959064
0.09082494
0.13410172
-0.06616037
-0.14970607
-0.352073
0.08734696
0.024938473
0.120017685
0.03474955
0.004418365
-0.0149630355
-0.3445317
-0.13722563
-0.0032024544
0.083268635
0.10027894
0.07618923
-0.40242514
-0.045080736
0.05468759
0.15398991
-0.26813546
0.07190083
-0.016116573
0.4586601
-0.3134393
0.041906424
0.0068887025
0.06363982
-0.33206242
-0.24845174
-0.042027257
0.09279232
-0.29722992
-0.12053454
0.042149242
0.09201934
0.04991928
-0.2772486
0.1733432
0.11058473
-0.04585006
0.03596203
0.024807755
-0.16744854
-0.1557639
-0.154133
-0.0018594273
0.022002332
0.013383236
-0.17304425
-0.22679932
-0.22833498
-0.061535046
0.09169989
0.15392075
0.08130111
0.03887274
-0.13880333
-0.027859408
0.12884867
-0.1412348
0.22405387
-0.111522116
0.23095301
-0.05685246
-0.2109192
-0.030456785
0.2889912
-0.681888
-0.011467227
-0.25847328
0.057982884
-0.08116748
-0.09243022
-0.06983982
0.025305511
-0.12361212
0.024062691
0.15127276
-0.1034493
-0.050243728
0.045182925
0.07291365
-0.107153654
0.058065087
-0.21773437
-0.16858597
0.05138116
-0.007088237
0.018406037
-0.12229195
-0.6926788
-0.08929036
0.11648674
0.003658906
0.122562945
0.12904933
-0.02636516
0.0145514235
0.023898514
0.21782063
-0.12172278
0.008836594
-0.2031877
0.17545909
0.07318454
0.00933477
0.3408148
-0.5794755
-0.087404504
0.04419017
0.02084509
0.0040594223
-0.18691806
0.08190976
-0.057119746
-0.18233138
0.16204517
-0.29732123
-0.0032628467
0.07253496
-0.014242013
0.054190874
-0.119346805
0.03637128
-0.19070719
-0.16615407
0.07092332
-0.08713145
-0.0018313006
-0.11446033
-0.68834716
-0.1712316
0.13110527
-0.004144424
0.1303185
0.18052
0.047934975
0.096915476
-0.20985128
0.15542315
-0.006614737
0.20975402
0.08420244
-0.36641562
-0.2298329
-0.25833356
0.007824465
0.16841537
-0.0901727
0.13358214
-0.18326716
-0.009760121
-0.01329101
0.0037184057
-0.00583876
-0.04492258
0.021758271
-0.3110752
-0.12049846
0.11954062
-0.19280009
0.060728114
-0.17396255
0.049889497
-0.24728364
-0.009927007
0.08697736
-0.13212183
0.0038254638
-0.04253407
-0.24255179
-0.054291546
0.06124781
-0.0043593524
0.057370245
0.06764066
-0.04927724
0.10743251
-0.49866173
-0.122497536
0.007664089
0.16963488
0.18444087
0.07207796
-0.65662843
-0.47573367
0.029103624
0.24991159
0.05167348
0.19091444
-0.21687847
-0.14718176
-0.0051041814
-0.04892292
0.006528248
0.026529098
0.052960757
-0.13075788
-0.020971686
0.17961164
-0.14740145
0.048596654
-0.24298698
0.036628436
-0.35497814
0.08981594
0.15520951
-0.07817782
0.069000445
-0.39496988
-0.086232
0.27641135
-0.20824172
0.20286737
0.051112343
0.04366802
-0.01608103
0.20282413
-0.54797465
-0.14724004
-0.063363954
0.09388466
0.025503563
0.19817875
-0.49002194
-0.43647495
0.04307484
0.33852026
-0.06878643
0.2169825
-0.48053584
-0.25387722
-0.018224265
-0.019878658
-0.08145655
0.10726254
0.035064068
-0.15396759
-0.06378268
0.1952388
-0.95335275
0.18231723
-0.35204607
0.114927016
-0.22762
0.10016884
0.061234385
-0.24286631
-0.06915443
-0.056794573
-0.092735365
-0.14915262
-0.035087265
0.4237391
0.060603563
-0.21677445
0.16043323
-0.42578712
-0.030957406
0.03554751
-0.3270814
0.037873268
-0.10680715
0.051000834
-0.011208109
-0.04725301
-0.07429108
-0.08241694
-0.123614684
0.059577156
-0.5549383
0.015055249
0.10179696
0.06998161
-0.16277017
-0.02541283
-0.008213921
-0.08790129
0.118190736
0.20509109
-0.5175875
0.075813495
-0.37709865
0.09739119
-0.3298397
0.09466505
0.07635484
-0.04632892
0.15032534
-0.15413898
-0.0587496
-0.10768877
-0.0042075
0.1693873
0.119993754
-0.24016233
-0.035228506
-0.048679892
0.071861714
0.035423107
-0.27052987
0.09878162
-0.2091363
-0.012139482
-0.19358367
-0.01797767
0.023080636
-0.04954436
-0.16489965
0.10071914
-0.5883822
-0.03608655
-0.04672036
0.05579476
-0.055975772
0.15564904
-0.18478373
0.052238435
0.09309643
0.19473943
-0.06360204
-0.020332623
-0.5813171
0.13602409
-0.27238044
0.12601708
0.13001078
0.047460407
0.024137491
-0.19912738
-0.18141359
-0.071885996
-0.026783727
0.097086556
0.043436736
-0.15717134
-0.07528075
-0.06731551
0.0865363
0.046434704
0.09380118
0.24422282
0.05429261
-0.06662187
-0.129631
0.20499961
0.23272417
0.111177236
-0.14665875
0.093754224
-0.15463684
-0.1324648
-0.069503725
-0.045696385
0.033446014
0.12720364
-0.3175614
0.045012746
0.047980268
0.26863468
0.1028764
0.11104323
-0.5102056
-0.0035354833
-0.14513351
0.19756673
0.03603174
0.23156351
-0.4423263
-0.23661144
-0.29080033
0.030792154
0.03289078
0.1036532
0.0455366
-0.15146235
-0.089833565
-0.019489925
0.11576884
-0.087145105
0.2325545
0.0595269
0.17399426
-0.31520855
-0.08984745
0.19593437
0.149046
-0.061511874
-0.47806603
-0.05647234
0.08949316
-0.13119586
-0.064869285
-0.087148406
0.025344186
0.07673523
-0.23159286
0.084367156
-0.10380546
-0.070039146
0.055509385
0.0065516857
-0.34439316
-0.10274708
-0.061738547
0.06742527
0.008241417
0.038566962
-0.034696218
-0.32929397
-0.53753567
-0.008784748
0.0023074094
0.039333206
-0.0023275968
-0.06387456
-0.20975587
-0.06711267
0.06603246
0.113976896
0.26616135
-0.2865861
0.038017884
-0.14242418
0.05877437
0.180136
0.23455155
-0.42805606
0.006704805
-0.1049663
0.05428263
-0.07103921
0.025836356
-0.130236
0.07997939
-0.031011574
-0.088421024
-0.012614642
-0.26596853
-0.0099924905
0.029355504
-0.008233342
-0.07816783
-0.015415273
-0.028247861
0.032676555
0.00920964
-0.12614027
0.025239483
-0.3339245
-0.4289801
0.009746017
0.10587617
0.019458566
0.07001072
0.059709158
-0.09242389
0.059333425
-0.009765731
0.042019375
0.19667262
-0.024560397
-0.0341536
-0.0488302
-0.019515572
-0.15643325
0.1068189
-0.43144295
0.042481285
-0.024518233
-0.0029912782
-0.13728671
0.040368978
0.021049188
0.07344257
0.012932304
0.075383075
-0.07269371
0.046000935
0.047830407
0.0037960105
-0.020144152
0.05785305
0.0026313022
-0.0015000991
0.028158696
0.05762859
-0.13653299
0.06851876
-0.36153305
-0.4446873
0.038663723
0.096405536
0.09122206
0.08696657
0.103691414
0.13601622
0.120354354
-0.2526709
-0.13241963
0.053319115
0.07507668
-0.0971657
0.0725138
-0.54441375
-0.27118564
0.092695706
0.056851998
0.17091526
0.09761308
-0.14852408
-0.20675011
0.09495924
-0.21051873
0.07703512
0.06606447
-0.092254035
0.04764893
-0.07547748
0.07520274
-0.6692237
-0.07865547
-0.001012999
-0.016862992
-0.03709225
0.0225035
0.10650263
-0.1401244
0.06990429
-0.25667712
-0.1482686
0.15355168
-0.041134007
0.16902997
-0.033998214
0.0478434
0.16501716
0.058647227
-0.43717155
0.1178896
-0.26462874
0.08056516
-0.10058139
0.24323463
-0.9177511
-0.018614378
0.15089567
0.13567169
0.07644098
0.1416337
-0.06684864
-0.20123176
0.06699228
-0.17287949
0.07017363
0.0689122
-0.093045205
0.054987073
0.005545326
0.12952617
-0.33402774
-0.14389887
-0.08888651
-0.04338102
-0.07087911
0.05155972
0.20301035
-0.15690988
-0.063742764
-0.41250405
0.13721925
0.48783788
-0.45145285
0.25690266
-0.4530476
-0.16381726
0.045201637
-0.10199223
-0.32464156
0.14585753
-0.13555025
0.07681616
-0.4606717
0.24979872
-0.85740244
0.099030875
0.0647797
0.07341346
0.10149464
0.017936962
-0.23099802
-0.13486086
0.055297878
-0.121857874
0.039107226
-0.029562322
-0.15884101
0.08212762
-0.06326342
0.14125344
-0.18904282
0.20397216
-0.13278161
-0.11457692
0.00047483254
-0.016842838
-0.27089047
-0.042327773
-0.1844472
-0.014508366
-0.02313977
0.085931
0.14231905
0.09669732
0.096100494
-0.34006873
-0.09234831
-0.40912604
-0.27372754
0.013792433
0.09187161
0.092532195
-0.022975067
0.02138757
0.008744828
-0.19308819
-0.1421027
0.07486289
-0.2294815
0.10864887
-0.4204105
0.11704788
0.19185053
-0.22666563
-0.066861495
-0.081622474
-0.23419076
-0.105300955
-0.15133701
0.15272573
-0.08735901
0.14833304
-0.28791115
-0.24250278
-0.23311244
0.121204875
-0.064791605
0.15763062
-0.17617404
0.018024208
0.14946456
-0.03509026
0.03578188
0.020853095
0.034817018
-0.021952022
-0.102378406
-0.226546
-0.019070845
-0.12298338
0.054603122
0.00515279
-0.0657093
-0.18192933
-0.04627954
-0.14023867
-0.12759553
0.03935625
-0.26601774
0.0916068
-0.3318708
0.059732568
0.0564723
-0.1851564
0.0195027
0.115372024
-0.33060366
0.011957174
-0.05589463
0.2727805
0.022559747
0.20110363
-0.40176928
-0.1125885
-0.24476346
0.21259551
-0.075439416
0.21552098
-0.43441367
-0.016031796
-0.0006910985
-0.03435639
-0.027104592
-0.0027139313
0.04934284
-0.04807404
-0.092354655
-0.20969933
0.086976
-0.035703905
0.06038906
0.13692777
-0.07262242
-0.09691891
-0.0894346
0.035069913
-0.0016292467
0.10670448
-0.14657936
0.11926279
0.036062334
0.07434382
-0.0011330728
-0.10025449
0.028817635
0.13451748
-0.30303696
0.05630056
0.012383047
0.09394111
0.07634789
0.065779746
-0.6844993
0.003233807
-0.20552693
0.09964345
0.046824027
0.11427882
-0.05499176
-0.001162386
-0.17344023
-0.037167717
0.0010113214
0.05341516
0.019340843
0.0013317482
-0.03287012
-0.15079038
0.09403153
-0.16209866
0.12206576
0.14743517
-0.1610321
-0.097977065
-0.21312751
0.0427327
0.043081544
0.06389975
-0.087387316
0.083598875
0.06907048
-0.01444581
-0.048143405
-0.10028415
-0.007734396
0.10573785
-0.13022068
0.038651645
-0.20805109
-0.12308583
-0.0039707734
-0.055203877
-0.14225014
-0.0014900558
-0.017079715
-0.069584705
0.026074428
-0.0101767965
0.04210583
0.061652903
-0.16515075
0.119254045
0.1346873
0.1315845
0.0020929107
0.07914776
-0.055968966
-0.02189354
0.0995362
-0.24836834
0.22443803
-0.15059547
-0.1534227
0.0034942494
-0.22545044
-0.2280966
0.032233045
-0.084998116
0.095925055
-0.028381962
0.16179709
-0.06664758
0.018770598
-0.051358484
0.039039217
0.08335697
-0.061939962
0.030227026
-0.069616854
-0.006127303
-0.047372706
-0.10751292
0.0673622
0.046060074
0.043916658
0.022098362
0.0404828
0.032147467
0.06926613
0.012791028
-0.038109243
0.14023009
0.051866177
-0.0073302626
-0.09471686
0.056267593
-0.10344607
-0.04529522
-0.19062054
-0.4404461
0.3990239
0.045232765
-0.24789168
0.17073086
-0.10721736
-0.35704657
0.20484018
-0.19842657
0.24150181
-0.13773318
0.047269333
-0.07425693
0.046896175
0.06790535
0.015466622
0.0089026755
-0.06432381
0.061664045
0.076667264
0.040229455
-0.31437746
-0.09604082
0.08567139
0.037164774
0.08830545
0.026769403
0.057499476
0.031005476
0.0685674
0.057745256
0.03505826
0.20491739
-0.03765765
0.06793788
-0.10814852
0.13393623
0.15010674
-0.004908039
-0.45846733
0.15887171
-0.26155528
-0.2083334
-0.057899993
0.141038
-0.12037339
0.15240575
0.14312212
-0.16219081
0.19935594
-0.20354053
-0.11547096
-0.09837031
0.024798457
-0.059836198
0.051193252
-0.029009422
-0.2839229
0.08086529
-0.027816752
0.02077412
-0.38776287
-0.14258711
0.05430888
-0.042275917
0.010578951
0.025948826
0.018265601
-0.027779477
0.03830448
0.10335206
0.13054083
0.23371947
-0.24004062
0.14695112
-0.3253393
0.053605843
0.120804094
-0.15290947
-0.48832402
0.06411252
-0.7819693
-0.13695134
-0.044082567
0.18071635
-0.25211832
0.15691955
0.31744888
-0.26577082
-0.029834462
-0.1674369
0.11918887
-0.058551166
-0.039285846
-0.16945685
0.032114487
-0.030413326
-0.4030679
0.04784082
-0.07022912
0.12093519
-0.23720057
-0.1474292
-0.014964319
-0.061659418
0.065800264
-0.041320235
0.06322572
0.052694347
-0.030697482
0.028913973
0.24832107
0.41858912
-0.71371555
0.12488535
-0.73159945
-0.004949913
0.007101992
-0.77466774
-0.34537745
0.06668068
-0.11281623
-0.002251739
-0.22484306
0.027349142
-0.33829418
0.09147502
0.22200407
-0.39391705
-0.10010174
-0.15078448
0.05802405
-0.08921153
0.039298628
-0.0096952375
0.1765519
-0.084678754
-0.29137623
0.004215642
0.20195894
0.09553666
0.18219809
0.072847575
0.0556866
-0.49406356
-0.061464734
-0.3582524
-0.18299179
0.10291668
-0.44252774
0.1231948
0.33503813
0.11580992
0.1488331
-0.117461875
0.0835547
-0.21461686
-0.272834
-0.13146828
-0.3369963
-0.12757932
0.12832934
0.031120809
-0.011743475
-0.32238
-0.14176147
-0.73666257
0.12643324
-0.040360365
-0.14431599
0.054716058
-0.15181538
0.08698663
0.25067326
-0.6294673
-0.059803195
-0.41056532
-0.27482066
0.064205796
0.020226888
0.110907026
0.1605919
0.12884495
0.0028920136
-0.27792755
0.00712605
-0.27644372
-0.11303847
0.1403959
-0.15487266
0.014709441
0.19947481
0.022207577
0.11240719
-0.10106082
0.08127562
-0.04558476
-0.2474914
0.008346923
-0.11439374
-0.069384575
0.1609553
0.06435421
0.10192528
0.023475211
0.119509704
-0.36471134
0.065438926
0.07994686
0.055048104
0.07255359
-0.073786125
0.057110496
0.14229375
-0.53012574
0.043067846
-0.040939752
-0.481822
0.08915802
-0.07689588
0.1070184
0.16613044
-0.022854965
-0.3685786
0.017603533
-0.24969316
-0.07068457
0.10178185
0.16206962
0.09671681
-0.011377775
0.09870955
0.015327432
0.06468035
-0.11341752
0.0996436
0.010094568
-0.24333951
0.020520706
0.002560039
-0.14512216
0.038213667
0.049862254
0.01771494
0.03195327
0.13189764
-0.28161046
0.025486447
-0.018700283
0.04630865
0.06341498
-0.072902046
0.034479495
0.0020206394
-0.43774912
0.03203395
0.022085072
-0.23481841
0.032029558
-0.07666562
-0.117955536
0.15047212
-0.24189883
-0.455666
0.054168135
-0.19250667
-0.31373778
0.10126052
0.01758108
0.085452
0.045190897
-0.015958987
0.049354583
0.0722372
-0.13414603
0.090114996
0.08623315
-0.25330004
0.08975536
0.045486685
-0.3564523
0.17861383
0.016899336
-0.030947136
0.060738478
-0.09763392
-0.3072261
0.08248502
-0.116187006
0.053719234
0.19304201
-0.013516539
0.0074954084
-0.0793716
-0.18050537
-0.0011506927
0.16163242
-0.0597856
0.14905669
-0.0953634
-0.12006349
-0.0098171085
-0.2308317
-0.0651241
0.03146851
0.003928254
-0.36860394
0.024541296
0.008355764
0.042106353
0.11243259
0.01613117
0.08573477
0.10665991
-0.10019606
0.09886404
0.12443012
-0.21636994
0.08834713
0.035271242
-0.5438023
0.21951643
0.013582452
-0.281636
0.095073536
-0.081308104
-0.57809365
0.18505967
-0.2537275
0.16065826
0.05231247
0.11101306
-0.0874992
-0.13615637
0.023257243
-0.07166081
0.073209316
1.636296e-05
0.12274163
0.015819957
0.023251928
-0.08636893
-0.19896734
0.060124498
0.026158594
0.05790143
-0.09894114
0.022213953
0.0710333
0.051321637
0.040238313
0.04176931
0.050684467
0.0054357923
-0.18329422
-0.023125129
0.09368628
-0.22183082
0.012069194
-0.106450714
0.0137518365
-0.14207545
-0.101719856
-0.08998154
0.04734981
-0.04745438
-0.051064223
0.15120193
-0.11249788
0.16583657
-0.5264748
0.05097405
0.060038783
-0.05964381
0.10339404
-0.011019792
-0.46865448
0.017324507
0.07607393
0.08294272
0.097021565
-0.13894618
-0.16737302
0.09050205
0.006817498
0.08158237
-0.008214526
0.02087115
0.045045823
0.01710508
-0.013728152
0.007229786
0.1107676
-0.08987469
-0.13803735
-0.15136403
0.010438902
-0.21470858
-0.10704423
-0.2856015
0.07129285
-0.45582306
-0.1780794
0.16542062
-0.16321087
0.03644714
0.114436455
-0.09811611
-0.023088768
-0.07140144
-0.6434132
0.013993168
0.1151876
-0.04793158
0.07260257
-0.108018555
-0.4561188
0.017570646
0.043238852
0.093311496
-0.014344851
-0.019008886
-0.15156956
0.08654749
-0.14851747
0.073817216
-0.046948474
-0.04153617
0.05341776
-0.024621999
-0.023519726
0.19837129
0.2427658
-0.2040426
0.06304217
-0.2849622
0.035871826
-0.10902275
-0.15552357
-0.058065385
-0.018008042
-0.20987377
-0.03407532
0.13870728
-0.16593891
0.0001611955
0.07650643
-0.04385026
-0.018481629
-0.18593347
-0.7801782
0.23373656
0.072542705
-0.10745676
0.05403797
-0.06437359
-0.42856145
-0.15540032
-0.0422607
0.055188358
0.10466677
0.09868575
-0.06840579
0.07301454
-0.027566934
0.16973288
-0.23520394
-0.051353775
0.056227293
0.040731054
-0.17240167
0.10926636
0.3941149
-0.4606121
-0.115538426
-0.5320706
-0.045309316
-0.26821125
-0.5353311
0.13527444
0.19064336
-0.040984534
0.24231105
0.15685315
-0.046236146
0.07949359
0.09500449
-0.14001915
0.0049875653
-0.11207281
-0.68420994
-0.040712044
-0.03376335
-0.33075365
0.114075296
0.047304194
-0.4849169
-0.21122189
-0.0058130054
0.26312694
-0.070512064
0.18969692
-0.2301721
0.22491491
0.034568865
0.027486898
-1.0577607
0.28216377
-0.15513663
0.0633323
0.02967863
0.22680812
0.048751168
0.19352302
-0.29880205
-0.054973405
-0.9804178
0.119394034
-0.19542144
0.1499571
-0.23220487
-0.10705093
-0.55170655
0.38538155
0.07930873
-0.18179761
-0.6141848
0.19274051
-0.46826562
0.18369015
-0.046830688
0.19825667
-0.014697551
0.39278615
-0.37547627
-0.18655886
-0.46750212
-0.10731304
0.04392066
-0.26811114
-0.32598257
0.1986852
-0.43827018
0.25399706
0.03892683
0.097366095
-0.57326216
0.3285847
-0.09429433
0.12958243
0.0066080643
0.022105346
-0.028497424
0.13150759
-0.15721536
0.072835155
-0.24736291
-0.020825522
0.018411446
0.08304763
-0.49458864
0.009267183
-0.31042033
0.28204495
0.09942288
0.084771104
-1.1391419
0.21370551
-0.2725066
0.18507239
-0.019033693
-0.03700985
-0.22323392
0.23211987
-0.3419164
0.030686006
-0.8613683
-0.01849265
0.10729451
-0.024544585
-0.4384275
0.12739669
-0.72514033
-0.17000441
0.15853442
-0.1714605
-0.7304383
0.3017365
-0.265833
0.27341804
-0.009806627
-0.03628275
-0.0019341896
0.09483198
-0.2008099
0.079977855
-0.077027075
-0.046054233
0.0448916
-0.008415034
-0.92591155
-0.084577635
-0.049913947
0.1667651
0.057961836
0.11988721
-0.86009604
0.18611148
-0.37445363
0.18066888
0.05514205
-0.081721224
-0.1674356
0.15937704
-0.055437837
0.15980148
-0.70083857
-0.07611536
0.13970779
-0.05212302
-1.1477662
0.14398624
-1.2330716
-0.366331
0.2863091
-0.24850565
-0.37191328
0.3631587
-0.22135574
0.38959217
-0.011874797
-0.0981901
-0.06180811
0.033135723
-0.19108935
0.052757274
-0.053026114
-0.14812273
0.011241101
-0.046215694
-0.56953204
0.004702131
-0.037645817
0.00517324
0.054098673
0.030933082
-0.22024819
0.17022653
-0.40806392
0.11577159
0.18935946
-0.021259302
-0.12211082
-0.0051209056
-0.051080804
0.074420154
-0.2158881
-0.012423943
0.118622765
-0.093888335
-1.1167378
0.110694684
-1.0403086
0.105135754
0.22806546
0.008370036
-0.61930573
0.2630008
-0.26137966
0.2851591
0.08082577
-0.024550727
0.028791135
0.11688404
-0.21895492
0.10006515
0.07265863
-0.15822105
0.09733618
-0.018758303
-0.16389287
-0.07762501
-0.11182489
-0.016531726
0.002852292
0.05839811
-0.07273252
0.090926945
-0.15423222
0.07301983
-0.12464738
0.007880268
-0.13963546
-0.4662438
0.057827648
-0.20001812
-0.26019755
0.12672766
0.03615113
0.059326816
-0.7032532
0.08997543
-0.7818596
0.11011015
0.13019776
0.10942668
-0.6441829
0.19702375
0.034599166
0.16063051
0.046305165
-0.0637628
-0.0028341184
0.0589773
-0.17095658
0.041663207
0.056938604
-0.24149224
0.017781569
-0.056346647
0.03601544
-0.08509731
-0.13328093
0.18185906
-0.10433301
0.06659536
-0.007699261
-0.051673196
0.06338306
-0.044878114
-1.1108108
0.24536416
-0.021255272
-0.35071254
0.21016547
-0.36093542
-0.76977
0.19880131
-0.15726808
0.19457778
-0.31354082
0.13708697
-0.3471032
0.15424208
0.044856697
0.11005277
-0.17101698
0.15048584
0.08404284
0.085562065
-0.03508151
-0.08350239
-0.03640977
-0.13473563
-0.15310203
-0.06703419
-0.06874407
-0.3548346
-0.020189865
-0.10066734
0.003979379
-0.03903789
-0.044651657
0.09108713
-0.082440235
0.047703248
0.03218003
-0.14003402
0.05738074
-0.1553591
-0.9861024
0.4113866
0.1537321
-0.25660023
0.24917473
-0.43010244
-0.7049465
0.18329814
-0.47534946
0.2010578
-0.30917555
0.098708265
-0.079822384
0.08985451
0.040368393
0.01137696
-0.30596843
0.061362907
-0.020307098
0.041296516
-0.09434033
0.030291723
0.15348351
-0.065883614
0.04628841
-0.08136846
-0.07123173
-0.42270696
0.012202812
0.04951854
-0.05250621
0.09679504
0.21128844
0.06802443
-0.0765583
0.030719353
-0.053024866
-0.2847994
0.040685147
-0.2587509
-0.6652023
-0.0054356093
0.26253623
-0.53823066
-0.0033755738
-0.16787267
-0.6890461
0.1292493
-0.58658785
0.26505715
-0.42742643
0.12830628
-0.22653227
-0.276696
0.009185403
0.094200976
-0.3881665
-0.243539
-0.07434578
0.25030825
-0.16719697
-0.0039279973
0.116087474
-0.4501398
0.08002393
0.05334148
-0.50352836
-0.47829348
-0.008052905
0.22869168
0.0083526205
0.030695045
0.019525692
-0.09530646
0.03490349
0.07161346
-0.091107234
-0.24916285
0.027275499
-0.047196314
-0.5787502
-0.3996108
-0.2013054
-0.17903472
0.22604832
0.0779216
-0.3619506
-0.08735301
-0.49302652
0.24226427
-0.55625695
0.75193894
0.36017722
0.105782345
-0.37372163
0.3119692
-0.004292478
0.17031822
-0.7475287
0.09517786
