1.874809,0.240583,0.095230,2.559407,2.352885,-0.307689,-0.177067,2.654851,2.300659,-0.355171,-0.226987,2.252478,2.664380,-0.356356,-0.316122,3.042953,3.600993,-0.299740,0.124201,3.196961,3.142609,0.006874,-0.254739,3.233623,1.664182,-0.275044,0.140586,1.019381,1.923844,-0.279946,0.123392,1.710877,2.139622,-0.352001,0.226135,1.808715,0.003676,-0.006004,-0.008244,0.003835,-2.647595,0.948329,0.722843,-1.826703,0.060929,-0.144775,-0.215200,0.019842,0.203331,0.042147,0.046903,0.253995,-2.585117,0.644776,0.396602,-2.268950,-3.455243,0.541710,2.008958,-0.716897,0.154877,-0.245559,-0.086898,0.028790,0.056874,0.144751,-0.213799,0.259440,-3.341993,0.865653,2.022736,-0.924705,-3.554748,-1.160677,0.485305,0.268154,-0.143806,-0.155932,0.020073,-0.184720,0.184435,-0.022590,-0.239373,0.154186,-3.789283,-0.891362,0.941256,-0.142299,0.729974,0.942887,1.032635,0.361675,-0.015491,0.123388,-0.032049,0.220657,0.228943,0.205836,-0.034875,0.223499,0.884783,1.286791,0.910770,0.849062,0.745400,1.475676,2.097614,1.502868,0.178141,0.001346,0.047338,0.110444,0.287006,-0.179955,0.272246,-0.134294,0.280837,1.322749,2.201113,1.230449,0.258241,-0.031857,0.962755,1.359867,0.088978,-0.130320,0.033369,0.083658,0.285493,0.084157,-0.013449,-0.213845,0.294216,0.143338,1.446518,1.535245,2.408755,1.078743,0.216787,1.081374,0.225766,0.020383,0.050069,0.243744,0.281187,0.043910,0.114240,-0.097628,2.427903,1.148571,-0.119376,1.182845,1.619992,0.864294,0.993966,0.746511,0.231253,0.278855,0.148426,-0.225946,0.156507,0.292558,0.176727,-0.123072,1.983636,1.458778,1.228687,0.957045,1.584141,0.912637,0.899002,1.016225,0.140231,-0.058980,-0.195011,0.048663,0.140378,-0.000684,-0.096655,-0.180941,1.620054,1.279345,0.678401,1.264998,0.005841,-0.322290,-0.612552,-0.114404,-0.062883,0.084432,-0.066935,0.356521,0.140039,-0.250599,-0.152334,-0.168601,-0.271276,-0.538300,-0.276301,-0.272500,0.039494,0.266044,0.352870,-0.360907,-0.031543,0.142855,-0.187496,-0.738658,-0.129136,-0.274374,0.174438,0.216734,0.241615,-0.213018,-0.125841,0.071029,-0.106406,-0.587548,-0.022846,-0.001969,0.079729,0.071511,0.105902,-0.181482,-0.332627,-0.069758,0.060317,-0.372531,0.110984,-0.005292,0.104357,0.021005,-0.000309,-0.201851,-0.183753,-0.427133,0.120512,-0.211563,0.109425,-0.002210,0.081687,-0.030425,-0.034693,-0.098325,0.001778,-0.675611,0.200093,-0.218556,0.056513,-0.051449,-0.077109,-0.201704,0.191451,0.010099,0.130532,-0.760302,0.125897,-0.522235,0.037665,0.109436,-0.258965,-0.379021,0.306234,0.132032,0.411585,-0.848422,0.122488,-0.965372,0.011998,0.049704,-0.483479,-0.748705,0.385252,0.392690,0.312640,-1.119913,-0.029444,-1.538646,-0.158812,-0.180066,0.115210,0.402478,0.289295,-0.860359,-0.599468,0.471453,-0.075899,-0.792095,-0.220970,-0.032068,0.176365,0.424170,-0.129061,-0.444010,-0.455904,0.550838,-0.110101,-0.426362,-0.280586,-0.779781,0.200271,0.247215,-0.018871,-0.191618,-0.728183,0.361344,0.060184,-0.084649,-0.113219,-0.731866,0.070555,0.086854,-0.093170,-0.120295,-0.661112,0.179355,0.045774,0.141032,0.051591,-0.315497,0.050138,0.056399,-0.292226,-0.000610,-0.487305,0.066475,0.081891,0.186043,0.164288,-0.147886,0.003798,0.021011,-0.332912,0.016949,-0.649304,0.109941,0.070595,0.197057,0.193316,-0.295343,-0.016518,-0.044000,0.018524,0.115097,-0.673126,0.113569,0.128154,0.152843,0.060757,-0.240692,-0.160731,-0.137409,0.076785,0.349985,-0.439059,0.024236,0.217526,-0.146353,-0.120287,-0.389062,-0.331187,-0.593895,0.191834,0.615046,-0.106019,-0.158838,0.249896,-0.582574,-0.101925,-0.076011,0.228636,0.454971,-0.569480,-0.899535,-0.637663,0.290855,-0.093477,-0.336778,-0.280327,0.029815,0.435605,0.511034,-0.694796,-0.615231,-0.776572,0.207217,-0.023792,-0.071527,-0.144297,-0.639574,0.359306,0.105004,-0.189113,-0.294855,-0.520132,0.309057,0.035523,0.220834,0.026137,-1.123068,0.099144,-0.006391,-0.055739,-0.060331,-0.265647,0.403699,0.094981,0.313829,0.010280,0.144235,-0.032466,0.088480,-0.678210,0.183113,-0.317868,0.394418,-0.180857,0.048013,-0.091246,0.277695,-0.045977,0.035438,-0.699826,0.338749,-0.288415,0.436341,-0.321298,-0.018193,0.128585,-1.344949,-0.146757,-0.317910,-0.207727,0.348098,0.085726,0.316804,-0.080988,0.172286,0.295788,-1.881543,-0.245738,-0.380457,-0.539967,0.538535,0.243563,0.073669,0.333050,-0.027092,0.119466,-1.023825,-0.480593,-0.544540,-0.691921,0.902859,0.046995,-0.352677,0.347241,-0.366188,0.130452,0.277001,0.159064,0.355647,-0.311170,-0.399487,-0.183256,0.441500,0.022268,-0.135520,0.066557,0.278492,0.575010,0.450402,-0.038753,-0.555762,-0.486080,0.373781,-0.691130,0.098110,0.070845,-0.664141,0.302992,0.612603,0.195192,-0.323481,-0.314900,0.065155,-0.738277,0.011906,-0.314891,0.081165,-0.051492,0.624592,0.119277,0.024649,-0.379442,-0.298461,0.072002,-0.293773,-1.514383,-0.178756,-0.139181,0.295668,0.002553,0.447488,-0.045946,-0.855075,0.466569,0.008965,-2.188191,-0.056303,-0.552210,-0.047213,-0.125311,0.551813,0.488065,-0.537436,0.365466,0.462723,-0.737201,-1.355874,-0.749473,-0.176718,-0.141084,0.606091,0.590211,-0.168565,-0.001169,0.412438,0.007879,-0.687724,-0.549441,-0.316189,-0.228309,0.747954,0.487980,-0.245919,0.000441,0.011724,0.302118,0.015499,-0.160669,-0.696524,-0.243806,0.217417,0.507531,-0.412653,0.125609,-0.358114,-0.070658,-0.114509,0.549594,0.348754,-0.093703,-0.110930,-0.542884,0.408869,-0.914423,-0.810955,-0.113029,-0.062907,1.007862,0.405415,0.205469,-0.379471,-0.823598,0.479055,-0.530871,-1.196014,-0.208036,-0.365219,0.665519,0.521101,-0.164500,-0.486038,-0.434130,0.035299,-0.079861,-0.329468,-0.955180,0.007020,0.610850,0.399141,0.064783,-0.277421,-0.478439,-0.374262,-0.028518,0.263088,-2.114113,-0.769785,0.455721,-0.032584,0.341730,0.201734,0.274805,-0.504094,0.054346,0.234290,-0.925004,-0.685157,0.101797,-0.037597,0.062970,0.460818,0.524732,-0.754399,0.050833,0.094445,-0.703268,-1.390906,-0.327377,0.384234,0.109084,0.513639,0.405698,-0.008059,0.027350,-0.611721,-0.607943,-0.543082,-0.152623,0.411873,0.221354,0.410270,0.114168,0.474231,-0.224191,-1.299902,-0.434452,0.139860,0.376543,0.044670,0.039536,0.382656,-0.376707,0.140166,-0.253733,-1.302651,-0.596313,-0.732174,0.174062,0.633447,-0.283849,0.730815,-1.040050,0.176488,-0.326381,-1.291948,-0.738198,-0.473879,0.224488,0.513149,-0.341343,0.713832,-1.297080,0.085478,0.151335,-1.227012,-0.762764,-0.379834,0.159287,0.201302,-0.650125,0.385466,-1.017046,0.050064,0.376978,0.183322,-0.460547,-0.444721,0.027038,-0.061032,0.091405,-0.037664,-0.264966,0.261599,-0.183957,0.547645,0.065265,-1.090272,0.154622,0.059257,0.406288,0.391472,-0.044653,0.190405,-1.043226,0.242400,0.052189,-0.490395,0.171459,0.363775,-0.259624,0.397540,0.179011,-0.510797,-0.102661,-0.837623,-0.263992,-0.653099,0.233452,0.341920,-0.187282,0.125963,0.176618,-0.184958,0.343674,-1.392518,-0.934150,0.371394,0.493623,0.099693,-0.002072,-0.074750,-0.231503,-0.008044,0.217362,-1.177696,-0.780372,0.432434,0.947911,-0.015577,0.040739,-0.172035,-0.577648,-0.401565,0.248841,-0.712944,-0.650501,0.388817,-0.200925,0.537220,-0.184230,0.321531,-0.771664,-0.281759,-0.368117,-0.410422,-1.145239,0.020895,0.095725,0.789417,-0.516459,0.875665,-1.733416,-0.199475,-0.353826,-0.116257,-0.261434,-0.039113,0.062812,0.567817,-0.573839,0.643576,-0.922408,-0.190334,-0.602199,0.045780,0.297582,-0.372900,-0.120541,0.416669,-0.738641,0.483304,-0.095620,-0.194324,-0.840953,0.285837,0.414281,-1.159330,-0.080146,0.508205,-1.410329,0.457042,0.289638,-0.482357,-0.317748,-0.111631,0.190637,-0.186417,0.294198,0.289385,-1.672320,0.267623,0.359368,-1.042977,-0.024516,-1.064379,-0.142159,0.193066,0.805275,0.057605,-0.666395,-0.081617,0.230653,-1.218609,0.200990,-1.371627,-0.663241,0.444585,1.326814,-0.544713,-0.234883,-0.492644,-0.157301,-0.718905,-0.046836,-0.445997,-0.688958,0.047975,1.323533,-0.707055,-0.166554,-0.203184,-0.563860,-0.551208,-0.162434,-0.182524,-0.806177,0.454344,-0.315009,0.376989,-0.325708,0.234357,-0.524769,0.384671,-0.825684,0.080010,-0.998322,0.131894,-0.347600,0.695865,0.049743,0.540205,-1.302036,0.111644,-1.692914,0.095746,-0.168076,-0.333876,-0.213959,0.562191,-0.249739,0.525984,-1.474289,-0.003894,-0.787708,0.228118,0.250339,-1.443753,-0.367883,0.431072,-1.099374,0.476575,-0.554010,-0.597456,0.140631,0.171205,0.550831,-1.584088,-0.049621,0.421845,-2.199273,0.431168,0.083945,-0.988590,0.471421,-0.424627,0.425702,0.098408,0.146471,0.125808,-1.050771,0.179943,-0.007880,-0.598350,0.286082,-0.715568,0.042873,0.392170,0.907967,-0.540832,0.376652,-0.333183,-0.466028,-0.820075,-0.135684,-0.311221,-0.803130,0.123741,1.442618,-1.213377,0.542521,-0.652588,-0.712241,-0.520796,-0.577113,0.208259,-0.352411,-0.108753,0.800445,-0.966373,0.220080,-0.528449,-0.578467,-0.441541,-0.434076,0.439628,-0.278819,-0.476655,-0.677829,0.298980,0.034837,-0.391187,0.008371,0.246035,-0.931287,0.462786,-1.164325,-1.128508,-0.981529,0.927183,-0.444724,0.137530,-0.015899,0.106966,-1.856379,0.477243,-1.311842,-1.570811,-1.145820,1.301784,-1.578141,0.426985,-0.388228,-0.033254,-1.087304,0.120225,-0.814445,-1.461116,-0.921307,1.449164,-2.222306,0.833458,-0.326146,-0.373939,-0.332057,-0.456026,-0.078373,-0.928224,-0.371122,1.144238,-1.838076,0.696072,-0.385731,-0.410406,0.164782,-0.774037,0.062306,-0.670522,-0.005758,0.312915,-0.854304,0.224889,-0.398905,0.093353,0.237448,-0.105907,-0.545612,-0.813869,0.416665,-0.290271,-0.511519,-0.138368,-0.584073,-0.043661,-0.415386,0.754549,-0.410207,-0.093144,0.283552,-0.432770,-0.618378,-0.261504,-0.297425,-0.141891,-0.798284,0.702168,-0.301025,-0.044018,0.189743,-0.157898,-0.333230,0.049270,-0.058141,0.098002,-0.439989,0.186321,-0.561432,0.047091,-0.012007,0.416158,0.267230,-0.682788,-0.074657,-0.043700,-0.517038,0.001609,-0.425694,-0.029340,0.318853,0.426937,-0.337917,-0.313792,0.085290,-0.544233,-0.641103,-1.197793,-0.187477,-0.476786,0.501645,0.491084,-0.739908,-0.186070,0.481279,-0.680445,-0.143515,-1.203429,-0.052921,0.182269,0.561859,0.438477,-1.090442,-0.077250,0.133164,-1.142115,0.170594,-0.782398,0.247112,0.123135,0.462856,0.266283,-0.984287,-0.054220,0.074118,-1.636288,0.305752,-1.163927,0.263124,-0.283339,0.447457,0.159079,-0.826892,0.136568,0.306540,-2.167746,0.327572,-1.667757,0.207399,-0.044303,0.217887,0.037569,-0.329873,0.291734,0.774020,-2.470178,0.130135,-1.893971,-0.082728,0.514132,-0.219504,-0.519400,0.054849,0.087753,0.959151,-2.835240,0.025522,-1.946688,-0.539782,0.109621,-0.854267,-1.341656,0.289585,0.412529,1.198713,-1.916449,-0.407812,-2.425142,-0.941913,0.238259,0.218503,0.535981,0.158287,-1.175254,-0.269719,0.547137,-0.514930,-1.496262,-0.343914,-0.342502,0.233369,0.397595,0.074587,-0.344997,-0.293516,0.406581,-0.128193,-0.903893,-0.202771,-0.782479,0.217902,0.279028,-0.117517,-0.015310,-0.195817,0.386801,-0.012206,-0.313664,-0.044818,-0.258789,0.204590,0.189550,-0.206003,0.106677,-0.284481,0.168033,-0.023576,-0.036231,0.089514,-0.037028,0.101664,0.122687,-0.499799,-0.012309,-0.207234,0.030902,0.091461,0.253684,0.201221,-0.049505,0.079702,0.056423,-0.527782,-0.052672,-0.179737,-0.005023,0.054278,0.250495,0.128077,-0.101521,-0.005809,-0.026717,-0.225730,0.016160,-0.176287,-0.036963,0.068533,-0.021248,0.074650,0.003953,-0.040565,-0.244614,-0.006823,0.160883,0.014431,-0.242499,0.129519,-0.241984,0.005050,-0.063993,-0.589431,-0.949475,0.574856,0.584224,0.184630,-0.891970,0.303820,-1.393114,-0.542200,-0.299432,0.310265,0.735587,-0.233797,-1.571393,-0.866510,0.818681,-0.062704,-1.056188,-0.162116,-0.293892,0.035159,0.261427,-0.145518,-0.167017,-0.343858,0.309534,0.062389,-0.186549,-0.065011,-0.462945,-0.003176,-0.041061,-0.041175,0.078469,-0.097818,0.342663,0.120978,-0.045036,0.031410,-0.189883,-0.078342,-0.263554,0.154182,0.160044,-0.085926,0.262477,0.098019,0.116345,0.055985,0.204533,-0.114835,0.022747,-0.390976,0.041510,-0.101460,0.201423,-0.002692,0.043473,0.192820,0.280045,0.013007,0.239713,-0.306592,-0.165609,-0.274366,0.220021,-0.084233,0.125317,0.237547,-0.189520,0.069390,0.142081,0.054498,-0.243440,-0.560923,0.194242,0.054743,0.133225,0.199878,-0.098564,0.008432,0.087757,-0.059416,-0.123721,-0.378068,0.068589,0.171560,-0.089529,0.281585,-0.701381,-0.239778,-0.469899,-0.054946,0.580439,-0.660232,-0.526598,0.279386,-0.863588,-0.615956,0.046047,-0.570279,0.283989,-0.281988,-0.044342,-0.641441,0.824544,0.100018,-0.209219,0.023070,-0.115219,-0.818375,-0.500395,0.105749,-0.041991,0.012336,0.334392,0.271881,0.243602,0.064247,-0.402611,-0.743675,-0.737017,0.454088,0.147700,0.085613,0.151577,0.146989,0.247854,0.171972,-0.701025,-0.726633,-0.266334,0.430128,0.273032,0.176086,-0.054737,0.243498,0.169362,-0.245402,0.362038,-0.524006,0.010852,-0.057132,0.114774,-0.114836,-0.273275,0.172364,-0.163448,-0.437170,0.383055,-0.196517,0.104415,0.192945,-0.272579,-0.273909,0.225842,-0.034219,0.186488,0.076167,-0.230419,0.000487,0.012197,0.314640,-0.544347,-0.294658,0.299785,0.030707,0.284698,0.276696,-0.617863,0.061193,-0.142485,0.029087,-0.930678,0.194236,0.121502,0.186633,0.139152,0.674133,-1.395547,-0.254374,-1.216130,-0.318647,-0.326840,0.595619,-0.515574,0.504702,-0.489770,-0.305713,-0.185929,-0.421967,-0.084896,0.076162,-0.435105,-0.986055,0.738584,-0.483597,0.268268,0.133051,-0.177197,-0.542287,-0.966013,0.498495,-0.170500,0.159640,0.240157,-0.314812,0.462007,0.288549,-1.274934,-0.391069,-0.512631,0.431912,0.127968,0.077234,-0.248522,-0.093234,0.338803,0.106261,-0.475600,-0.218508,-0.088045,0.372728,0.204699,0.270452,-0.799460,0.116235,0.121924,-0.677503,0.427105,-0.008000,0.177999,0.235927,0.071183,0.130416,-0.699701,0.275778,0.095359,-0.908008,0.370856,-0.075531,0.025222,0.280233,-0.196457,-0.063777,0.062982,0.064696,0.218168,0.024286,-1.003398,-0.089275,-0.037844,0.445741,-0.227559,-0.018121,0.289599,-0.140585,0.300907,0.268669,-1.144968,-0.050886,-0.223903,0.214844,-0.301561,0.210423,0.193623,-0.307498,0.160607,0.634416,-0.848102,0.034509,-0.645784,-0.008697,-0.710480,0.574248,-0.400450,-0.118161,-0.520662,-0.141812,-1.278310,0.489670,0.964017,-0.376266,-0.310089,-1.452012,0.210841,-1.388451,0.037771,0.112049,-1.333292,0.007276,0.094772,0.306986,-0.050642,-0.073537,-0.139262,-0.407165,0.283494,0.372986,-0.432344,0.026562,-0.353811,0.276781,-0.237113,0.282194,-0.371991,-0.127955,0.345345,0.153262,-0.069339,0.095426,-0.388081,0.167543,-0.324651,0.345046,-0.505733,0.117235,0.042713,-0.797535,0.365209,0.268506,-0.170005,0.177575,-0.276971,0.165372,-0.234059,0.195270,-0.069975,-0.310766,0.108997,-0.033007,-0.090940,0.233080,-0.221268,0.020421,0.076030,0.012119,0.086332,0.160087,-1.501248,-0.017751,0.040556,0.247340,0.017313,0.045670,0.108490,-0.279348,0.144086,0.255398,-0.333084,-0.044095,0.051265,-0.037475,0.043315,0.193478,-0.030720,-0.251116,-0.231520,0.305322,-0.156397,0.318290,-0.001285,-0.476476,0.031838,0.142285,-0.657566,-0.059923,-1.012201,-0.213499,-0.642377,0.715919,1.162098,-0.924519,-0.092524,-1.683078,-0.673297,-0.720189,-0.866923,0.261174,-0.237236,0.287205,0.462067,-0.766716,0.266007,-0.347099,-1.094106,-0.064921,-0.346746,0.311493,0.033425,0.224020,0.100432,-0.626464,-0.004057,0.080818,-0.620253,-0.013279,-0.270950,0.257247,-0.011334,0.157086,-0.273211,-0.357343,-0.119858,0.364244,-0.168741,0.085122,-0.451275,-0.003407,0.280960,0.116450,-0.236042,-0.067760,-0.145226,0.263868,0.011417,-0.014101,-0.190392,-0.033942,-0.052716,0.029860,0.030464,0.061075,0.069219,0.198179,-0.060649,-0.072520,0.007636,0.085571,-0.239259,0.087301,0.187527,-0.159667,0.163874,0.264325,-0.376315,-0.017226,-0.199035,-0.053653,0.261370,0.148923,0.125658,-0.469458,0.242047,0.169034,-0.820711,0.020594,-0.148498,0.204562,0.125770,0.255558,0.021477,-0.994942,0.378835,-0.071676,-1.315155,0.186194,-0.588832,-0.041144,0.273757,0.638464,0.837061,-1.291731,-0.362675,-1.769682,-0.255892,-0.664823,-0.724971,0.308185,0.405082,0.335034,0.351450,-1.453325,-0.152059,-1.076511,0.032866,0.255475,-0.180878,0.164416,0.060809,0.180393,0.142008,-0.833754,-0.039603,-0.413140,-0.151219,0.110687,-0.381583,0.310595,-0.117583,0.077585,-0.001313,-0.479836,0.004563,0.146208,-0.104386,0.113998,-0.353041,0.172190,0.038297,-0.114226,0.008040,-0.136598,0.021428,0.190344,0.026355,0.085800,-0.142019,-0.034170,0.138603,-0.144041,0.099253,0.030028,0.124157,0.011830,-0.149243,0.098945,-0.172019,-0.214070,0.383612,0.045815,0.045841,0.016233,0.211862,-0.142658,-0.530054,0.095037,-0.080684,0.030381,-0.241689,-0.131227,0.025600,0.007247,0.271126,-0.359501,-1.117077,0.183565,0.157954,-0.059475,-0.256693,0.013540,-0.670293,-0.119739,0.704177,-0.738602,-1.615436,0.081836,0.478295,-0.801396,-0.123138,-0.397279,1.067902,-0.497704,-0.193236,-0.542554,0.674003,-1.307319,0.146212,-0.273862,0.217306,-0.370965,0.525504,-0.563284,-0.624453,-2.232478,0.899936,-0.360780,0.438474,-0.172649,-0.241711,-0.286228,0.332724,-0.033129,-0.159979,-2.429186,0.626144,0.151023,0.303444,0.100448,-0.487211,-0.281313,0.342106,-0.174970,0.200467,-2.338987,0.372272,0.201319,0.155618,-0.020692,-0.328607,-0.432710,0.183405,-0.160098,0.296592,-1.772875,0.302272,0.233701,0.099009,-0.230125,0.252106,-0.422336,0.143914,0.058798,0.239600,-1.609319,0.403273,0.258555,0.238009,-0.584188,0.215333,-0.306492,0.001858,0.015219,-0.016767,-1.595381,0.012991,0.078952,0.509846,-0.879770,-0.144442,-0.338423,-0.453816,0.069632,0.335033,-1.229963,-0.101440,0.127818,0.734766,-0.692980,-0.381678,-0.169546,-0.580570,-0.239022,0.309465,-1.288738,-0.548282,-0.221790,0.801808,-0.057777,0.055719,-0.136743,0.321907,0.105833,-0.237463,0.169657,-0.024520,-0.294775,0.095120,-0.505880,0.143709,0.157462,0.429976,-0.330238,-0.615043,0.565325,-0.637271,-0.661666,-0.554292,-0.382287,-0.500927,0.602863,0.414467,-1.331048,-0.519432,0.624989,-1.212505,-0.297225,-1.447978,-0.197092,-0.367683,0.643400,0.633332,-1.730115,-0.197825,0.607887,-1.421890,-0.304290,-1.116970,-0.149497,0.168818,0.682406,0.576689,-1.624421,-0.154356,0.503828,-1.630734,-0.088783,-1.331967,-0.165861,-0.485785,0.541214,0.479227,-1.263244,0.187466,0.635862,-2.201639,-0.323538,-1.789436,-0.148537,-0.681336,0.286196,0.294861,-0.633943,0.296569,0.994098,-2.116756,-0.427446,-1.696039,-0.266148,0.046211,-0.226971,-0.346424,-0.161104,0.175960,1.002838,-1.518136,-0.342124,-1.539150,-0.553441,-0.183036,-0.723990,-1.032416,0.049327,0.271112,0.933754,-0.515508,-0.425818,-0.613222,-0.560853,-0.152663,0.070710,0.516814,0.361462,-0.811260,0.055730,0.081226,-0.607748,-0.885025,-0.052219,-0.083633,0.086943,0.177702,0.138573,0.027370,-0.100954,0.313538,-0.149609,-0.817159,-0.102042,-0.439935,0.095511,0.139696,-0.109128,0.035369,0.004484,0.106483,-0.054920,-0.298905,-0.043766,0.105369,0.096061,0.069461,-0.227832,0.062535,-0.166203,0.027346,-0.020936,-0.132740,0.033660,0.019440,0.066858,0.060215,-0.575175,-0.058826,-0.143684,-0.246434,0.047809,0.008722,0.156180,-0.025931,0.057365,0.073064,-0.415633,0.013768,-0.037959,-0.173697,0.076089,0.027678,0.188471,0.101044,0.095593,0.067438,-0.238173,0.117739,0.111980,-0.305706,0.123932,-0.030747,0.190482,0.254636,0.082864,-0.057190,-0.035371,0.072402,0.121490,-0.612202,0.151142,-0.224643,-0.256809,0.033447,-0.708923,-0.747246,0.460095,0.541874,0.502289,-1.503195,0.226707,-1.362381,-0.458273,-0.067637,0.215635,0.380178,0.083053,-1.069994,-0.665246,0.551995,0.045048,-0.864700,-0.076700,0.013710,0.013355,0.175163,-0.093673,-0.062118,-0.077844,0.204639,0.091458,-0.069897,-0.037995,-0.304260,0.048259,-0.026077,0.015108,0.121607,-0.033309,0.154921,0.065474,-0.027185,0.003338,-0.188217,-0.053540,-0.146723,-0.057104,0.031567,-0.094557,0.159332,0.037171,0.051057,0.157445,0.205264,0.039005,0.062170,-0.465219,0.038114,-0.001140,0.174951,-0.013314,0.146781,0.169858,0.053852,0.005045,0.095232,-0.305805,-0.117494,-0.252438,0.199867,-0.098133,0.110717,0.188727,-0.025751,0.029116,0.023829,-0.028138,-0.077519,-0.443901,0.132570,0.042230,-0.028109,0.078359,0.092664,-0.028392,0.057233,-0.021734,0.066592,-0.378150,0.095672,0.086951,-0.038176,0.187937,-0.491786,-0.542172,-0.757290,0.053212,0.886194,-0.344149,-0.468201,0.342408,-0.922704,-0.315966,-0.041723,-0.318429,0.371567,-0.343880,-0.293370,-0.740105,0.573437,0.153696,-0.273720,0.010107,0.196941,-0.584668,-0.424497,0.016702,0.194292,0.047201,0.159893,0.101638,0.101094,-0.035898,-0.385001,-0.497726,-0.651632,0.235621,0.131446,0.006831,0.177160,0.103223,0.230720,0.082475,-0.303732,-0.503124,-0.278872,0.297355,0.179345,0.140200,0.013883,0.146116,0.063048,-0.114975,0.489427,-0.334139,0.181958,-0.257405,0.053373,-0.059583,0.141347,0.068253,-0.131027,-0.195911,0.156370,-0.087257,0.111983,0.136493,-0.392940,-0.478085,0.232661,-0.078378,0.113370,0.140742,-0.048877,0.043205,0.141373,0.212204,-0.630095,-0.251213,0.236767,0.085201,0.205072,0.206066,-0.435995,0.061818,-0.018275,-0.006477,-0.767180,0.258048,0.050711,0.100794,0.030125,0.557531,-1.498275,-0.516735,-1.338166,-0.356163,0.538917,0.362649,-0.563668,0.484197,-0.769845,-0.320679,-0.008798,-0.787068,-0.360197,0.176581,-0.117606,-0.574189,0.705651,-0.135787,0.299947,0.068043,0.025475,-0.727206,-1.031611,0.448239,-0.049329,0.150333,0.245192,-0.149321,0.370895,0.199870,-1.121470,-0.502328,-0.380033,0.433684,0.201636,0.264608,-0.087118,-0.115203,0.260810,0.065403,-0.283191,-0.316413,0.031656,0.341535,0.173413,0.177528,-0.649808,0.136490,0.025598,-0.647152,0.293550,-0.102197,0.166511,0.126622,0.008680,0.014633,-0.456888,0.227166,0.083951,-0.758386,0.133338,-0.108810,-0.008683,0.251008,-0.325814,-0.173069,0.078842,-0.023633,0.192447,0.161150,-0.690174,-0.012050,-0.022846,0.273503,-0.302875,-0.021591,0.243219,-0.111857,0.309361,0.257849,-0.855445,-0.057482,-0.342365,0.263180,-0.532517,0.367015,0.132978,-0.083259,0.381644,0.497046,-0.411891,0.054740,-0.543334,-0.220558,-1.176357,0.607961,-0.561315,0.323852,-0.626867,-0.084236,-0.639499,0.509727,0.855355,-0.157955,-0.581828,-0.990310,0.235968,-1.359194,0.154228,0.142713,-1.171613,0.016940,-0.240846,0.312960,-0.362254,0.050011,-0.051374,-0.301686,0.187591,0.294167,-0.315739,-0.056085,-0.509930,0.286780,-0.181683,0.211615,-0.431407,-0.163767,0.150032,0.049621,0.064655,0.170556,-0.247720,0.152828,-0.205134,0.273079,-0.630644,0.137644,-0.033545,-1.043451,0.251741,0.165988,-0.066104,0.176053,-0.243062,0.119228,-0.095287,0.083049,0.011385,-0.242470,-0.080274,0.009681,-0.037386,0.284418,-0.187318,0.008207,0.124271,-0.063148,0.204735,0.200000,-1.401461,0.099509,0.047308,0.229078,0.012982,0.053997,0.213578,-0.268024,0.119620,0.138675,-0.127814,-0.071168,0.024309,-0.151807,-0.002742,0.141523,-0.038934,-0.278616,-0.165744,0.509355,0.291013,0.439133,0.005737,-0.431139,0.165840,0.093338,-0.646106,-0.187338,-1.269781,0.077253,-1.016925,0.545374,0.837367,-0.826144,-0.188576,-1.287773,-0.292464,-0.451079,-0.227394,0.152113,-0.101280,0.284060,0.346323,-0.267612,0.095803,-0.204017,-0.850992,-0.005079,-0.178435,0.265570,0.102216,0.236379,-0.145408,-0.202059,-0.117994,0.208336,-0.569244,0.101269,-0.183418,0.161240,0.172296,0.200764,-0.403951,-0.149601,-0.316256,0.352331,-0.024521,0.121742,-0.290728,-0.115772,0.201111,0.085490,-0.215062,0.062726,-0.186890,0.139435,0.036415,-0.071435,-0.102025,0.025669,-0.149806,0.030029,0.051178,0.096062,-0.008094,0.076156,-0.063630,-0.149877,0.015403,0.081873,0.053485,0.058541,0.129337,-0.190332,0.193180,0.143546,-0.325341,-0.136621,-0.104966,-0.003309,0.691644,-0.024728,0.062770,-0.316120,0.257353,0.072640,-0.720662,0.000704,-0.116156,0.098499,0.421542,0.326835,-0.115884,-0.952016,0.284614,-0.200899,-0.909817,0.156389,-0.461882,-0.083009,0.192965,0.604218,0.655603,-0.719792,-0.447385,-1.565828,-0.343869,-0.372264,-0.244720,0.170452,0.416443,0.351426,0.374419,-1.347192,-0.119833,-0.569419,0.010072,0.134337,-0.267195,0.165601,0.156742,0.267914,0.144459,-0.669282,0.036267,-0.099693,-0.035267,0.106137,-0.335578,0.146646,-0.020966,0.087860,-0.035733,-0.404813,-0.010266,0.200428,-0.039602,-0.041688,-0.303149,0.074682,0.015628,-0.093222,-0.026722,-0.129514,0.009701,0.190144,-0.022347,-0.020771,-0.160237,-0.040324,0.095707,-0.093806,0.128693,-0.041843,0.099899,0.133762,-0.254049,-0.043716,-0.214725,-0.080886,0.457052,-0.013455,0.108173,-0.104099,0.140117,-0.017753,-0.505610,-0.019911,-0.138563,0.126569,-0.010662,-0.189852,-0.057458,-0.026055,0.288952,-0.139715,-1.058936,0.131782,0.127692,-0.021758,0.211246,0.102705,-0.498502,-0.266469,0.636669,-0.410893,-1.096251,0.069945,0.372976,-0.632118,-0.157306,-0.042706,0.788767,-0.788172,-0.238117,-0.459619,0.488842,-1.025441,0.194433,-0.003911,0.503375,0.049123,0.134526,-0.370420,-0.682343,-2.320438,0.850725,-0.041354,0.443926,0.056351,0.149570,0.056008,0.165339,0.088380,-0.057499,-2.016114,0.465452,0.100547,0.205559,0.197093,-0.224984,-0.116787,0.156619,-0.152187,0.140824,-1.469774,0.243683,0.090467,0.087247,0.144080,-0.084631,-0.178236,0.185575,-0.107259,0.207409,-0.970108,0.186761,0.212855,0.022088,-0.114412,0.416235,-0.204682,0.052084,0.007149,0.224034,-0.946975,0.135260,0.162954,0.089843,-0.352891,0.248720,-0.252728,-0.011140,0.070694,0.198130,-1.119147,-0.142426,0.103719,0.279549,-0.562547,-0.042640,-0.282958,-0.366832,0.144380,0.218730,-0.860927,-0.328403,0.215446,0.727186,-0.415776,-0.327101,-0.190664,-0.438427,-0.050918,0.183864,-0.649926,-0.622293,-0.425463,0.677941,-0.642770,0.308494,-0.106903,0.642255,0.207166,-0.888843,-0.007891,-0.116761,-0.760769,-0.750043,-0.359636,-0.157240,0.242653,0.505926,-0.139334,-0.615688,0.239080,-0.460945,-0.521914,-1.848639,-0.217576,-0.488674,0.403754,0.245353,-0.369104,-0.181712,0.266345,-0.653625,-0.127680,-1.436300,0.053215,0.336448,0.393291,0.261569,-0.346335,-0.114595,0.006072,-1.184907,0.183023,-0.945681,0.293296,0.301582,0.319822,0.208651,-0.351337,-0.083553,0.086210,-1.708858,0.348349,-1.117380,0.210832,0.045454,0.268628,0.136495,-0.207396,0.104376,0.331828,-2.041627,0.321701,-1.302717,0.116219,0.017648,0.015669,-0.153936,0.099018,0.187614,0.550827,-2.848659,0.207808,-1.849779,-0.100727,0.459145,-0.279148,-0.548199,0.357758,0.223676,0.796793,-3.326490,0.067023,-2.179870,-0.461140,0.069141,-0.943320,-1.611583,0.337584,0.429448,1.057501,-2.675591,-0.231216,-3.193660,-0.682258,-0.054321,0.121528,0.823070,0.308350,-1.160218,-0.419367,0.557541,-0.647919,-1.825780,-0.389557,-0.435796,0.214612,0.381206,0.016526,-0.256554,-0.207355,0.593949,-0.071198,-0.764045,-0.090779,-0.629541,0.136218,0.305679,-0.001941,0.014064,-0.088209,0.427166,0.170499,-0.105284,-0.068719,-0.306865,0.060963,0.104073,-0.173944,-0.018448,-0.125033,0.125675,0.064602,0.097340,0.119628,-0.154452,-0.008017,0.013873,-0.408190,-0.027340,-0.042662,0.050587,0.122364,0.292148,0.153856,-0.101595,-0.080872,-0.052463,-0.336809,-0.039747,-0.042597,0.038353,0.075293,0.219173,0.025346,-0.188412,-0.186787,-0.113635,-0.015929,0.138777,-0.114055,0.075779,0.050149,0.039059,0.021029,0.029639,-0.226435,-0.303055,0.143460,0.374249,-0.053647,-0.079035,0.122258,-0.312771,-0.047138,-0.318855,-0.758078,-1.032871,0.539372,0.872841,-0.028550,-0.600871,0.354644,-1.407450,-0.522118,-0.387812,0.425490,0.620077,-0.530443,-0.892414,-0.929537,0.582279,-0.140994,-0.636227,-0.097851,-0.241300,0.011013,0.201557,-0.296946,-0.201861,-0.132107,0.155384,0.086384,-0.119424,-0.064347,-0.667717,-0.008751,-0.189124,0.003350,-0.011731,-0.119974,0.238705,0.066538,0.170461,0.110525,-0.441069,-0.203565,-0.240159,0.005546,0.017778,0.047564,0.110418,0.067756,0.157292,0.032470,0.329681,-0.168140,0.062525,-0.414001,-0.018979,0.021874,0.138559,-0.091399,0.108776,-0.008742,0.074991,-0.109846,0.142979,-0.071822,-0.237341,-0.223592,0.212415,-0.096799,-0.025137,0.107175,-0.189100,-0.117463,0.029730,0.182081,-0.087587,-0.470556,0.248033,0.118486,-0.086585,0.111534,-0.424235,-0.241724,-0.132315,0.030410,0.294232,-0.224382,0.012043,0.216964,-0.268952,0.054031,-1.335976,-0.699386,-0.920034,-0.230858,1.300365,-0.590900,-0.504715,0.416983,-1.075203,-0.005340,-0.158758,-0.884486,0.023810,-0.348220,-0.070748,-0.382777,0.373776,0.161895,0.181482,0.084116,0.087416,-0.634235,-0.589997,0.243277,0.065435,0.212948,0.217797,0.104718,0.331627,0.219152,-1.100595,-0.615367,-0.360142,0.476227,0.101811,0.183014,0.095023,0.078907,0.379779,0.059049,-0.119053,-0.597341,0.093028,0.277234,0.141909,0.154621,-0.134954,0.094686,0.070315,-0.326210,0.368640,-0.225671,0.264467,-0.064249,0.000385,0.025029,-0.215283,0.023551,0.005201,-0.674515,0.059053,-0.112155,0.069803,0.285342,-0.344763,-0.199328,0.131160,0.075687,0.276258,-0.142083,-0.755662,-0.088562,-0.056558,0.206223,-0.466882,-0.022151,0.204180,0.193563,0.280498,0.259299,-0.947356,-0.021055,-0.389145,0.068087,-0.618489,0.420899,0.095011,0.423963,0.130582,0.590669,-1.184279,-0.172775,-1.499026,-0.641063,0.221048,0.561263,-0.676452,0.620770,-0.736084,0.073209,-0.179870,-0.462257,-0.004665,0.095986,-0.514858,-0.294447,0.358570,-0.859339,0.330697,0.175626,-0.236116,-0.224203,-0.592383,0.445097,-0.190918,-0.004821,0.285359,-0.623827,0.276202,0.334340,-1.409267,-0.022797,-0.068618,0.491015,0.117399,0.328648,-0.182156,-0.248442,0.232859,0.048395,0.130763,0.088675,0.163428,0.192647,-0.048680,0.120610,-0.855202,0.066938,0.011212,-1.489809,0.297397,0.185128,0.004497,0.214317,-0.191307,0.108725,-0.260206,0.091379,0.162240,-0.477327,-0.154336,0.067814,-0.153304,0.274150,-0.340218,0.050476,0.073491,0.060921,0.186447,0.209656,-1.881187,0.063551,-0.114220,0.330619,-0.305461,0.122120,0.221283,-0.138857,0.154915,0.204045,-1.361136,-0.158393,-0.215357,0.326428,-0.449771,0.260120,0.091191,-0.238912,-0.246576,0.409634,-0.784995,0.466225,-0.252954,-0.023593,-0.605978,0.166978,-0.208900,-0.249082,-1.233314,0.095646,-1.828246,0.370980,0.684945,-0.165630,-0.027763,-0.931739,-0.064957,-0.988436,-0.298640,0.197051,-1.000355,0.109295,-0.033496,0.292756,-0.084177,-0.059094,-0.012468,-0.186350,0.046546,0.289446,-0.336249,0.114306,-0.412821,0.137794,-0.309311,0.251025,-0.147168,0.185579,-0.005625,-0.129401,0.227796,0.250501,-0.422551,0.006356,-0.481950,0.255946,-0.126652,0.348247,-0.042335,-0.390272,0.389878,0.285438,-0.271338,0.280728,-0.352207,0.164214,0.209709,0.103619,0.131163,0.008399,-0.428615,0.105570,-0.070551,0.275770,-0.157048,0.058751,0.132305,-0.339218,0.102512,0.368763,-1.396562,0.079272,0.182578,0.119078,0.076495,0.298925,0.233382,-0.345855,-0.072285,0.182107,-0.055378,0.199471,-0.140556,0.030855,-0.113486,0.218241,0.017555,-0.243735,-0.539572,0.258625,0.172906,1.108179,-0.190783,-0.380134,-0.148776,-0.107114,-0.645164,-0.191290,-1.550271,0.080914,-0.558515,0.556716,0.886790,-0.652305,0.113123,-1.416693,-0.670633,-0.221030,-0.738679,0.165286,0.037087,0.339440,0.258775,-0.777608,0.196529,-0.375315,-0.777701,0.114921,-0.786415,0.171161,0.001842,0.263359,-0.112358,-0.703512,0.004741,0.176621,-0.400749,0.199349,-0.654198,0.059871,0.136902,0.112940,-0.114561,-0.302047,-0.061435,0.187967,-0.054517,-0.003999,-0.344157,0.037182,0.033581,-0.103036,-0.092675,-0.068289,-0.058513,0.122196,0.016420,-0.372806,-0.082092,0.198412,-0.407110,0.039213,0.194685,-0.190542,0.105678,0.301593,-0.170427,-0.135639,-0.118739,0.237987,-0.073355,0.212957,0.288285,-0.466352,0.163061,0.451556,-0.475641,-0.017886,-0.359990,0.210695,0.310058,0.366957,0.027154,-0.505964,0.158978,0.217750,-1.080316,0.004291,-0.276071,-0.118537,0.262146,0.852741,-0.571678,-0.947209,0.267771,-0.131762,-1.549765,-0.080460,-0.512574,0.204616,0.571446,0.502760,0.433165,-1.240790,-0.536277,-2.055499,-0.008599,-0.401864,-0.423353,0.143001,0.240881,0.387518,0.398795,-1.043396,-0.044044,-1.232318,0.117227,0.076956,-0.315670,0.177404,0.091954,0.275913,0.153209,-0.409898,0.084685,-0.401944,-0.028296,0.018251,-0.257582,0.125484,-0.096620,-0.068914,0.087854,-0.164135,0.065024,-0.155066,-0.026666,-0.039455,-0.133667,0.082786,-0.286479,-0.271124,0.082708,-0.111866,0.054014,0.014195,-0.115895,0.130024,-0.138919,0.132098,-0.220018,-0.179445,0.124562,-0.145427,0.135015,-0.038419,-0.397856,0.204460,-0.178667,0.105073,0.319110,0.140400,0.085578,-0.050900,0.175779,-0.105306,-0.797339,0.193764,-0.027231,0.062513,-0.015322,0.166343,-0.180118,0.135332,0.342829,-0.449795,-1.213451,0.137276,0.118442,-0.240354,-0.238585,0.708872,-0.982181,0.071042,0.314107,-0.961953,-1.591741,-0.501462,0.392951,-0.755229,0.093622,-0.363358,0.867314,-0.596732,-0.517090,-0.892485,0.584025,-1.245389,0.407460,-0.801429,0.072584,-0.549854,0.593343,-0.255721,-0.459851,-2.346373,0.786884,-0.419579,0.637426,-0.714850,-0.361737,-0.515618,0.518949,0.077528,-0.011839,-3.329298,0.506683,-0.185801,0.421673,-0.348254,-0.773667,-0.582233,0.594644,-0.125194,0.312645,-2.949182,0.444329,0.078186,0.383994,-0.159556,-0.636981,-0.600248,0.554117,-0.239087,0.429455,-2.373927,0.384381,0.347973,0.233542,-0.225291,-0.485481,-0.389472,0.323670,-0.250584,0.278251,-1.754101,0.285250,0.395934,0.349415,-0.743730,-0.365512,-0.194151,0.134382,-0.303624,0.058038,-1.612521,0.036931,0.266576,0.621837,-0.793417,-0.324311,-0.086242,-0.330245,-0.104625,0.162311,-1.314369,-0.441301,0.066083,1.017586,-0.635134,-0.358420,0.050964,-0.675764,-0.206694,0.364372,-0.843523,-0.650685,-0.409378,0.616685,-0.551218,2.452308,-0.543530,-1.067462,0.720398,0.258926,0.091008,0.915968,-1.358913,-0.193268