0.006321,-0.730935,2.685930,2.324267,-1.146461,0.857924,0.161350,0.214722,-2.041883,1.838131,-1.752564,1.509003,0.581434,0.055812,0.417884,-0.389694,0.986878,-1.375045,0.324425,-0.074722,-0.540036,1.295707,-0.517217,-0.929418,1.674691,-2.706387,0.716704,-2.200486,0.595426,0.554129,-0.346784,-0.335789,-1.203819,-0.243301,-2.279612,-0.707967,-0.507173,0.461554,-0.055336,0.363431,-1.068996,1.151557,-1.436054,1.736300,1.724302,-0.985279,-0.996864,2.307658,0.353244,-0.749446,1.497010,-0.403114,-0.400285,1.429916,1.163550,-0.337173,-1.457168,0.824087,-3.094957,0.065951,1.179256,-0.754509,-1.044616,1.171595,0.682136,-0.382687,0.145111,-0.320539,-2.303157,0.881978,-0.645315,-1.431256,-1.640075,0.732443,-4.825210,1.296875,0.463902,-1.014457,-1.619321,0.922204,0.599057,-0.768774,-1.521179,1.278013,-2.466669,1.192556,-3.250995,-2.335141,-2.475828,1.075802,-2.752021,0.864029,1.113781,-0.004515,-1.152585,1.567654,2.070068,-1.437884,0.611722,-0.529628,-0.889500,0.996119,-1.033468,0.199775,-0.283777,0.743769,-2.423158,0.230515,-1.370967,-0.017109,0.684096,0.863198,0.022253,-0.513826,2.827881,-0.410391,-2.482375,0.201077,-2.454104,-0.477971,-0.844649,-0.687760,-1.072003,-0.148300,0.698097,0.654816,0.644787,0.398359,2.331601,-0.758342,0.702347,-1.869754,-1.337000,1.494709,-0.362514,-1.671118,-2.180251,0.779912,-1.616602,0.320074,-1.746858,0.607400,3.310194,-0.075942,2.023775,-0.553562,0.001864,0.454229,-0.382322,1.056062,-2.345165,-1.195789,-0.269900,-0.013804,-2.254598,0.735546,0.536439,-0.199127,1.122753,-0.292653,1.027560,-0.978583,-3.120904,0.553187,-1.198075,0.741286,-0.569354,-0.413143,-0.858938,0.978631,0.507073,0.310126,0.199276,-0.363921,2.068948,0.616228,0.728755,-0.883352,-0.871488,-1.309982,-1.210467,1.390866,-0.636266,-0.966935,0.594018,-0.546746,0.417596,-3.189823,-2.054054,0.390905,0.050370,-0.596775,-0.526515,-0.602856,1.289636,-0.519268,-0.914548,-0.131153,-1.852862,-0.269406,2.697102,-0.089962,-2.192177,-1.979707,1.985864,-0.984284,-0.472389,-3.443139,-2.611550,0.918669,1.083002,0.879399,-2.181994,-0.873501,2.333522,-1.328541,-2.878458,-0.632313,-2.212355,1.462841,-0.449800,-0.780753,-0.844096,-0.807646,2.729168,-2.859437,-0.989020,-4.532462,-1.579652,0.852036,-1.184429,-2.277110,-1.114006,0.473763,2.791896,-4.156077,-2.047776,-4.623298,-1.771128,1.006998,-0.961047,-2.925946,-0.552169,0.114035,1.305352,-4.243262,-0.534047,-7.007363,-3.420295,0.477735,-1.257278,-3.687607,-1.458854,0.577347,1.920581,-0.698827,-0.486453,-2.089117,-2.141701,-0.121528,-1.607102,-2.819245,-0.692933,0.396241,2.440900,-4.801344,0.466400,-2.278320,-2.694773,-0.642164,-0.585084,-3.342038,-0.484517,0.710969,2.399671,-3.875057,-0.462903,-3.471265,-0.950101,-0.143766,0.193738,-0.420429,0.862468,0.332797,0.530934,-1.716079,-0.798894,-1.029645,-1.731785,-1.639648,0.686555,0.100803,0.292581,0.319656,1.386371,0.708390,-0.426654,-2.171898,-0.738784,0.262595,-0.054741,-0.314430,0.226332,-0.315386,0.956887,0.294348,-0.458129,-3.027406,0.016950,0.543019,-0.018146,-2.362403,1.094222,0.054145,1.006177,-2.663644,0.157397,-1.260539,-0.104501,1.250280,-0.109880,-1.557592,0.968016,0.124295,1.163171,-2.876810,0.685167,-3.085630,-0.517197,0.656737,-0.106912,0.071734,0.556194,-0.433667,0.704547,-0.957675,-0.140577,-2.718193,-0.684441,0.712948,-0.212763,0.332101,0.367264,-0.270064,0.542932,-0.411385,-0.038439,-2.330189,-0.312686,0.473360,0.226216,0.051681,0.847679,0.167935,0.197393,-0.946926,-0.236428,-1.875134,-0.914683,0.733870,-0.012161,-0.994539,1.153632,0.122935,0.006854,-2.109972,-0.045298,-2.771473,-0.272874,-0.183978,0.069001,0.197868,-0.364392,-0.234799,0.413638,0.066340,-0.009592,0.100471,-0.491583,-1.734341,-0.184204,-1.056331,0.339257,0.139323,0.572592,-0.372576,0.026086,-0.166240,0.510041,-1.557313,0.010980,-1.012988,1.175068,0.778620,1.193224,-0.192623,0.358479,0.548158,0.172763,-0.452846,-0.413787,-1.797775,0.829677,0.272936,0.503043,-0.770407,0.190909,0.440679,0.076633,0.161057,-0.424906,-0.040197,0.725186,-0.259228,0.447831,-1.574345,-0.235991,0.014794,-0.613682,0.251586,0.185289,0.732280,0.529373,-1.494104,0.101446,-0.031023,-0.102128,-0.092839,-0.570867,0.329742,0.302177,0.496578,0.575824,-3.113963,-1.098324,0.166423,0.267797,0.086292,-0.101859,0.047368,0.579061,0.475795,0.419618,-1.856719,-1.992056,0.405189,0.573581,-0.080279,-0.030187,0.252691,0.294761,-0.212162,0.210371,-1.679864,-1.306481,-0.311774,0.105044,-0.633639,0.772400,0.358897,-1.069727,-0.751104,-0.576713,-0.423676,0.380545,0.007277,-0.331505,0.515886,0.509729,-2.002791,-1.075529,-0.988938,0.190976,0.232720,1.356399,0.238392,0.237604,0.705340,0.253123,-2.538739,-1.588836,-1.403619,0.496991,0.229694,0.363277,0.131384,0.072724,0.391231,0.354714,-0.477044,-1.126490,-1.424608,0.424296,0.030264,0.268277,0.012128,-0.322494,-0.076023,0.215184,0.124482,-0.292566,-0.152825,0.257287,-0.213070,0.269113,-0.571881,-0.271130,-0.285765,-0.247950,0.498292,0.426798,0.510036,0.475483,-1.636790,-0.414152,0.641977,0.453542,0.530886,0.426184,0.285458,0.687794,0.262979,0.635431,-4.618125,-2.426429,0.575262,0.455953,0.259833,0.673774,-0.124746,0.680162,0.140106,0.491352,-5.606184,-1.580080,0.481736,0.369728,0.222681,0.742996,-0.145337,0.484541,-0.334329,0.416203,-4.755868,-0.301178,0.387509,0.914294,0.325756,1.075971,-0.040384,-0.975788,-1.664115,0.186754,-1.029645,1.209511,0.403326,-0.717539,0.486746,0.565368,-0.863621,-2.550070,-1.559681,0.518807,-0.683370,0.773424,0.310712,-0.717477,0.605997,0.534517,-1.216990,-2.060044,-0.619921,0.607741,-0.069189,0.626406,0.812353,-0.190294,0.811541,0.644105,-0.317773,-0.719052,-1.691041,0.419536,0.119780,0.576458,0.166908,0.021220,-0.071869,-0.220222,0.172729,0.119155,-0.804274,-0.748150,-0.740316,-0.008929,0.105678,0.064280,-0.831147,-0.241327,0.217018,0.350213,-0.514671,0.278892,-1.045798,-0.809735,0.246788,-0.034044,0.088406,0.348393,-0.068406,0.260285,-0.573235,0.174693,-0.915984,-0.798054,0.340650,-0.418499,-0.008794,0.574167,-0.926037,0.291682,-0.835561,0.239622,-1.187729,-0.047680,0.417759,-0.634595,0.018372,0.862694,-0.707981,0.233416,-1.167090,0.175928,-1.704994,0.431395,0.745489,-0.375497,0.331414,0.937752,-4.579047,0.875686,-1.690911,0.552006,-1.093281,0.481121,0.294113,-1.166509,-0.332153,0.985072,-2.486021,0.364137,-1.811243,0.467778,-1.584254,0.454685,0.366740,-0.222523,0.722026,0.935350,-0.305487,-0.097661,-2.792122,0.653336,-1.308268,0.605272,0.624455,0.227955,0.115932,1.290280,0.494123,0.533350,-2.450569,-0.016979,-0.697093,0.948933,0.173065,1.112224,-2.124535,-0.336404,0.266615,0.031470,-1.654153,-0.493504,-0.296538,0.323849,0.039582,0.185241,-0.166648,-0.047993,0.141000,-0.039544,-0.375448,-0.074040,-0.135678,0.156951,0.044237,-0.605863,0.121225,0.229732,0.018233,-0.096754,0.277874,0.012637,-0.007205,0.135250,0.276798,-0.655781,0.329103,0.361207,-3.214348,-0.377788,-0.004866,-0.080995,-0.178156,0.108084,0.511544,-0.673029,0.335756,0.622126,-1.604369,-0.691161,-0.426933,-0.208363,-0.340439,0.247648,0.975077,-0.753654,-0.306164,0.678452,-0.907992,0.979697,-0.637765,-0.550324,0.002281,-0.080899,-1.301111,-0.203305,-0.885917,0.733558,-0.419594,0.712458,-1.382864,-1.164765,-1.119660,0.582159,-0.311202,0.757117,-0.846181,1.310189,0.108358,0.965922,-1.929735,-0.540771,-1.175620,1.021119,-0.362341,1.035168,-2.086533,0.451208,0.366707,0.315948,-3.287715,0.015533,-0.987166,0.478595,0.224900,0.548893,-0.264132,-0.591194,-0.019073,-0.265150,-0.683241,-0.007157,-0.082037,-0.334224,0.125236,-0.048881,0.202239,-0.029429,-0.227537,-0.516395,0.323546,0.221231,0.210938,0.106139,0.194444,0.154405,0.332691,0.193224,-1.509983,-0.461294,0.411486,0.178507,0.424137,0.128574,0.276173,0.148920,0.329334,0.099780,-1.862463,-0.684859,0.260851,-0.203056,0.050812,0.124636,0.087733,-0.133425,0.183978,0.580863,-1.139299,-0.708116,-0.071874,-0.296154,0.316044,-0.198464,0.303681,0.253094,-0.147441,0.458873,0.875115,0.349896,0.267470,-2.373037,-0.295222,-1.720719,-0.878928,0.494320,-2.125505,0.532697,0.771339,0.618855,0.013891,-1.334915,0.034227,-1.327787,-0.542932,0.674336,-0.743870,0.514018,0.797939,-0.109775,-1.770321,0.084554,-1.199300,-0.339507,0.488869,0.778438,0.464541,-0.566554,0.722732,-1.161864,-2.188608,0.260174,-0.924630,-1.506914,0.486366,0.084443,0.410434,-0.576674,-0.047152,-1.108708,-0.312797,0.151149,0.018867,-1.770441,0.117873,0.040135,0.202239,0.111682,-0.414839,-0.955658,0.288781,0.125644,0.278104,-0.475223,0.106696,0.341178,0.246505,0.466006,-0.667371,-0.803909,0.434690,0.032743,0.391846,-0.039457,0.100245,0.216360,0.082157,-0.068900,-0.091302,-0.728005,0.415694,-0.713342,0.354550,-0.225496,-0.199501,0.256572,-0.118262,0.502726,0.473998,-0.328561,0.350698,-0.132407,0.815244,-1.129708,-0.246658,0.270064,0.195635,-0.338676,0.911133,-1.105538,1.080289,0.166038,0.132023,-5.080529,1.355261,-0.745138,0.304190,-1.565728,0.954303,-2.105053,1.219972,0.186970,0.467658,-2.753433,1.578226,-0.452903,0.622395,-2.105812,0.611900,-3.482918,-0.816546,0.761454,-0.823539,-3.508365,1.449272,-1.276822,1.313253,-5.512831,0.691579,-5.922564,-1.759523,1.375170,-1.193598,-1.786334,1.744288,-1.063194,1.871248,-5.363801,0.531679,-4.996705,0.504978,1.095418,0.040202,-2.974587,1.263219,-1.255434,1.369646,-3.377792,0.432159,-3.755349,0.528869,0.625354,0.525588,-3.094073,0.946325,0.166182,0.771526,-1.505968,0.658442,-1.667169,0.740839,0.215453,0.528595,-0.821411,0.722799,0.403667,0.410963,-1.485002,0.474104,-0.383393,0.431582,0.193891,0.054645,-1.469594,0.294732,-0.097536,0.198353,-2.052969,0.616266,-1.088055,-1.328998,0.044116,0.452457,-1.864404,-1.169741,-0.357091,1.202254,-0.745719,0.528979,-1.939390,1.614086,1.026926,-1.804043,0.771411,-0.179641,-2.357000,-2.154444,-0.948957,1.275784,0.222547,-0.234425,0.933833,-2.046984,-0.096312,-0.542961,-1.171336,-3.817180,-0.005000,0.120591,1.355165,0.840436,0.532001,-1.032003,-0.768793,-0.395554,-1.573019,-3.189530,-0.418355,-0.612030,0.938823,0.518816,-0.968501,-1.125822,-1.847843,-0.486227,-0.710099,-0.615354,-0.830172,-0.787535,0.711766,0.607342,-2.783006,-0.789917,-1.397720,-1.356913,-0.238776,-0.078982,-0.090020,-1.304036,0.877343,0.474373,-2.617784,0.063655,-0.304286,-1.336851,0.347773,0.134679,-0.443734,-0.090980,0.410761,0.136845,-1.707977,0.096926,0.060404,-2.347725,0.379541,0.006844,0.023185,0.473672,0.597769,-0.253339,0.028314,0.316769,1.310040,-3.694417,0.553600,-0.370242,-0.549647,0.922598,-1.097921,-1.980158,2.811747,1.024453,1.716569,-3.988252,0.437024,-4.941052,-0.245016,0.427586,0.173233,1.016667,-0.614249,-3.259487,0.762535,1.033593,-2.665964,-4.792357,-1.284814,-0.369027,0.193450,0.688812,0.364411,-1.057090,-0.687366,1.186620,-1.196596,-4.679475,-0.946104,-0.575132,0.735940,0.705661,-0.571309,-0.233488,-1.679336,1.237211,-0.182326,-1.421438,-0.554729,-0.424373,0.456534,0.661382,-1.299569,-0.083391,-1.997791,0.822506,0.069001,-0.130212,-0.210280,-0.918174,0.448278,0.390862,-3.004328,0.288018,-1.174141,0.139813,0.278690,0.236581,-0.042752,-2.362576,0.278517,0.433648,-2.566804,0.341683,-0.238445,-0.224103,0.459594,0.287052,0.069054,-2.790873,0.233671,-0.100404,-2.386337,0.415209,0.190846,-0.536371,0.274127,0.297802,0.064847,-2.383201,-0.218599,-0.480435,-0.791613,0.557068,0.258762,-1.024217,0.180159,-0.052911,0.123718,-1.633399,-3.515281,-1.885172,1.809591,1.695978,0.547462,-0.681598,0.863126,-2.271356,0.087738,-0.035591,0.612457,0.898227,-0.711392,-2.133603,-0.682900,1.780383,-0.556689,-3.141566,-0.620992,0.300294,0.407937,1.150856,-0.921513,-0.981393,-1.885802,1.254915,-0.340833,-3.002320,-0.760013,0.004063,0.540997,0.751300,-1.702693,-0.261168,-2.822703,0.919836,-0.388868,-0.821800,-0.319142,0.008756,0.552543,0.632299,-2.736526,-0.025173,-2.738649,0.568134,0.119386,0.112493,-0.103046,-1.105505,0.314488,0.464042,-2.372317,0.274483,-2.229430,0.354517,0.130769,0.317869,0.090596,-3.274843,-0.021758,-0.035067,-2.938131,0.435463,-0.717343,0.098358,0.067887,0.072532,0.323546,-2.754639,-0.121989,-0.208267,-2.674994,0.684499,0.082484,0.128382,0.264425,0.192220,0.461712,-1.660195,-0.418042,-1.371097,-1.581569,1.070812,0.442173,-0.634177,0.522116,0.064775,0.318522,-1.437370,-1.848832,-3.892723,0.936157,1.662582,0.506357,-1.912483,0.644355,-1.121067,-0.788457,-1.338234,0.905446,1.030793,-0.435492,-1.771425,-2.648384,2.199353,-0.106076,-2.218868,-1.973357,0.157902,0.505060,0.665604,-0.455511,-0.151754,-3.673289,1.118733,0.374814,-1.518710,-0.820177,0.376428,0.433379,0.254266,-0.546885,-0.052906,-4.037503,0.701555,0.459378,-0.214228,-0.662198,-0.007685,0.117205,0.172681,-1.200001,0.004769,-3.239622,0.546837,0.097719,0.279487,-0.307086,-1.308455,-0.218426,0.098041,-1.201941,0.189833,-1.212710,0.358988,-0.087253,0.124222,0.731742,-2.546732,-0.062162,0.488312,-1.766147,0.668879,-0.076062,0.524330,0.183973,0.010072,0.440684,-2.800220,-0.842213,-0.042916,-3.088411,0.861796,0.273128,0.292302,-0.116984,-0.537005,0.252662,-0.689657,-1.155505,-0.769485,-1.261553,0.750114,0.166120,-0.746934,0.535180,-0.751483,-0.192249,-0.012248,-1.050543,-1.621780,0.669095,1.208065,-0.302754,-1.196173,1.426184,-2.426472,-0.816661,-0.387351,-0.982325,-0.203099,0.974044,-0.765815,-1.565171,1.351913,-0.659571,-0.537395,-1.940033,-0.307768,-0.519762,-0.093555,0.843136,0.451477,-2.592822,0.113973,0.383864,-0.128973,-3.048555,-0.328114,-0.201629,0.062743,0.465752,0.206701,-2.937156,-0.076893,0.179910,0.575627,-1.654821,-0.659110,-0.015380,0.399949,0.481650,0.365943,-1.932886,-0.216528,0.262672,0.739629,-1.089338,-1.096715,-0.295559,0.440444,0.739297,0.390497,0.186711,-0.666684,-0.133809,0.618874,-0.587380,-3.327004,-0.428869,0.559498,0.017575,0.588682,0.619835,-0.126634,0.069890,0.114789,-0.549762,-3.306197,-0.822444,0.629710,-0.019904,0.625935,0.867055,0.230236,0.465492,-1.007935,-0.204295,-1.165001,-0.260770,0.294180,-0.020937,0.275554,0.324886,-0.236682,0.516011,-2.395122,-1.897079,-0.414181,1.327629,-1.000207,0.974390,0.245496,0.209742,-0.077239,0.974183,-2.631977,-0.272792,-0.445415,-0.716396,-0.168526,2.035260,0.291087,-1.041187,0.770575,-2.045096,-0.148689,-0.740345,-0.282182,-0.517241,-0.020211,0.813582,0.576343,-1.153521,-0.169208,-0.233815,0.345160,-0.956426,-0.871349,-0.345275,-0.128646,0.466318,0.208632,-0.754908,-0.361582,-0.323325,0.415641,-1.136466,-1.396741,0.147897,0.157979,0.497855,0.218719,-0.727487,-0.431481,-0.093612,0.556050,-1.581631,-2.581838,-0.042195,0.011081,0.188920,-0.011182,-0.306798,-1.007478,-0.322350,0.317158,-1.603874,-2.060433,0.046811,0.508533,0.093463,0.336270,0.286788,-0.443921,0.284982,-0.046907,-1.736478,-2.135875,0.185707,0.463047,0.438148,0.417711,0.498038,0.653298,0.578072,-1.213603,-1.232845,-0.712150,0.737525,-0.197571,0.811867,-0.163296,0.229795,0.792593,0.281687,-2.099780,-1.981297,0.659076,2.343133,-2.168373,1.233930,-2.176034,-0.786829,0.217110,-0.489877,-1.559287,-0.069683,-0.111144,0.412735,0.683572,0.464445,0.461578,-1.633384,-0.443556,-1.965072,-1.314742,0.086571,0.717895,-0.168541,0.171864,0.100159,0.167229,-0.105438,-0.491731,-1.088122,-0.091600,-0.077003,-0.003319,-0.165015,-0.130188,-0.013036,0.236999,-0.230904,-0.443590,-1.007205,0.417754,-0.005581,-0.833049,-0.178522,0.004856,0.256557,0.092897,0.006398,-0.157878,-0.724259,0.451645,0.296125,-0.793236,0.572789,0.646915,0.632011,0.010053,0.380156,-0.268825,-0.105159,0.478081,0.061436,-0.183041,0.673538,0.249117,-0.035207,-0.454935,0.270261,-0.496861,-0.217556,-0.915571,0.277355,0.168387,0.984236,-0.180875,0.326313,-0.519450,0.643308,0.720978,-0.023574,-2.202061,0.496410,0.627001,1.122575,-1.152940,0.705820,-1.562635,0.257475,0.580233,-0.734437,-2.345468,0.138877,1.192710,2.010524,-3.428047,0.599835,-3.513941,-0.023775,0.034112,-3.720806,-1.658879,0.591718,1.609220,0.556247,0.714859,-0.564181,0.401323,-1.030826,-1.310448,-0.631454,-1.618624,0.070649,0.958098,0.106667,0.539902,-0.485406,0.390377,-0.218949,-1.188723,0.040091,-0.549445,-0.054650,0.474114,0.073617,0.310664,-0.544758,0.478600,0.048487,-1.168786,0.098564,0.012296,0.217057,-0.076653,0.237057,0.346961,-0.644316,0.432831,0.414185,-1.216624,0.431102,0.218478,0.540027,0.077479,0.411794,0.512298,-0.481251,0.474853,0.597649,-1.039246,0.424339,0.169410,0.193267,0.200621,0.243440,0.026110,-0.880379,-0.111072,0.449983,-1.065476,0.057969,-0.511294,-0.065937,0.034726,0.532029,-0.431678,-0.663005,-0.727016,0.050140,-1.031268,-0.514143,-1.371774,-0.112969,0.952795,1.166029,-0.980038,0.302797,-1.368700,0.172297,-0.523648,-0.746997,-0.278892,-0.828064,0.524815,1.892973,-2.212364,-0.554940,-2.555589,-0.217624,-1.288243,-2.571247,0.649734,0.142551,1.089381,0.234156,0.929510,-1.435175,-0.264041,-4.709043,0.573461,-0.938626,0.720258,0.031739,0.106172,-0.136874,0.631646,-0.755119,0.349834,-1.188108,-0.100029,0.088430,0.398888,-0.047104,-0.174271,-0.009289,0.455487,-0.964510,0.384142,-0.369968,-0.221202,0.215621,-0.040418,-0.057037,-0.471616,-0.296870,0.159155,-0.917819,0.253397,-0.254689,-0.711449,0.053992,-0.221980,0.388215,-0.117921,0.138286,0.561405,-1.051662,0.480622,0.348988,-0.759951,0.467514,-0.090096,0.222407,-0.306260,-0.013612,0.283272,-0.821123,0.200111,0.273484,-1.159910,0.085409,-0.270640,-0.168502,-0.401068,-0.174881,-0.647150,-0.735364,-0.321971,-0.330184,-1.704307,-0.096975,-0.483513,-0.453124,0.145495,0.737199,-0.316447,0.222326,-0.390818,-0.342134,-2.030303,0.058612,0.237845,-0.803063,-0.018867,0.557577,-2.162066,0.384363,0.256202,-2.418494,-2.297288,-0.038679,1.098430,-0.648601,-0.366779,0.220957,-0.470617,-0.146744,-0.652006,0.333176,-0.991393,-1.839509,-2.466501,-0.796670,-0.122210,0.777684,0.558735,-0.893895,-0.702405,0.467831,0.358513,-0.751704,-3.890533,-0.898924,0.595502,0.736934,0.238243,-0.956249,-0.606362,-0.230635,-0.646506,-0.950177,-1.862367,-0.337576,0.765205,0.154909,0.576986,0.247456,-0.153176,0.126999,0.272633,-0.242167,-2.755373,-0.236101,0.352615,-0.352663,0.119957,-0.315583,0.911388,0.582678,-2.055865,-0.342898,-5.459301,0.411039,0.736175,-1.801392,-0.975912,0.690858,0.914241,1.389272,-3.677434,-1.141787,-8.000000,-0.092743,2.814879,-5.362783,-2.924260,2.330319,-1.590084,0.661526,-1.350107,0.056749,-5.243839,-1.529181,-0.100596,-1.241216,-0.835845,2.493206,-0.262038,0.245025,-3.991763,0.865898,-3.767160,-1.969106,-0.881248,-1.662102,-0.437802,-2.243416,-0.379651,1.972051,-2.306130,0.040990,-0.799927,-0.063007,0.359593,0.198070,0.338926,0.233973,-0.222249,-0.056110,-0.098920,-0.304612,-0.399522,-0.995298,-1.228877,-0.007565,0.168670,-0.291024,-0.132248,-0.301966,0.425626,-0.164069,-0.740037,-0.750061,-0.119501,0.605944,0.398431,0.150299,0.008814,-0.615301,1.142090,-0.172494,-0.463105,-0.423018,0.454599,0.565421,0.380093,-0.065908,0.392749,0.061004,0.511717,0.210649,-0.813611,0.195203,0.814173,-0.113713,-0.421313,0.139967,0.428326,0.725657,-2.347816,-0.392072,-2.171639,-0.328887,2.255390,-0.944841,-1.265208,1.855537,0.487145,1.056215,-1.966369,-0.711665,-4.430747,-1.919913,1.588658,-4.352418,-4.027906,1.910019,0.768764,1.086513,-2.316361,0.137148,-4.083142,-2.728351,-0.820648,-4.216687,-2.467726,1.468408,1.975797,1.817478,-4.579210,0.708039,-5.103113,-1.980394,-0.233647,-3.352917,-2.444752,0.549878,0.605743,1.794346,-2.947656,-0.210683,-4.905038,-0.098732,-0.533960,0.198901,0.186754,-0.003794,-0.412769,-0.318498,0.056792,0.075322,-0.133060,-0.481539,-1.009745,-0.024827,0.019054,-0.298359,0.023314,-0.361707,0.108819,0.048290,-0.231769,-0.209050,-1.539378,0.213743,-0.053420,-0.091619,-0.091590,-0.269574,0.088992,0.178315,-0.032661,0.057018,-0.158041,0.198906,0.056873,-0.356135,0.354176,0.102440,-0.903520,0.241865,0.520468,-0.125303,1.167638,-0.099304,-0.315799,0.218210,0.225385,0.419397,-1.860792,-0.471669,-0.657659,-1.068041,1.178757,0.331433,-1.765705,1.255347,-0.359411,0.292533,-1.998540,-0.259920,-0.915470,-0.768409,-0.128324,-0.610358,-1.013674,1.257696,1.147167,1.008843,-1.610771,-0.306135,-0.905024,-2.110860,0.320463,-2.927617,-0.549080,0.706478,1.505343,1.094438,-0.965326,-0.033655,-2.293594,-1.589297,0.801863,-1.423359,-0.595171,1.456030,0.885725,1.104501,-0.513413,-0.128075,-2.573370,0.180712,-0.255203,-0.364190,-0.955336,-0.256769,-0.768255,-0.056139,-0.067171,-0.322514,-0.159948,0.374920,-1.377067,-0.621290,-0.346957,0.397975,0.129645,0.191999,0.025601,0.451693,0.356188,-0.105034,-1.119909,-1.003814,0.315222,0.143305,0.179487,-0.015101,-0.453518,-0.254684,0.225846,-0.831978,0.355420,-0.464176,1.271538,-0.967320,0.253219,-0.194804,-1.542447,-0.350919,0.208560,-1.521559,1.083617,0.685748,0.734903,-0.568932,-1.721007,-0.461746,0.542880,-1.302826,-0.177830,0.417663,-1.929582,0.560987,-1.473950,0.913722,-1.061542,0.629921,0.453105,-0.654456,0.275808,0.934308,-0.159463,0.618235,-0.374781,-0.137176,-0.279089,-0.029654,-0.353431,0.002719,-0.603509,-1.550377,-0.002435,-0.720916,0.238551,0.255654,0.073699,-0.218402,0.099371,0.593115,-0.552020,-2.255741,-0.036182,-0.541463,-0.128944,0.600334,0.034347,-0.064386,0.155534,0.469676,-0.968862,0.704648,-0.445944,0.372927,-0.782958,0.733812,-0.461073,0.355122,0.442778,-0.528581,0.348561,0.284526,-1.120822,-0.668020,-0.387255,0.341908,-0.282456,0.081004,-0.537860,-0.934961,-0.174011,-0.199833,-0.409185,-0.453552,1.039933,-0.011758,0.327701,0.534782,-0.682347,-1.032133,0.081912,-1.287878,0.345347,-0.077412,2.202988,-1.505478,0.201279,0.033089,0.305669,-1.594926,-1.193339,-0.678365,1.076153,-0.535651,1.109290,-0.273066,-1.013064,-0.146288,1.388052,-3.275174,-0.055077,1.046215,-0.584647,0.042445,-0.975932,0.842747,0.351515,0.044837,1.636968,-2.783279,-0.419815,0.746512,-0.031772,1.007469,0.404430,-1.759932,-1.103910,-1.240803,0.037579,0.808914,-0.433110,-0.588370,0.036811,0.814773,0.885888,0.346198,-3.153848,-2.284997,0.139789,1.200352,0.248190,-0.707208,-0.304343,0.450939,0.122498,0.951873,-2.353623,-2.096432,0.206893,1.625944,-0.330386,0.170740,-1.571002,0.181908,-0.513004,0.244963,-0.053833,-0.226961,-0.356827,-0.395857,-0.593735,0.170140,-1.299382,0.474460,-1.004501,-0.058305,-0.929803,-0.086350,0.110860,-0.237965,-0.792031,0.223032,0.450535,1.173027,0.260775,-0.319992,-0.622630,0.984635,1.117796,0.533994,-0.704417,-0.418566,1.116979,0.285914,0.835710,-1.513979,-0.431544,0.941090,0.715882,-0.295448,-2.296197,0.547443,1.278397,-1.376500,0.182604,-0.684076,0.282297,0.865211,1.126576,-2.055995,0.032205,0.201821,0.944640,-0.117964,-0.164045,-0.234535,-0.093737,-0.751363,0.513062,-2.072263,0.204040,-0.636026,0.256096,0.360602,-0.466698,0.348292,-2.614873,-1.302533,0.445228,0.273066,0.820921,0.566237,-1.271039,0.386962,-0.483100,1.168281,-4.408047,-0.089405,0.724768,0.651646,0.367154,0.700570,-0.651060,0.368955,-2.212652,1.199809,-4.118185,0.475656,0.311145,0.352610,0.487490,0.066244,0.441270,0.444440,-0.110351,0.102729,0.042003,-0.927420,-0.682534,0.359574,-1.102224,-0.590699,0.262264,0.024750,-0.315607,-0.873823,-0.222287,-0.673582,-0.612856,0.189031,-1.277710,-0.171490,0.290054,0.657678,-0.348811,-0.465511,-0.429565,0.168445,-0.007824,0.512510,-0.704033,-0.778577,0.586295,0.708145,-0.773452,-0.470593,-1.023674,0.205251,0.206927,0.306918,-0.419728,-1.192936,1.077997,-0.723322,-0.736906,0.016782,-1.082858,-1.095572,0.154818,-0.408254,0.460737,-2.115505,1.916551,0.217258,-1.190649,0.820038,-0.514974,-1.714931,0.983866,-0.953064,1.159958,0.763078,-1.256274,-1.000644,-0.278099,0.677419,-0.578163,0.732021,0.687429,-0.779019,0.957526,0.307941,-3.755873,-0.657789,-0.211735,0.867996,-1.210947,0.753702,1.524738,-1.276524,-0.143296,0.320275,-0.541866,-0.010817,-1.079943,0.131360,-1.624859,0.439363,1.066307,-1.892022,-0.480800,-0.612774,0.616377,0.149477,-0.056403,-1.548422,-0.680892,-3.538264,0.607270,-0.193853,-0.693164,-0.333263,0.773082,0.309099,0.489556,0.112753,0.574018,-1.751742,0.314310,0.383993,0.264401,-0.697035,0.183546,0.239492,0.085087,0.153473,0.633519,-1.352600,0.122412,-0.089818,0.222427,-1.712074,0.857900,0.081168,-0.148641,0.291731,-0.468946,-1.475636,0.396183,-0.558057,0.258018,-2.611934,1.054357,0.065236,-1.352725,0.456650,-0.390530,-2.776642,0.888861,-1.218675,0.771656,0.066052,-0.682400,-0.488571,-0.432192,0.227427,-0.227926,-0.245265,0.726238,-0.540339,0.796531,0.342427,-2.189362,-0.855331,0.794533,-0.783918,0.175058,0.549647,-0.471261,-0.110899,-0.342946,-0.086494,-1.008045,-0.163666,0.666223,-0.797021,0.000773,0.367466,-0.210616,-0.088771,-0.893054,0.915677,-0.196855,1.163843,0.753380,-0.222076,0.381817,0.456313,-0.672525,0.023958,-0.538297,-1.115303,-0.514176,-2.649902,1.851027,0.380929,-0.873193,-2.949990,0.925754,-2.249127,0.882281,-2.375559,0.044510,-1.490977,1.354690,0.477538,0.407163,-5.471410,1.026451,-1.308878,0.888919,-4.447245,-0.406236,-0.239742,0.800988,0.278397,0.575829,-4.131125,0.893909,-1.798539,0.867771,-2.735517,0.022584,-0.180817,0.024846,0.259843,0.148574,-1.057873,0.817617,-1.959971,0.556064,-0.787194,-0.372840,-0.537106,-0.079405,0.013698,0.280491,-0.349344,0.436731,-0.740791,0.350722,0.172984,-0.408729,-0.640162,0.873486,-0.501122,0.319862,-0.036979,-0.248190,0.304435,-0.215553,0.019112,-0.187503,-0.214468,0.437500,-0.395967,0.229122,0.154564,-0.672597,0.275607,-0.746204,-0.252191,0.464916,1.014837,0.326726,-0.367716,0.147546,-0.254684,-1.367917,0.195414,-1.242806,0.040120,0.147431,0.093785,-0.457764,0.167642,0.343964,-0.437596,-1.196754,0.131004,-0.226687,-1.958962,0.626814,-0.332571,0.259108,-0.474892,-1.382898,1.295088,-1.208152,-0.780551,-0.230918,-2.624820,-0.290611,0.097306,0.281966,-0.901685,-2.014486,1.977344,-1.341995,-2.438081,-2.316889,-1.716925,0.883924,1.923333,-0.228512,-0.477692,-1.637232,0.806618,-1.727400,-0.781834,-3.042565,-0.946128,0.744936,0.989534,-0.039967,0.689542,-1.289574,0.995817,-1.536415,-1.836853,-3.783246,-0.588182,0.564455,1.671199,0.901858,-0.912070,-1.624600,0.375775,-2.993146,0.304007,-0.692093,-0.736127,0.893266,0.752112,0.302014,-0.594335,-1.133243,0.526948,-3.005456,-0.145068,-1.189328,-0.379776,0.608624,0.895292,0.053872,-0.727852,-0.032647,0.349987,-2.322605,0.484071,-2.924222,-0.126269,0.515300,0.661987,-0.398052,-0.204895,-0.110947,1.096677,-4.857996,0.255309,-2.092950,-0.378575,0.281365,0.167825,-1.979928,0.435016,0.040658,1.566434,-4.098910,-0.711324,-4.879735,-1.207335,1.370645,-0.938002,0.062075,0.469671,0.036403,0.021311,0.296226,-1.058334,-2.651238,-0.222158,0.428153,-1.222772,-1.321380,0.452154,0.230952,0.612155,0.381020,0.222158,-4.198800,0.295664,1.600478,-0.230462,-0.499805,0.856190,0.766204,0.435886,0.453177,-0.118877,-2.663077,-0.316073,1.189626,-0.203483,0.007675,0.584359,0.236192,-0.615786,0.295837,-0.768947,-2.172878,0.117820,0.681214,0.401323,0.550781,0.773649,-0.004962,-0.538682,-0.044299,-0.728044,-1.056441,0.396625,0.657068,0.479099,0.148757,0.319867,-1.158824,-1.872655,-0.485094,-0.235981,0.033751,0.488614,0.184497,0.636871,0.272509,0.355525,-1.581588,-1.990269,0.336178,0.277115,0.925499,0.783620,-0.014592,0.503898,0.477678,-0.081979,-0.540281,-1.277931,0.243916,0.474916,0.317490,0.779163,0.740090,0.239237,-0.418047,0.004534,-0.376246,-0.777962,-0.251116,0.070029,-0.790470,-0.307317,-0.957872,-0.785114,-0.107772,0.428696,0.170870,0.135366,0.333196,-0.994649,-1.220294,-0.108853,0.165462,-1.715604,-0.827242,0.643245,0.274809,0.352446,0.397504,-0.119141,-0.698159,-0.279588,0.154309,-0.501626,-0.954198,1.173512,0.588864,0.127594,1.157782,0.285554,-1.035918,-0.425871,1.236163,-0.469118,-0.367081,0.881868,0.297552,-0.467375,0.545137,0.386486,-1.895662,-0.128406,0.261053,0.217009,-0.179083,0.618956,-0.526688,-1.388547,-0.160731,-0.214266,-0.089655,0.510516,0.485142,0.790230,0.305270,0.748073,-1.806104,-3.319800,-0.122575,0.409810,0.343575,0.987680,-1.395285,1.073343,0.507289,0.397538,-3.166048,-2.715167,0.274391,0.641473,0.741132,1.100068,-1.840873,0.735849,0.083396,-0.321947,-2.256476,-1.671156,0.730979,0.958324,0.533586,0.735537,-0.225472,-0.179708,-0.723793,-0.266740,-1.736449,-1.030802,0.426529,0.625181,-0.096120,0.200822,-0.397884,-1.561328,-1.568528,0.335727,-0.411107,0.949976,0.513081,0.077200,0.493345,0.100774,-0.396654,-2.294276,-2.292754,0.522932,0.241922,0.261135,0.366928,0.368225,0.241932,-0.213690,-0.918237,-1.589825,-1.934193,0.957545,0.544004,0.355160,-0.144319,0.487750,0.486755,-0.421015,0.616482,-0.925134,-0.742986,0.779600,0.416496,-0.044755,-1.213334,0.812526,0.839807,-1.488067,0.163195,-0.441472,-0.682520,-0.214559,-0.711709,-1.528389,-0.715517,0.550267,0.380612,0.874279,0.275126,0.731555,-0.607918,0.699350,-0.547063,-2.801085,0.375645,0.154655,0.407365,0.702021,-1.992637,0.591516,-0.878904,0.007248,-0.988910,-1.450545,-0.064578,-0.525387,0.138656,0.889668,-0.797943,0.658889,-0.977320,0.094150,-0.668649,-0.275184,0.115961,-0.203109,0.448758,1.545166,1.084631,0.471688,-2.528807,-0.398532,-2.093041,0.876046,0.173310,-0.260222,0.755830,0.583375,-0.316351,-2.199136,-1.610949,0.577928,-1.407428,0.721171,0.601852,0.566679,0.567957,0.391481,-0.117561,-2.368076,-1.972766,0.575757,0.030567,0.544705,-0.388575,0.417264,0.657357,0.111946,-2.154592,-2.077666,-0.883429,0.479916,0.433018,0.707487,-1.184953,0.595387,0.436241,-0.201860,0.445689,-1.427625,-0.578941,0.202446,0.441976,0.239766,-1.331654,0.832583,0.531150,-1.241471,0.278498,-0.389853,-0.443950,-0.335448,0.121547,-0.593720,0.115577,0.726579,-0.496876,0.212249,0.100121,0.019496,-0.897785,0.393422,-0.274353,-0.875753,0.778318,-1.428062,-0.015673,0.641607,-0.880249,-0.046878,-0.063838,0.017858,-0.028045,-0.215770,0.104506,-1.494123,-0.578764,0.916978,-1.041686,-0.706929,-0.024515,-0.234982,0.031355,0.127421,0.254377,-0.628043,-0.100731,1.042186,-2.308061,-1.219396,-0.087532,-0.095481,-0.391246,0.515195,0.168416,-0.739523,-0.306356,0.286154,-2.665421,0.072311,0.488941,0.336130,-0.781800,-0.122061,-0.039453,-0.422197,0.567683,0.483763,-2.826056,-0.173329,-0.224401,0.267989,-0.268858,0.747597,-0.887535,0.250904,0.447149,0.450310,-0.742737,-0.636242,-0.333834,-0.219482,0.160644,0.610973,-1.525276,0.216202,0.230453,-0.271240,0.429844,-0.630147,-0.311572,-0.418580,0.121730,0.368566,-1.112364,0.405223,-0.498585,-0.504162,0.260727,-0.341207,0.124093,-0.625536,0.384147,-0.148954,-0.424695,-0.060591,-1.277475,-0.117762,-0.014366,-0.659403,0.193896,0.101100,0.352754,0.062114,0.362072,-0.349156,0.220947,0.468845,-0.713375,-0.993040,0.456097,-1.011143,0.370007,0.317312,-0.443105,0.228863,-0.362523,0.680282,-0.321082,-0.966537,0.321769,-0.830355,0.337053,0.330991,-0.446904,0.264108,0.026633,0.086153,-1.109506,-0.647750,0.265602,-0.585296,0.187835,-0.141989,-0.762929,0.394469,-0.303858,0.521852,-2.019275,0.562193,0.921479,-1.088699,-0.321140,-0.392038,-1.124842,-0.505771,-0.726886,0.439997,-1.594009,0.286903,0.271240,-0.889322,0.093675,0.554143,-1.587923,0.057431,-0.268469,0.572832,0.173209,0.357081,-0.005442,-0.481530,0.138416,0.646098,-1.455516,0.270419,0.059477,0.401534,0.331750,-0.069386,-0.231236,-0.481674,-0.037147,0.507870,-0.625464,0.185649,-0.999289,-0.136322,0.777127,-0.320117,0.090159,-0.246677,0.187508,0.400372,-0.297504,0.145183,-0.334377,-0.661545,0.227038,-0.356664,0.225246,0.326154,0.074290,0.042762,-0.308954,0.296178,0.368239,-0.977627,-0.554618,-0.472481,0.119107,-0.287398,0.245885,-0.139333,-1.363710,0.388402,-0.133608,-0.804216,0.572476,-0.281226,-0.188694,-0.813918,0.154247,-0.146077,-1.935975,0.229785,-0.337317,-0.724230,0.278695,-0.428494,0.188757,-0.046566,0.847996,-0.406721,-1.399507,0.020250,0.970029,0.262806,-0.729182,0.417807,1.204007,-3.023391,-0.287240,-1.971984,-1.319992,0.308388,0.097152,0.348484,-0.354401,0.274305,0.683452,-2.546247,0.206860,-0.196639,-2.314238,0.428235,-0.369339,0.304588,-0.350155,0.165606,0.009707,-2.102551,0.153862,0.106076,-1.127854,0.153843,-0.368234,0.927199,-0.064923,0.035999,-0.381231,-0.866983,-0.005528,0.776334,-0.287158,0.715935,-0.458038,0.251260,0.533206,-0.420266,-0.653970,0.111706,-0.344195,0.351630,0.000077,0.589542,0.075985,-2.528711,0.244833,0.288373,-0.286476,0.496611,-0.052930,-2.250991,0.083214,0.365391,0.398383,-3.090375,0.067210,0.553259,-0.230222,0.348719,-0.518826,-2.190784,0.084395,0.207681,0.448182,-3.747271,1.122661,0.348431,-0.516126,0.259550,-0.309195,-2.058420,-0.746401,-0.202984,0.265073,-3.286327,-0.195544,-0.162167,-1.588644,0.547913,0.227206,-2.329103,-1.014520,-0.027920,1.263825,-0.224934,0.952248,-0.070596,1.886589,-1.803448,-0.896061,-2.245457,-0.515435,0.210957,-1.287763,-0.091422,-0.177763,-1.072215,1.114895,-1.642256,0.147388,-4.137234,-0.088824,0.515348,-0.117892,0.264852,-0.392514,-0.804211,0.765503,-0.266274,0.767540,-3.366198,-0.365588,0.671031,-0.250352,0.909510,-0.102109,-0.586511,-0.024597,-0.245347,0.357446,-1.036931,-0.059674,0.569758,-0.450953,-0.598692,0.037848,-0.670680,-2.239415,0.277753,-0.960706,-1.249756,0.608687,0.173637,0.284953,-5.335333,1.178507,-0.102090,-1.684509,1.009443,-1.733606,-3.697280,0.954860,-0.755373,0.934577,-4.736344,1.975932,0.738390,-1.232475,1.196812,-2.065822,-3.385929,0.880398,-2.283147,0.965701,-3.195030,-0.026110,1.260986,-2.585176,-0.016215,-0.806310,-3.309555,0.620795,-2.817439,1.273094,-2.779792,-1.919370,-0.966887,-0.859922,1.085730,0.374267,-1.738486,-0.419565,-2.368057,1.163618,-2.671756,3.611636,1.729965,0.508081,-1.795023,1.498417,-0.020615,0.818054,-3.590454,0.457149