-0.37257537
-0.66748726
0.18454319
-0.18917397
-0.18317479
0.0283887
0.29340735
-0.6816765
0.09871629
0.6901095
0.44775462
-0.48494843
-0.12223295
-0.42807832
0.29511225
-0.025147561
0.3149977
-0.35847038
0.09183587
0.044289786
-0.27078006
0.41764662
0.5301589
-0.18534496
-0.23513179
-0.3315428
0.41246334
0.6689851
0.08810454
0.23877299
0.40935373
0.5779995
-0.35822004
0.81772715
0.59468406
0.42638835
-0.02897547
-0.18816465
-0.001436335
0.025650922
0.03390942
-0.18576448
-0.22048794
-0.14586806
-0.7687454
0.30325553
-0.15722287
0.098703384
-0.22439156
0.21132194
-1.3674382
-0.24115345
-0.024286646
-0.5171689
-0.08258568
-0.2929397
-0.14265688
-0.27016923
0.026594482
-0.009053047
0.5095624
0.37763956
-0.23533525
-0.24206841
-0.04952757
0.24179207
-0.5297551
0.054951157
-0.037512597
-0.16184913
0.41188636
0.40536648
-0.09939909
0.16369195
0.19633265
-0.05029745
0.06746425
-0.6880396
-0.05977758
0.4826682
0.35469767
-0.39462033
0.098588765
0.10273442
0.2155629
-0.26043537
0.062121388
0.172448
-0.2479276
-0.035110407
-0.0104749985
0.14749888
-1.3168471
0.47534347
0.82539046
-0.36406663
-0.103625834
0.22797608
0.097043075
0.5007273
0.6984699
-0.22846842
-0.5017322
0.53055716
-0.114136554
0.029191187
0.01500817
0.29710677
-0.463952
0.49361673
0.07837675
-0.0384759
-0.16166
0.092178755
0.2835506
0.13654554
0.49014068
-0.17132644
0.0798429
0.41444755
-0.1581658
0.060698453
-0.2978732
0.2155776
-0.81689256
-0.5437423
0.42238915
-0.32533988
-0.21392378
-0.43169352
-0.042904973
0.60192
0.018149508
-0.22066446
-0.20634623
0.14424819
0.14389743
0.17949666
0.19873132
0.20915163
-0.87323725
0.7470787
0.9308311
-1.0781249
-0.014809445
0.25809783
-0.08232358
-0.50532335
0.30903205
0.20428284
-0.5633333
-0.24294724
0.13747582
-0.16698007
-0.005729596
0.0070807463
-0.54843974
0.97679955
0.5698924
-0.3184146
0.4213645
0.22669224
0.008487451
-0.21890661
0.28090942
-0.18901415
-0.017374933
-0.33689573
0.22956431
0.24901044
0.20330158
-0.055888105
-0.51520586
0.35577556
0.41756335
-1.096343
0.12585744
-0.14645731
0.19072059
-0.32867494
0.5399949
-0.13442431
-0.06627712
-0.18973212
-0.08115996
-1.2082076
-0.4282467
-0.026117356
-0.095679
0.25806564
-0.05077129
0.19720158
0.27954477
-0.426769
0.14325845
-0.0058177584
-0.33459774
-0.759315
-0.01964798
0.18767086
-0.18208754
-0.0088253645
-0.0279731
-0.015457943
-0.079728134
0.11419292
-0.15496491
0.023930442
-0.2622362
0.15042269
-0.07826643
0.17063954
0.01022033
-0.3675698
0.28196576
-0.17047961
-0.45723712
-0.65026474
0.16207454
0.2579843
-0.09720535
0.18456928
-0.27560064
-0.2858948
0.14453188
0.10291914
-0.31296965
-0.29906833
-0.13948256
0.12889577
-0.052508935
0.021623408
0.3302393
-0.05390495
-0.1774453
0.15328513
-0.13582875
-0.6353979
-0.3988427
0.2401432
-0.22222497
-0.31485438
0.069423765
-0.13021854
0.41095132
-0.24924487
-0.18889366
-0.6921873
-0.17052564
-0.13219717
0.11660012
0.06784591
-0.089101866
-0.090100884
0.29995131
-0.16999958
-0.10640794
-0.59523845
0.012693642
-0.31979933
0.6613465
0.056470193
-0.5976934
-0.44961497
-0.033875253
-0.31678617
-0.64493126
-0.41391608
-0.1328357
-0.026821263
-0.0470363
-0.015954398
0.097027466
-0.06417337
-0.29275414
0.08136153
-0.1057202
-0.30210885
-0.35191628
0.24693371
-0.30994567
0.06290649
0.23587175
-0.24630749
0.6526385
-0.4239777
-0.46208048
-1.4390657
-0.09763948
-0.0055346154
0.19147909
0.041340835
-0.079203025
-0.09546415
0.049969207
-0.3042382
-0.06815943
-0.28099406
-0.17377803
-0.41987675
0.56207573
0.29802024
-0.63198364
-0.7456532
-0.11767512
-0.7059486
-0.38234228
-0.8711097
0.017245507
0.072339006
0.08771355
0.11809273
0.035403967
0.02395234
-0.33110166
0.0062445914
0.11272242
-0.040831547
-0.1704184
0.65284324
-0.06010123
-0.10987592
0.13062803
-0.24632801
0.3815425
-0.54650474
-0.5315989
-0.83891374
-0.1094936
0.15570247
0.084212966
0.031192614
-0.11742606
-0.107887
-0.047032695
-0.26997387
-0.020028343
-0.13787238
-0.19571672
-0.3685618
0.45191726
0.22508472
-0.98534954
-0.35876134
-0.061128013
-1.0389806
-0.0098948
-0.85494536
0.020308014
-0.010126243
0.048629597
0.057775382
-0.20473513
-0.019908192
-0.24950719
-0.054378502
0.017628826
-0.017006114
-0.074647985
0.6536566
-0.066080965
-0.2812658
0.19557983
-0.18921494
0.30972853
-0.8400457
-0.32877105
-0.7913264
-0.0121878665
0.0896656
0.023789471
-0.031935573
-0.07922458
-0.10063538
0.053605806
-0.62138885
-0.004928383
-0.2591789
-0.04865915
-0.15702595
0.13671511
0.13993289
-0.555302
0.0569315
0.15801725
-0.5994925
0.010321052
-0.64788246
0.063924894
-0.02386766
0.0755884
0.04172759
-0.16377996
-0.021897405
-0.12170311
-0.07961889
0.023347763
0.029568613
-0.09044707
0.4018225
-0.013671598
-0.326408
0.057064667
0.19975074
0.2127319
-0.6136117
-0.22030024
-1.060128
0.056072418
0.086554915
-0.09882169
-0.13535239
0.02292891
0.030519212
0.23373057
-0.8261011
0.011712935
-0.47697455
-0.21673024
-0.161099
0.00754542
-0.10975044
-0.15819553
0.106452346
0.25377214
-0.9037358
-0.03650043
-0.56126916
0.028787062
-0.007440489
0.08696758
0.044194493
-0.11348476
0.07581716
-0.028125856
-0.12859933
0.072465226
-0.00518521
-0.08874183
0.29685062
-0.28633857
-0.30582786
0.19419906
0.39000964
0.34319752
-0.8810273
-0.12238304
-0.7790607
0.04635039
0.24551855
-0.2576273
-0.21926753
0.25955993
0.037566066
0.32693323
-0.9232228
-0.00058317615
-0.5556858
-0.3240953
-0.27572656
-0.25604177
-0.27272946
-0.27537856
0.5099095
0.431715
-1.2159137
0.042683173
-0.6931614
0.1130614
0.14118242
0.07200892
0.09904539
0.01546003
0.1253132
0.1634456
-0.22368605
0.092328824
-0.06830276
-0.08979795
0.36530936
-0.42544824
-0.54220587
0.20547548
0.10934531
0.2275763
-0.8691607
-0.1375464
-0.66907567
-0.09275946
0.18338558
-0.50100374
-0.65408796
0.26338783
-0.11070551
0.34014925
-0.6919378
0.011378632
-1.2609787
-0.3664049
-0.13708812
-0.61243826
-0.50653994
0.023347968
0.3995628
0.4203364
-1.3980758
-0.07100109
-1.2943053
0.087044895
-0.043365113
-0.014212455
-0.15965083
0.046976447
0.04256827
0.17820019
-0.5911163
-0.013307836
-0.5677337
-0.20160437
0.17394023
-0.0073029674
-0.71331036
0.31339833
0.030611781
0.20707582
-1.1253731
0.030422369
-1.2048079
-0.43975827
-0.37002543
-0.24789403
-0.8896513
0.32583404
-0.20090269
0.48717687
-0.6812609
0.07650416
-1.0446098
-0.2883452
-0.21428883
-0.7239504
-0.8728191
0.4025571
0.3429531
0.251162
-0.50747675
-0.14403503
-1.014562
-0.2262858
0.09958828
-0.41628328
0.009977403
0.30879298
-0.6711946
-0.52685535
0.5014861
-0.016151454
-0.37424937
-0.14614971
-0.2502888
0.10111622
-0.106104
-0.09457649
-0.47768342
0.12051559
0.2832395
-0.5022988
-0.7246317
-0.12728912
0.060758363
-0.04551712
0.085902035
0.069288
-0.12160265
0.1391848
0.08468147
-0.01940845
-0.30251494
-0.37273586
0.1865128
0.08931042
0.18421708
-0.1682853
-0.47978726
-0.09765103
-0.07104877
-0.70802397
-0.7076157
-0.0152562335
0.08688022
-0.021483244
0.021832764
0.161492
-0.18533276
-0.4943757
0.24669123
-0.007475714
-0.27129018
-0.089621715
0.17061599
-0.31823012
-0.20293123
0.119994566
0.032610353
0.28620484
0.17800066
-0.23693117
-1.1954781
-0.040423177
-0.21107036
-0.035094574
-0.036095027
0.049478024
-0.050446264
0.03578316
0.009835343
0.03780784
-0.079975106
-0.41683945
-0.26207122
0.32940835
0.28736648
-0.3567973
-0.71208876
-0.22813512
0.29723766
-0.37654045
-0.8545795
-0.043976035
-0.090872906
-0.110973105
-0.056870308
-0.024867151
-0.019333541
-0.84072816
0.1698796
-0.056954514
-0.18044245
-0.06857042
0.11636268
-0.34999806
-0.30679554
0.34835535
-0.021847287
0.37844384
0.15426041
-0.19232276
-1.2850294
0.007696818
-0.09976382
-0.016320353
0.0044686887
0.037292305
-0.0040316787
0.070384495
0.08515268
0.07465859
-0.039438233
-0.38644236
-0.35357603
0.2509977
0.22596194
-0.5730154
-0.2116956
-0.34516793
0.20080625
-0.1061138
-0.038462926
-0.027775353
-0.18175504
0.0009510265
0.114313304
0.012169083
0.05410225
-0.5628738
0.16644135
0.006384981
0.065726735
0.013694108
0.44390783
-0.07350361
-0.34915313
0.45320198
0.20456761
0.30096826
0.2984061
-0.09641249
-0.7504921
-0.03510048
-0.032432485
-0.06798375
-0.0025336933
-0.07171426
-0.010634857
0.015965858
-0.028368805
0.007732149
-0.025814824
-0.13320073
-0.3321567
0.16610005
0.14879477
-0.55374616
-0.014298118
-0.20170449
0.032181617
0.088695265
0.09506652
0.12774852
-0.055378858
0.0527045
0.11368808
-0.1771815
0.0696354
-0.67362726
0.103521414
0.029030226
0.098183766
-0.120004214
0.27815944
-0.020206476
-0.08582373
0.33276734
-0.06323095
0.05947249
0.008209111
-0.11734129
-0.6821778
-0.019643644
0.08008489
-0.09332328
-0.09769595
-0.041934628
-0.028779233
0.046985205
-0.16297565
0.027487034
0.025334653
-0.020277308
-0.5709604
0.0700541
0.05805691
-0.64426506
0.15440169
-0.013947651
-0.039097983
0.10507513
0.018959189
0.18018255
-0.025577292
0.085890785
0.183405
-0.13730511
0.071716994
-0.53484327
0.15255843
0.10081097
0.15197165
-0.15510048
0.114056826
0.13489397
0.06283164
0.19055982
-0.35385248
-0.032770116
0.027871504
-0.095691875
-0.32445848
0.010279869
0.15112707
-0.20885387
-0.27281564
0.23645107
-0.06286964
0.11437879
-0.13148928
-0.0044281227
-0.064317256
-0.037671737
-0.7477057
0.0037079563
-0.017182471
-0.61838704
0.22439063
0.17358416
-0.18997006
0.15205225
0.03670927
0.10571483
-0.18567094
0.007021852
0.048177388
-0.14125438
0.024257476
-0.3770251
0.039950587
0.044363834
0.06186769
0.006439237
0.022815768
0.11868511
0.072249494
0.17930263
-0.45238984
-0.09039411
-0.005945226
0.11076059
-0.32427782
0.09584504
0.33722794
-0.55255884
-0.5646667
0.38373134
-0.10096889
0.09824804
0.04905096
0.088502996
-0.21172069
-0.2582466
-0.39210528
-0.12784894
-0.22931646
-0.34638697
0.25661466
0.090124875
-0.20845324
0.05627131
0.011055816
0.09565211
-0.2456333
-0.050603613
-0.018904552
-0.13497442
0.0024289568
-0.2582229
0.034545507
0.041921023
0.0074953428
0.06930936
0.10938943
0.1104041
0.030027166
0.19980575
-0.6615661
-0.2054036
-0.028191166
0.07719593
-0.29254118
-0.2137788
0.2525361
-0.79843575
-0.92183334
0.4578989
0.21731077
-0.12001277
-0.055738077
0.12323615
-0.43005362
-0.12200093
-0.10692845
-0.73098147
-0.39636818
0.070006795
0.28523663
0.19420911
-0.15343364
0.0095018335
-0.16259094
0.10295946
-0.17759468
-0.097478315
-0.14786196
-0.07903948
0.16087557
0.02042344
-0.0418333
0.0626147
-0.054796264
0.100081675
0.20534262
0.009445124
-0.13980362
0.38492793
-0.10236368
-0.09748474
-0.15654962
0.19510326
-0.70177907
-0.66261077
-0.34181678
-0.53369814
-1.2912725
0.50609165
0.053875476
-0.013965129
-0.4892611
0.20067947
-0.53613096
-0.16964713
-0.20872818
-0.89367753
-0.65728116
0.3444298
0.40462825
0.20217088
-0.42640927
0.009813468
-0.6813883
0.083630115
0.08919842
0.024332277
0.052413452
-0.10784014
-0.9486737
0.010261564
0.34568688
-0.5042413
-0.21735664
-0.40406036
-0.20731574
-0.010475748
-0.10961574
0.096319616
-0.5932115
0.09512125
0.27322587
-0.180734
-0.25009897
0.08008073
-0.3086865
-0.1681666
-0.18334511
0.020519033
-0.13849522
-0.044892877
0.015255047
-0.07890809
0.10293832
-0.25966334
-0.17214918
0.09452142
0.10577101
-0.03201132
-0.42455876
-0.3038158
0.14752053
-0.021279845
-0.57471555
0.014621016
0.044203542
0.21495877
0.057198703
0.09588447
-0.86791664
-0.5932083
0.4892471
-0.42444023
-0.37447152
-0.066764005
0.02336922
-0.35309687
-0.3091619
0.15582293
0.1073146
0.1836534
0.0801758
-0.043235734
-0.08155008
0.048216984
-0.29732242
-0.0780304
-0.05572955
0.018262424
-0.04338136
0.15020324
-0.05585755
0.05281532
0.08805628
-0.34158987
0.019729242
0.25479397
0.21694784
-0.5453119
-0.319618
-0.46416447
0.30937254
-0.096644044
-0.5422127
0.116714366
-0.08774535
-0.08825563
0.05485897
0.109622
-0.25617442
-0.7904354
0.41154107
-0.103895865
-0.3097714
0.092160225
-0.53701663
-0.25414303
-0.36734018
0.35057524
0.14125371
0.30075014
0.1559335
0.019854777
-0.015528776
0.0451944
-0.13623539
-0.011826353
-0.08020709
0.086463064
0.028595163
0.09861637
0.0465508
0.08458674
0.12516102
-0.120253175
0.038922068
0.23620486
0.29865715
-0.66445
-0.21429615
-0.26475912
0.265458
-0.09075692
0.04895796
-0.033612825
-0.11059868
-0.10115651
0.021664899
-0.027497293
0.043591563
-0.8368363
0.25591803
0.17653127
-0.2629333
0.060318433
-0.03887862
-0.08652951
-0.3530895
0.2478619
0.14882614
0.12643825
0.03842406
0.11174815
-0.020785574
0.0159165
-0.08285339
-0.13016342
-0.113490075
0.020774154
0.011296168
0.06306864
-0.012084501
0.020882592
0.058778778
-0.016823145
-0.13409919
0.15473957
0.2512693
-0.45883164
-0.011713418
-0.16207741
0.15517467
0.05577614
0.12998696
-0.1347298
0.115520276
-0.048605833
-0.08034906
-0.28963467
0.17080036
-0.33563516
0.12751788
0.16971178
-0.13343766
-0.0446617
0.078950115
-0.11540094
-0.09711062
0.13187152
-0.021704653
0.10160341
-0.18433708
0.053305313
-0.1214653
0.04297847
0.04515163
-0.17269146
-0.108210266
0.063467845
0.03541544
0.14073989
-0.18766211
-0.15282488
-0.017931832
0.09804301
-0.5048421
0.12159328
0.12107935
-0.36542174
0.13303077
-0.11514776
0.10772322
0.0960271
0.13820735
0.05867793
0.10376667
0.003903212
-0.09345455
-0.4494585
0.13425642
-0.052791275
0.13357468
0.00035583274
0.00427461
-0.05581286
0.07521055
0.108984396
0.112157434
0.15034689
-0.4556101
-0.08548471
0.08162145
0.07658253
0.13322482
-0.18334097
0.30160257
-0.10386776
-0.14058898
0.33148563
-0.05005673
0.15184304
-0.03915264
-0.07655893
-0.29181516
0.10121754
-0.5681266
-0.060345154
0.016048955
-0.62129515
0.26920247
0.13032244
0.06140844
0.042970736
0.06983075
0.1134615
-0.5598614
-0.031495724
-0.08733116
-0.24143992
0.018631833
0.029929949
0.08349516
-0.036262184
0.03515076
0.13219371
-0.04463097
0.13421695
0.09999478
0.13603422
-0.8662411
-0.448907
0.06591175
0.13807872
0.08719207
-0.4344228
0.25762329
-0.017449487
-0.41907775
0.48100266
-0.17942962
0.17451124
0.06557324
0.078017496
-0.16503976
-0.1010481
-0.0820379
-0.4203246
-0.06827537
-0.5521839
0.2983449
0.17292012
0.0032894332
0.07694728
0.00042508508
0.19061832
-0.85384816
-0.14324547
-0.2391472
-0.15108263
0.008647882
0.1421924
-0.023617564
0.09285554
0.031619865
0.22427209
0.07056158
0.20335151
0.06901725
0.085780196
-1.1123853
-0.34215888
0.059895303
0.17008653
0.061827924
-0.41413397
0.08180432
-0.21444787
-0.4626701
0.45328802
-0.038437363
-0.18883681
0.08250196
0.09667531
-0.53056586
-0.3096939
-0.07918331
-0.6184217
-0.21439761
0.072694
0.27349564
0.071706235
-0.070894346
0.12879579
-0.070822164
0.20326275
-0.62985003
-0.18095711
-0.33349484
-0.1613768
0.14914636
0.14170218
-0.14774704
0.13124979
-0.096913725
0.24953622
0.10540925
0.054483257
-0.06472919
0.04388398
-0.5003993
-0.42551264
-0.11440875
0.16757728
-0.16410708
-0.46751612
-0.4263187
-0.35967454
-0.8343906
0.1782699
0.09381814
-0.36603254
-0.1634261
0.33545077
-0.8281568
-0.070267424
-0.42232072
-0.9523162
-0.71764684
0.26350477
0.4436537
-0.05973554
-0.22648855
0.25539708
-0.51472723
0.16315366
0.17415646
0.26625365
0.24420898
-0.08276529
-0.8986649
-0.49664262
0.4254668
-0.28577048
-0.789568
-0.07550103
0.03983777
-0.24811691
-0.021707797
0.24465765
-0.58612037
-0.0849825
-0.13778469
-0.04282789
0.2721223
0.1473225
-0.19049476
-0.31980947
-0.27810812
0.18204848
-0.13217893
0.008675231
0.023676654
-0.012589063
0.16139589
-0.11562253
-0.096579954
0.08948156
0.14427829
-0.17647196
-0.19596332
-0.73797905
0.08056984
0.15493171
-0.086266324
-0.09254333
0.4295806
0.53097916
0.32822388
-0.21638675
-0.6648761
-0.9246893
0.59975696
-0.26406872
-0.9286263
0.18147852
-0.06805162
-0.32634014
-0.37119976
0.0789835
0.06314908
0.18098515
-0.06101219
0.0006543099
0.11882677
0.12031257
-0.20676588
-0.20303623
-0.29641327
0.08681317
-0.10623634
0.11025571
-0.022371175
-0.048967723
0.089285925
-0.49408907
-0.026030822
0.15904535
0.15637313
-0.3400934
-0.03398541
-0.5894694
0.059288487
0.07735692
-0.20853402
-0.46342432
-0.37227887
0.25901952
0.10092298
-0.16740611
-0.102075815
-0.6804991
0.27646416
0.1327533
-0.17694193
0.105918325
-0.7393436
-0.47292832
-0.4067314
0.089475654
0.020112706
0.13297698
-0.07861387
0.025360564
0.03165326
0.0782465
-0.23489292
-0.23616326
-0.0054211216
0.08193902
0.0012594868
0.1225154
-0.028439099
-0.06648883
0.06164433
-0.22238453
0.016371828
0.16239928
0.15591493
-0.2554753
-0.08072983
-0.85018253
0.12069305
0.030724298
-0.12180824
-0.48176217
-0.51755965
0.10511437
-0.09332105
0.028638998
0.10681514
-0.4515276
-0.101935595
0.20583506
0.06894386
0.12193417
-0.26983422
-0.2586622
-0.35281727
0.12282355
0.10465831
0.09117291
-0.0086460095
0.090955704
0.07746391
-0.026339173
0.014900087
-0.2163208
0.12732574
-0.013208238
-0.0035375166
0.046954077
-0.13763885
-0.18421745
0.0013859256
-0.03158373
-0.19913962
0.0072144587
0.048524894
-0.23026331
-0.049834337
-0.31757534
0.13181478
-0.24933606
0.040723193
-0.6684501
-0.41284725
0.012098484
-0.07056192
0.13387312
0.16883664
0.004606508
-0.38778558
0.14734013
0.05677193
0.09624276
0.06924276
-0.0815265
-0.10855444
-0.021783527
-0.024378056
0.03907001
-0.1910812
0.112863645
0.013455067
-0.37954882
0.09119872
0.03144319
0.1512785
-0.117320634
-0.1476984
0.08547862
0.051956356
-0.25049523
-0.13329779
-0.027307216
-0.7695968
-0.13918695
0.11333831
-0.30307364
0.08106833
-0.1432639
0.10704787
-0.16659416
-0.0070482926
-0.7010851
-0.21027723
-0.12909175
0.062157124
-0.07238427
0.24552909
0.27920467
-0.37609997
0.11365667
0.07035038
-0.014925323
0.12478901
0.12558773
0.057642106
0.11524126
-0.499108
-0.2667321
0.12998703
0.02123924
0.09455353
-0.14174557
0.13511924
0.16192092
-0.014317692
0.26276964
-0.9093155
0.1376965
0.075422354
0.02957469
0.04736887
-0.097532175
-0.34771198
-0.23302573
0.2061975
-0.48607534
0.14954339
-0.054809064
-0.008561104
0.21575959
-0.015444209
-0.19926672
-0.29530597
-0.27659294
0.10648102
-0.04732926
0.18111542
0.2622844
0.029671544
-0.052285425
0.07345016
0.107691824
-0.07174748
0.1242725
0.0111807715
0.11822975
-0.67590195
-0.6112356
0.11989708
0.039193697
0.080837026
0.01407466
-0.4243895
0.16816966
-0.22988075
0.39129356
-1.3290247
0.13007335
-0.021242782
0.10664607
0.01566888
-0.366203
-0.1753899
-0.3210716
0.17435932
-0.20325527
0.116395734
-0.009872841
-0.09209486
0.2621935
-0.06195156
-0.051119328
-0.49091578
-0.13643023
-0.08544355
0.038702413
0.09126582
0.1931794
-0.0028995683
-0.12722439
0.042483162
0.1894494
-0.14405014
0.21986581
-0.06359543
0.044514924
-1.0730972
-0.10423411
0.11306767
0.11518982
0.06355028
0.018002708
0.24735746
0.24271515
-0.70964205
0.2204343
-1.1116651
0.014919063
-0.33480534
0.27755755
-0.094553165
-0.645044
-0.27430353
-0.25790003
-0.007720599
-0.041409
0.09098271
-0.35742232
-0.13770634
0.20390165
-0.20481956
0.10172076
0.0761934
-0.07564632
-0.37947512
-0.019963372
-0.0010606287
0.31719726
-0.1423987
-0.11559318
-0.09562459
0.32036814
-0.27880412
0.073928304
-0.42002353
-0.19932222
-0.7396218
0.18733709
-0.28560913
0.24994656
-0.014602364
-0.049487483
-0.21155833
0.46210986
-0.3630571
-0.012259783
-0.40746468
-0.26291907
-0.6073842
0.276452
-0.54528266
-0.42001295
-0.12208492
-0.14921677
-0.92554426
0.12649615
0.42195842
-0.4177868
-0.36182752
0.28397983
-0.32597136
-0.48099414
-0.10119213
0.45228976
0.49792293
-0.5176109
0.0011649599
-0.888488
-0.09020895
-0.06349673
-0.56227994
-0.075532064
-0.071989916
-0.21064304
-0.073643304
0.07577554
-0.36469874
-0.44672403
-0.112049155
-0.15858936
0.18169345
0.13198064
-0.19331662
-0.06954592
-0.3031836
0.1553821
-0.30177283
0.119888246
0.036964044
-0.20274796
0.066737525
-0.26525795
0.065750085
-0.12809154
-0.16161332
0.1459321
0.043429125
-0.06605415
0.054580335
0.038562547
0.13145435
-0.9593537
-0.05672081
0.35465676
0.31571817
-0.49611774
0.42288575
-1.5409485
0.09659561
0.23372233
-0.17479457
0.09790628
-0.115484335
-0.52392036
-0.22482072
0.0044168057
-0.19806775
0.18624535
-0.0965333
-0.09205964
0.07105218
0.13353719
-0.19050656
0.04070172
-0.18868849
0.11618575
-0.19986103
0.1532431
0.0071101706
-0.09728975
-0.02041721
-0.649444
0.02046709
-0.16776201
-0.040684972
0.09701102
0.05627619
-0.4469532
0.06703998
0.038038667
-0.0050295517
-0.35486487
-0.37739658
0.10920353
0.060633224
-0.049837343
0.12477407
-0.55524945
0.047176756
0.17697348
0.20687522
0.14392993
-0.4135205
-0.63153565
-0.5156502
0.07902896
-0.005029256
0.13734138
0.008139965
0.0046084607
0.10940238
0.11864991
-0.10723818
0.03550284
0.01330413
0.14461368
-0.08364278
0.11112047
0.05173169
-0.081157446
-0.05704373
-0.24966493
0.013824918
-0.16512418
0.040531155
0.06657646
0.08540608
-0.90791744
0.07043491
-0.021959566
0.051927976
-0.20814118
-0.80460757
0.073966555
-0.15327834
0.09746646
0.022279337
-0.16984124
-0.2846746
0.07137034
0.11208249
0.13229017
-0.35904163
-0.4250327
-0.457037
0.022778308
0.04350255
0.10497939
-0.06797402
0.012371548
-0.0043074596
-0.008133205
0.14500466
0.12620471
0.17522973
-0.22034243
-0.049906634
0.059501108
0.08349857
-0.054843396
-0.3917037
-0.23692419
-0.1993206
-0.10188275
0.08678655
0.12853155
0.05338032
-0.22902292
-0.13498354
-0.1750512
0.18547356
-0.30038187
-1.215787
0.20487115
-0.1492632
0.14337786
0.17049634
0.14592697
-0.3225057
0.06935758
0.069958344
0.116716176
0.10936812
-0.073637635
-0.1074784
-0.13940926
0.026155801
0.07888379
-0.061504927
0.12290211
-0.14082666
-0.64178973
0.19877568
0.21189609
0.18875436
-0.20144568
-0.45007408
0.081788294
0.3220935
-0.18724151
-0.059767295
-0.3445466
-0.4000477
-0.07345659
0.17829934
0.15943384
0.10133742
0.14250806
-0.3436078
0.032294076
0.22880954
-0.3145274
-0.42912647
-0.014737412
0.020328572
-0.028654315
0.111646295
0.21713008
-0.48204646
0.0034440064
-0.3286171
-0.14297226
0.07267546
0.009264307
-0.0942902
0.09456629
-0.19345757
-0.28559384
0.096042745
-0.022149418
0.070258945
0.17996307
-0.32483646
0.20359515
-0.3632533
0.06861787
-0.5565604
0.19246785
0.3046656
-0.077305175
-0.031379316
-0.49311817
-0.31675085
-0.052599374
0.12138143
0.094550066
-0.010811958
-0.041878223
-0.27890593
0.15731436
0.08700479
-0.5527927
-0.39121827
-0.17073838
0.07652382
-0.030448264
0.076545015
0.19141725
0.050527677
-0.019273449
-0.32558876
0.06859838
-0.2814173
0.07183704
-0.07910038
0.07073446
-0.091931224
-0.10160609
0.12077861
-0.08441065
0.0643796
0.21136205
0.008092433
0.17783366
-0.8300349
0.13560323
-0.46663722
0.016398348
0.19446702
-0.01805972
0.0012294045
-0.33212373
-0.3787674
0.0040778904
0.076323256
0.2786522
-0.382162
-0.026559943
0.11504484
0.24928026
-0.0018681899
-0.40919667
-0.4795164
-0.009625835
0.15100896
0.11765795
0.10946721
0.15383242
0.13742515
0.027274864
-0.3658155
0.08234253
-0.24290729
0.008165329
-0.2577988
-0.00601255
-0.20853817
0.06823945
0.06516903
-0.22459275
0.06419497
0.18971866
0.0033100327
0.5123888
-0.8347817
-0.010624161
-0.5957487
-0.022317255
-0.14537087
-0.45995107
0.033378948
-0.15777174
-0.22216497
0.18999505
-0.5798596
0.20333923
-0.7206176
-0.010060054
0.11285375
0.094238825
-0.13326195
-0.10668515
-0.0032961564
0.044211254
-0.09933765
0.0020741944
-0.033685174
-0.030308994
-0.09201017
-0.07257158
-0.6144589
0.2897538
-0.5319138
-0.19330049
-0.36626232
-0.30737334
-0.15474615
0.2999029
-0.15876377
0.009957721
-0.029145323
-0.417018
-0.095491685
1.1007414
-0.72754514
-0.008245045
-0.6060175
-0.4476139
-0.57609177
-0.21348275
-0.31910148
-0.3361454
-0.013001033
0.50993085
-1.0399266
0.029574215
-0.5337318
-0.27015185
0.074682206
0.030433927
-0.81771725
-0.8088458
-0.46323198
-0.13833423
0.34394193
0.10398615
0.108227104
-0.6049128
-0.12926377
-0.4152984
-0.4232961
0.1106415
-0.100253336
0.104154706
0.13006441
-0.3367985
-0.47452796
-0.5618058
0.036858536
-0.85278493
-0.07089232
0.18107899
-0.7915904
0.17431597
0.021051347
-0.010300236
-0.14983031
-0.018702865
0.027527224
-0.041710567
-0.11308119
0.22533827
-0.024733912
-0.30864277
-0.5578454
0.20741393
-0.08411704
0.2312618
0.058579396
-0.18840203
-0.00045351268
-1.1294267
-0.21637343
-0.18816356
0.38551745
0.097779706
0.38458416
-1.4883446
-0.041471615
-0.3658441
-0.08250864
0.11878474
-0.92599744
-0.03316974
-0.03217365
-0.042448334
-0.097452715
0.114282444
0.060786206
-0.17627212
0.04204892
0.111709036
-0.12952323
0.17028329
-0.13076408
0.0895997
-0.110913634
0.08279291
-0.053547934
0.093366034
-0.12101696
-0.32651034
-0.10326736
-0.30032033
-0.04475919
0.14484717
0.008220483
-0.036965936
0.046113595
-0.18326719
0.07239688
-0.1418829
-0.25087163
-0.21144913
0.23923822
-0.10165971
0.28342614
-0.25678465
-0.20034431
-0.41736108
0.10986689
0.11369853
-0.5096286
-0.08828093
-0.35863504
0.05199215
-0.21993908
0.104562625
0.11474978
-0.11564917
0.07853256
-0.02444796
0.0266526
0.17184028
-0.20301546
-0.06851209
-0.15789501
0.027099594
0.17670296
0.12477478
-0.35801288
-0.43146718
-0.29703456
-0.0037900705
0.07949093
0.18780741
0.12606728
-0.41145018
0.0074927723
-0.008130662
0.20810914
0.01614851
-0.086606994
-0.16387995
0.20893687
0.018966643
0.17591652
-0.08599032
-0.24501698
-0.5185758
0.22435844
0.18563071
-0.038487304
-0.118966594
-0.33607852
-0.07296758
-0.14049186
0.16778153
-0.20132434
0.06718569
-0.33377737
-0.33546895
0.04894849
0.15272264
-0.16671124
-0.29913336
-0.43743703
-0.0032157097
0.09758793
0.09699935
-0.2030318
-0.6418468
-0.21052587
0.025342492
0.13144909
0.17432262
-0.018067997
-0.21764389
-0.15510425
-0.06255739
0.22565047
-0.06599472
-0.8062179
-0.11194994
0.08424842
0.04120241
-0.0075179674
-0.054895885
-0.20821324
-0.18554723
-0.02185262
-0.28133008
0.093963385
-0.048062358
-0.22600473
-0.09530054
-0.06436298
0.0718948
-0.085610054
0.048921682
-0.051160596
0.078354366
0.06172456
0.12933554
-0.14336921
-0.047873273
-0.060796015
0.18588373
0.2229966
-0.37301153
-0.0696669
-0.65405494
-0.24621415
-0.016605364
0.011582922
0.11293465
-0.097532146
-0.062083308
-0.23993412
-0.057544164
0.12939936
-0.017784523
-0.16591626
0.05955727
0.11576784
-0.123083174
0.08276956
0.045101207
-0.17523506
0.09952809
-0.80651355
-0.062250342
-0.00056063966
-0.0672485
-0.061796863
0.05536159
-0.097297005
-0.017297175
0.049733505
0.0035389082
0.06856042
0.1494803
-0.5679119
0.0063855927
0.0017226406
-0.13889912
0.05785934
-0.06635305
0.3785032
-0.47703725
-0.113493495
-0.1113712
-0.26728365
0.04908507
-0.06676065
0.18377161
-0.13277557
0.08919518
0.069371335
0.0671156
0.024367541
-0.21870434
0.0014808209
0.038189366
0.080402926
-0.08348911
0.042319704
0.04762515
0.06134823
0.09784218
-0.70526713
0.04812029
-0.47813264
-0.0976321
0.025261976
0.025510324
0.050767027
0.017680343
0.05151028
-0.053160504
0.056379505
0.12735978
-0.032567162
0.06894183
-0.079215005
-0.16245519
0.0038633104
-0.09351201
0.27812052
-0.3405601
-0.0467812
0.10809285
-0.5245793
0.093274355
-0.37376323
0.23588246
-0.5183818
0.1626698
0.22291723
-0.06991017
-0.19244438
-0.703659
0.10861685
0.19745132
0.048309706
0.09543122
-0.045210376
-0.04617259
0.08094375
0.11636313
-0.30899215
0.050843395
-0.31099284
-0.21110108
-0.0403575
-0.041213505
0.01842504
0.10478439
0.00027606176
-0.054860327
0.033566423
0.15957864
-0.011482675
0.25199354
-0.34244108
-0.32184252
0.0076542087
0.055118125
-0.051964384
-0.23758997
-0.1084174
0.23756465
0.023116438
0.26244414
-0.570897
0.16390951
-0.55803484
0.12244885
0.069237225
-0.5902466
-0.5047773
-0.5756747
0.23075251
0.10086164
-0.10892395
0.01271003
-0.03590896
-0.2943512
-0.13432817
-0.056706034
-0.24850564
0.2282761
-0.20910722
-0.4579876
-0.06440576
-0.28634387
0.038713586
0.11520981
-0.28034812
0.024882773
-0.16896738
-0.4193853
0.10624972
0.68084604
-0.8219948
-0.28152356
-0.53476393
-0.07100318
-0.21813418
-0.6100314
-0.34505162
0.048255242
0.0059278538
0.44056147
-0.7504373
0.10137001
-0.5996322
-0.014972488
-0.028004695
-0.59216994
-1.1254181
-0.34706843
0.45869046
-0.38860047
0.23657106
0.062490083
0.1141687
-0.5731999
-0.038581226
-0.91652703
-0.27268094
0.030372271
-0.50524855
0.47003797
0.34334716
-0.54124105
-0.5033902
-0.45829225
-0.125298
-1.1459134
-0.218613
0.05027253
-0.10020493
0.08943326
0.0034878198
-0.10748597
-0.1708187
-0.26003262
-0.2200518
0.044887308
-0.2649985
0.072835326
-0.2930762
0.20631686
-0.03960755
0.015575066
0.010404705
-0.018338626
0.033019256
-0.15431379
-0.22792512
-0.4940364
0.107410334
-0.4038837
0.3273782
-0.08707862
0.28007752
-0.58793557
-0.11829694
-1.2048907
0.08627211
0.13977155
-0.54842705
0.1833017
0.07465358
-0.17067035
-0.02146584
0.105210446
0.09103386
0.008276707
-0.009552811
-0.074476875
0.049224548
0.044608098
-0.094217286
-0.1681424
-0.03629203
-0.172238
-0.023105849
0.055343814
-0.22074439
0.06625943
-0.10008628
0.08434045
-0.21310265
0.07741877
-0.105759434
-0.010245479
-0.0449758
-0.1950294
0.023327978
-0.13728142
0.16777094
-0.20358585
0.19042417
-0.15004112
0.24948893
-0.22190084
-0.28359342
-0.2596737
0.21033944
0.22018215
-0.1690797
0.20787813
-0.06963279
-0.16267584
-0.060759004
0.19780153
-0.093484074
0.16767009
-0.28099978
-0.20328304
0.053421043
0.087036245
-0.019361436
-0.07762432
-0.0067941565
-0.0747306
0.015485975
0.11811774
-0.04613346
-0.05139898
-0.1929898
0.03450758
-0.104849026
0.009535032
-0.02605894
0.02593691
-0.034730684
-0.16736627
0.122599125
-0.042985726
0.17541118
-0.16948709
0.10423847
-0.38352925
0.10431197
-0.08426898
-0.6386872
-0.1338601
0.096465625
0.21602236
0.038731705
0.04957022
-0.30268285
-0.086721644
-0.14262731
0.18950045
-0.077888206
0.16432114
-0.30918986
-0.25681248
0.10259443
0.07503704
0.009795873
0.016456703
0.04786307
-0.28020597
0.10637339
0.039786406
0.08695622
-0.0458803
0.11642692
0.082927644
-0.07512561
-0.019777363
-0.049670897
-0.010028243
-0.17036225
-0.27465308
0.11282003
0.10236968
-0.27495545
-0.1291976
0.042673055
-0.54123795
0.032665655
-0.00069565896
-0.4578977
-0.024669765
0.0026559655
-0.45340788
0.10364494
-0.0688079
-0.2594931
-0.0021367548
-0.1173413
-0.0725939
0.0395384
0.06986548
0.04231375
0.0759852
0.06346678
-0.13053893
0.07703012
0.072059914
0.048479084
-0.25362653
0.13534337
-0.35738778
0.080245785
0.10802805
-0.09361684
0.12658153
0.08038019
0.026517754
-0.010292727
0.125198
-0.111218266
-0.20914677
0.007992952
0.09631523
-0.032809436
0.033733778
0.08731014
-0.5707116
-0.0007860525
0.073047556
-0.49780366
0.01947925
-0.5448075
-0.09300063
-0.058541957
-0.13472456
-0.00695023
0.051423095
-0.03840515
-0.0018530124
-0.0025103802
0.057530094
0.057209995
0.14029977
-0.9273259
-0.16299188
0.09768522
-0.13234365
0.1117085
-0.13658404
0.1418453
-0.0699938
0.010453489
0.15687072
-0.1395037
0.13539985
0.08909858
0.08053197
-0.062129434
0.18862352
-0.06562511
-0.14510982
-0.07917064
-0.12506796
0.24225076
0.2939344
-0.07662329
-0.18162382
-0.097484976
-0.08007681
-0.4357639
0.016137443
-0.651152
0.032611538
-0.22355607
-0.12119839
0.07800115
0.006892902
0.041806206
0.044952232
-0.024514833
0.049412534
0.005267447
0.20386454
-0.55551046
-0.103757255
0.06335358
-0.25879675
0.084340625
-0.19673422
0.13069521
0.000111145935
-0.14890811
0.09144663
0.08430009
0.116883315
-0.10088531
0.10027441
-0.16327702
0.1575833
-0.05534309
-0.17721324
-0.25581345
-0.56415284
0.39681488
0.37253302
-0.18868183
0.026219308
-0.29601067
-0.05797015
-0.43027878
-0.036844123
-0.049017925
0.08414036
-0.28208318
-0.27418143
-0.029145906
0.00017908236
0.05392053
-0.038582154
-0.13469082
0.02346775
0.04648922
0.26548147
-0.47482905
-0.010939029
-0.0367194
-0.37044004
0.18278702
-0.25147292
-0.32467613
-0.03695837
-0.09005015
0.07107265
0.030697376
0.25535777
-0.24222422
0.0024100465
-0.27160272
0.012941166
-0.09928043
-0.24484555
-0.25565434
-0.70409936
0.17028044
0.33973718
-0.4167683
0.07562315
-0.081972405
-0.10751033
-0.56177825
-0.08782458
0.17296128
0.15354487
-0.1991033
-0.26824695
0.023812855
-0.27835763
0.12098762
-0.040718842
-0.67265695
0.112573415
-0.08671057
-0.17451604
0.1054948
0.1907672
-0.45936555
-0.4565056
-0.10691728
-0.2039349
-0.06424195
-0.40939876
0.045460872
-0.025345556
0.12856197
0.5051271
-0.7257411
-0.017345529
-0.3754997
-0.04125763
-0.55640095
-0.3361019
-0.26644227
-0.08844243
-0.16291206
0.08343569
0.19591695
-0.07042508
0.0101133
-0.45790845
0.032706577
-0.5480062
-0.3946292
-0.1055569
-0.3465284
0.4529193
0.22167486
-0.31479397
-0.47420353
-0.31790444
-0.3211772
-0.84894437
-0.65933233
0.06887041
0.17028412
0.12283351
0.07118398
-0.71482825
-0.1772083
-1.3119199
0.4325171
0.036667846
-0.028275317
-0.049016584
0.21118163
0.080973275
0.06977831
-0.31562495
0.020982008
-0.35809526
-0.47828218
0.0215152
-0.23001193
-0.4089757
-0.326769
-0.16545591
0.25003713
-0.2290477
0.18551092
-0.2748068
-0.5970859
-0.49779996
-0.15261091
0.17421071
0.09926207
0.15570772
-0.060250126
-0.2938594
-0.13356403
-0.8718713
0.06871202
0.17002842
-0.3122503
-0.18192574
0.13032226
-0.011814511
0.09341286
-0.10681114
-0.01852944
-0.6156662
0.16674265
-0.003235168
0.09570404
0.011025084
0.112669244
0.07200454
0.06136663
-0.27071822
0.0781076
-0.105160594
-0.30734462
0.03325365
-0.16579667
-0.039572578
-0.6576444
-0.20722952
0.23435667
-0.79560554
0.14973754
0.3223553
-0.6112665
-0.1073046
0.014551932
0.16546012
0.118224226
0.16181645
-0.09148461
-0.15228169
-0.14054465
-0.1334642
-0.05001578
0.272113
-0.1977281
-0.28643808
-0.0064041656
-0.079297
0.12757123
0.01801346
0.14627497
-0.36988524
0.10815046
-0.04803316
0.08193683
0.03784618
-0.058158945
0.05504956
0.07873396
-0.17929119
0.099244826
0.070325494
-0.18384793
0.043560456
-0.094118655
0.10479958
-0.77463245
-0.08099132
0.14083204
-1.1003166
0.1880306
-0.050981846
-1.1266617
0.11445297
-0.0056020278
0.12456982
0.13996556
-0.023086725
-0.35249993
0.09225342
-0.17925379
-0.02624526
0.102101274
0.13747291
0.030537417
-0.59097415
0.09071357
-0.20400113
0.13565157
0.02705951
0.023370495
-0.76929504
0.07728916
-0.14758742
0.0839443
0.08644538
-0.036427137
0.041750383
0.033713806
-0.23329793
0.0049839164
0.045071278
-0.21992129
0.026215471
-0.15971972
0.26372004
-0.6363996
-0.040611498
0.14409447
-0.9206282
0.22541007
0.034101535
-0.5664667
0.21974596
0.01712508
-0.35294023
0.16441707
-0.24255426
-0.180414
0.12046953
-0.10195843
-0.3186109
0.097305104
0.108129986
0.09492299
-0.3912071
0.13987258
-0.4282473
0.12603801
0.09387092
0.10996279
-1.0116662
0.11546033
-0.372666
0.11202325
0.11822693
-0.03742763
0.013586919
0.11236586
-0.15576114
0.058657408
0.14905873
-0.31292656
0.110107124
-0.16160491
0.20572513
-0.20132604
0.047443584
0.0056701736
-0.5929618
0.07784113
0.06254497
-0.29369444
0.13243504
-0.08306538
-0.13347828
-0.027092833
-0.22397837
-0.04431909
0.08391985
-0.03522976
-0.18119526
0.025868373
0.090357
0.0528525
-0.12054377
-0.47599292
-0.5174107
0.14090392
0.08274804
0.13983013
-0.3558685
0.13444765
-0.104103535
0.08204885
0.007769893
0.05656577
0.052923463
0.02915004
-0.21945353
0.025169685
0.066876546
-0.41594455
0.05725651
-0.16669741
0.051621977
0.20215856
0.3307648
-0.27234218
0.0040447423
-0.107560456
-0.06955724
-0.11193346
-0.1258558
0.10937654
-0.13125096
0.21561663
-0.13867702
0.063396536
0.09768772
0.04555713
-0.06521724
-0.006627432
0.0996174
0.079537995
0.003611653
-0.2502273
-0.34362286
0.12717363
0.1104268
0.26831308
-0.084523626
-0.14049038
-0.08255914
-0.12842122
0.03567837
0.080223046
0.12787926
-0.0018217639
-0.13795649
-0.014920066
0.1016922
-0.49395177
4.0163373e-05
-0.16208066
-0.687258
0.3264231
0.4935221
-0.73230255
0.24708088
-0.7644307
-0.41460976
-0.35101762
-0.15451007
0.24140564
-0.058121968
0.020466888
-0.35334855
0.014284695
-0.023205409
0.018074423
-0.012752352
-0.26414284
0.06481402
0.07351224
-0.018900782
-0.047046904
-0.09122189
-0.1427494
0.14527872
0.3476676
-0.1578266
-0.18410403
0.024347302
-0.14522554
0.06745677
-0.01705977
0.09748268
-0.17339265
-0.11786215
0.009116973
0.044708584
-0.6055904
-0.061720483
-0.08434861
-0.4775308
0.13912514
0.4307422
-1.0247728
0.19854365
-0.7922177
-0.68233746
-0.64790213
-0.20877662
0.5169423
-0.036485303
0.0092216935
-0.2777398
-0.1543147
0.14716627
0.26280585
-0.45029625
-0.5497027
-0.015786482
-0.0021171232
-0.08145223
-0.14835595
-0.0532277
-0.107722506
-0.22376008
-0.2567301
-0.2295194
0.06906113
-0.22316074
0.120163925
0.07497438
0.05290713
0.3860974
-0.67492545
-0.06668025
0.017811902
-0.28385392
-0.3592512
-0.3400352
0.14222963
-0.030011842
0.44247806
0.22089161
0.029535098
-0.64676803
-0.41160917
-1.1875876
0.05223643
-0.17988276
-0.17290445
-0.31900463
-0.1878816
0.12850632
-0.07826577
-0.3268565
0.07383295
-0.38446897
0.077540144
-0.31992003
-0.06304147
-0.49359286
-0.095276855
-0.7844953
0.3430928
-0.18839775
-0.55188185
-0.57228005
0.3267044
-0.6287815
0.42496842
-0.01905135
0.14563209
0.009352559
0.16835901
-0.50053763
-0.223477
-1.587678
0.29361135
-0.10259041
-0.01696152
0.010424608
0.12005177
0.10971421
0.19031684
-0.55054545
0.127918
-0.34411708
-0.554446
0.12245056
-0.41557494
-0.36975223
0.31306127
-0.28027424
-0.03154471
-0.5033003
-0.53660804
-0.7792331
0.31997254
-0.12549135
0.03888167
-0.5999488
-0.08815459
-0.6124083
0.33565864
0.015600756
-0.2073436
-1.2010931
0.33425114
-0.38170728
0.4281705
0.0018405227
0.02021833
-0.0416597
0.10272761
-0.106643386
0.0031653743
-0.58873576
0.11860237
-0.046319872
0.123296045
0.24118675
-0.025665347
0.12661648
0.24189131
-0.53603715
0.17890875
0.019440467
-0.81122184
0.044095557
-0.47791907
-0.31045595
0.36669868
-0.48233908
-0.38705942
0.15956362
-0.6853865
-0.7510738
0.2731867
-0.2452565
0.3404341
-0.88958627
-0.21360709
-0.95027626
0.41189808
0.058163546
0.03027072
-1.4387953
0.26485774
-0.3971177
0.21318683
-0.001074396
-0.04038608
-0.027302386
0.08433322
-0.13394006
0.06741322
-0.3494371
-0.04338596
-0.0040146904
0.003237262
0.48259276
0.15055643
-0.27229923
0.08228268
-0.13626207
0.054466724
0.53907
-0.46285504
0.25561178
-0.7326989
-0.7945447
0.18121256
-0.7739011
-0.55077785
0.23896225
-0.45696774
-0.69390863
0.24331787
-0.19217534
0.23552018
-1.3664306
-0.2067559
-0.8959668
0.27873653
-0.07267539
-0.03903585
-1.5068831
0.113018624
-0.4622018
0.14643897
0.05483126
-0.034663573
-0.074919805
0.10482646
-0.119033456
0.08099839
-0.18467678
-0.120502576
0.08474759
-0.047853455
-0.5724015
0.68426627
0.04101108
-0.18038532
0.3366743
-0.2614808
0.046172865
-0.1552523
0.061608803
-0.5697896
-0.80615205
0.1755862
-0.92355263
-0.25425255
0.14416003
-0.16945517
-1.0297558
0.19742146
-0.13886091
0.18958037
-1.3934335
-0.30308008
-1.1262567
0.26016733
0.048399217
0.1039596
-1.4496573
0.2657381
-0.6687196
0.2265076
0.0657726
0.053026702
-0.020505456
0.09528093
-0.03183755
0.10527638
-0.13163489
-0.06644591
0.11248097
-0.07370285
-1.0017507
0.170381
0.58399016
-0.41329113
0.6544297
-0.2990112
-0.91075385
-0.21149898
-0.103238754
-0.13779806
-0.78127253
0.20777693
-0.5709343
-0.066496074
0.14810732
-0.033618476
-0.8328731
0.20046939
0.039000276
0.20093113
-0.77508694
-0.13155764
-0.7976405
0.30358166
-0.17281035
0.06844193
-1.0345619
0.18142956
-0.6571996
0.26478022
0.02809875
0.12898543
0.0023381123
0.03567316
0.025584452
0.0560053
-0.12121293
-0.16645807
0.10761284
-0.0050347378
-1.0155289
-0.22486822
0.6243961
-1.4569004
0.2565575
-0.45714614
-1.0376235
0.16774856
-0.39932933
0.18808374
-0.68919814
0.27054578
-0.34518397
0.022983886
0.072703704
-0.13259085
-0.69440156
0.05617193
0.14259544
0.2073859
-0.7251
-0.24296218
-0.59389627
0.2980749
-0.12899113
0.18068998
-0.7250655
-0.0481027
-0.5973396
0.2774239
-0.08705134
-0.0027372038
-0.047941357
-0.049014635
0.1002173
0.057958495
-0.15571673
-0.3809119
0.060848102
0.108324476
-0.7953231
-0.06816464
0.2745052
-1.2070143
-0.25794908
-0.49796242
-0.91838247
0.22716203
-1.1697894
0.34864005
-0.79092133
0.18349725
-0.3334003
-0.034703225
0.043157857
0.038744155
-0.25239336
-0.02211901
0.01567544
0.28100652
-0.2379652
0.08288499
-0.4023064
-0.04194652
0.07872824
0.2662106
-0.26032734
-0.13482559
-0.3963985
-0.114524074
-0.4687019
-0.04934773
-0.116156764
-0.11735715
0.15866028
0.0031062844
-0.66032106
-0.34027115
0.12136637
0.18516195
-0.721424
0.29173455
0.0064091273
-0.6265066
-0.0133225685
-0.46308672
-0.2860129
-0.103199124
-0.74331725
0.37015393
-0.45418936
-0.43032372
-0.305471
-0.039504737
0.08307645
0.21657579
-0.38140306
-0.4983066
-0.08530744
0.17643589
0.041311577
-0.10688272
0.01586863
-0.105108984
0.01793911
-0.051770587
-0.0039998763
-0.23438247
-0.14318076
0.06772333
-0.34771872
0.14359416
0.13117276
-0.174972
0.08261576
0.029761652
-0.43635866
-0.461411
-0.28994074
0.10576542
-0.05362413
1.7297343
-0.19183989
-0.3054997
-0.29836464
-0.17520995
0.25834072
0.12802833
-0.83778226
0.22516158
