#include <stdio.h>
#include <time.h>
#include <stdlib.h>
#include <math.h>
#include <stdint.h>

// #include "image.h"
#include "image_FP.h"

#ifndef FUNCTIONS_H
#define FUNCTIONS_H

//  typedef signed char       int8_t;
//  typedef signed short      int16_t;
//  typedef signed long       int32_t;



float weights_bias_FP_rearrange [] = {0.00131624,-0.15217985,0.55920840,0.48391008,-0.23869239,0.17861886,0.03359298,0.04470484,-0.42511810,0.38269693,-0.36488152,0.31417260,0.12105425,0.01162022,0.08700268,-0.08113382,0.20546667,-0.28628305,0.06754516,-0.01555696,-0.11243528,0.26976496,-0.10768432,-0.19350370,0.34866875,-0.56346700,0.14921689,-0.45813864,0.12396682,0.11536880,-0.07220008,-0.06991129,-0.25063360,-0.05065504,-0.47461265,-0.14739776,-0.10559250,0.09609525,-0.01152113,0.07566612,-0.22256373,0.23975280,-0.29898542,0.36149650,0.35899800,-0.20513396,-0.20754635,0.48045155,0.07354507,-0.15603390,0.31167644,-0.08392807,-0.08333917,0.29770654,0.24225032,-0.07019879,-0.30338115,0.17157371,-0.64436674,0.01373108,0.24551973,-0.15708850,-0.21748821,0.24392454,0.14201961,-0.07967538,0.03021233,-0.06673632,-0.47951490,0.18362662,-0.13435444,-0.29798585,-0.34146157,0.15249390,-1.00460360,0.27000847,0.09658417,-0.21120909,-0.33714120,0.19200180,0.12472349,-0.16005789,-0.31670788,0.26608100,-0.51355810,0.24828927,-0.67685420,-0.48617380,-0.51546496,0.22398071,-0.57296765,0.17989048,0.23188760,-0.00094025,-0.23996715,0.32638380,0.43098637,-0.29936576,0.12736027,-0.11026835,-0.18519334,0.20739119,-0.21516650,0.04159298,-0.05908244,0.15485185,-0.50449914,0.04799265,-0.28543356,-0.00356207,0.14242804,0.17971736,0.00463322,-0.10697769,0.58876210,-0.08544282,-0.51682830,0.04186447,-0.51094216,-0.09951332,-0.17585489,-0.14319122,-0.22318965,-0.03087636,0.14534263,0.13633221,0.13424431,0.08293810,0.48543692,-0.15788569,0.14622821,-0.38928065,-0.27836180,0.31119690,-0.07547490,-0.34792462,-0.45392597,0.16237743,-0.33657518,0.06663904,-0.36369360,0.12646036,0.68917880,-0.01581110,0.42134783,-0.11525056,0.00038845,0.09457015,-0.07959880,0.21987142,-0.48826140,-0.24896222,-0.05619335,-0.00287371,-0.46940497,0.15314020,0.11168650,-0.04145822,0.23375599,-0.06093033,0.21393739,-0.20374031,-0.64976930,0.11517324,-0.24943809,0.15433540,-0.11853863,-0.08601617,-0.17882977,0.20375000,0.10557236,0.06456840,0.04148927,-0.07576790,0.43075323,0.12829755,0.15172604,-0.18391311,-0.18144251,-0.27273744,-0.25201815,0.28957720,-0.13247037,-0.20131467,0.12367401,-0.11383209,0.08694309,-0.66411800,-0.42765197,0.08138641,0.01048726,-0.12424815,-0.10961990,-0.12551358,0.26850120,-0.10811097,-0.19040775,-0.02730578,-0.38576418,-0.05609050,0.56153380,-0.01872974,-0.45640886,-0.41217342,0.41345495,-0.20492661,-0.09835148,-0.71685820,-0.54372203,0.19126567,0.22548047,0.18308993,-0.45428932,-0.18186179,0.48583663,-0.27660134,-0.59929170,-0.13164674,-0.46060976,0.30456164,-0.09364849,-0.16255203,-0.17573956,-0.16815096,0.56820970,-0.59533150,-0.20591342,-0.94365424,-0.32888190,0.17739286,-0.24659674,-0.47409230,-0.23193495,0.09863744,0.58127004,-0.86529100,-0.42634466,-0.96256610,-0.36874697,0.20965628,-0.20008895,-0.60917896,-0.11496054,0.02374163,0.27177307,-0.88344340,-0.11118791,-1.45892580,-0.71210194,0.09946445,-0.26176354,-0.76775557,-0.30373165,0.12020275,0.39986295,-0.14549486,-0.10127869,-0.43495170,-0.44590005,-0.02530223,-0.33459696,-0.58696390,-0.14426787,0.08249707,0.50819296,-0.99963504,0.09710391,-0.47434380,-0.56104887,-0.13369850,-0.12181442,-0.69580877,-0.10087632,0.14802290,0.49960947,-0.80678320,-0.09637631,-0.72271395,-0.19780980,-0.02993184,0.04033571,-0.08753273,0.17956522,0.06928839,0.11053968,-0.35728553,-0.16632915,-0.21437117,-0.36055565,-0.34137330,0.14293957,0.02098659,0.06091463,0.06655231,0.28864104,0.14748563,-0.08882888,-0.45218736,-0.15381375,0.05467228,-0.01139657,-0.06546392,0.04712157,-0.06566251,0.19922283,0.06128344,-0.09538220,-0.63030267,0.00352872,0.11305633,-0.00377769,-0.49184996,0.22781576,0.01127294,0.20948508,-0.55456770,0.03277014,-0.26244342,-0.02175733,0.26030730,-0.02287711,-0.32428882,0.20154023,0.02587845,0.24217103,-0.59894866,0.14265122,-0.64242540,-0.10767996,0.13673230,-0.02225895,0.01493543,0.11579900,-0.09028909,0.14668602,-0.19938709,-0.02926761,-0.56592494,-0.14250042,0.14843465,-0.04429748,0.06914336,0.07646433,-0.05622715,0.11303784,-0.08564988,-0.00800346,-0.48514283,-0.06510066,0.09855329,0.04709814,0.01075982,0.17648555,0.03496426,0.04109702,-0.19714898,-0.04922448,-0.39040120,-0.19043612,0.15279076,-0.00253160,-0.20706202,0.24018548,0.02559461,0.00142724,-0.43929353,-0.00943098,-0.57701784,-0.05681196,-0.03830437,0.01436575,0.04119648,-0.07586583,-0.04888546,0.08611908,0.01381225,-0.00199697,0.02091833,-0.10234746,-0.36108834,-0.03835058,-0.21992701,0.07063290,0.02900718,0.11921310,-0.07756970,0.00543134,-0.03461120,0.10619009,-0.32423055,0.00228592,-0.21090318,0.24464801,0.16210783,0.24842805,-0.04010422,0.07463507,0.11412633,0.03596937,-0.09428164,-0.08614951,-0.37429476,0.17273821,0.05682468,0.10473250,-0.16039759,0.03974693,0.09174891,0.01595520,0.03353167,-0.08846483,-0.00836854,0.15098275,-0.05397130,0.09323757,-0.32777718,-0.04913267,0.00308019,-0.12776804,0.05237956,0.03857697,0.15246013,0.11021460,-0.31107116,0.02112075,-0.00645890,-0.02126278,-0.01932927,-0.11885390,0.06865151,0.06291264,0.10338748,0.11988605,-0.64832450,-0.22866973,0.03464946,0.05575525,0.01796564,-0.02120660,0.00986215,0.12055951,0.09905992,0.08736423,-0.38656667,-0.41474414,0.08435997,0.11941871,-0.01671385,-0.00628543,0.05260966,0.06136939,-0.04417215,0.04379858,-0.34974605,-0.27200810,-0.06491134,0.02186971,-0.13192342,0.16081281,0.07472222,-0.22271617,-0.15637910,-0.12007146,-0.08820933,0.07922884,0.00151503,-0.06901885,0.10740709,0.10612474,-0.41697930,-0.22392425,-0.20589618,0.03976104,0.04845166,0.28240094,0.04963298,0.04946937,0.14685148,0.05270022,-0.52856270,-0.33079410,-0.29223195,0.10347336,0.04782196,0.07563400,0.02735382,0.01514065,0.08145397,0.07385053,-0.09931989,-0.23453447,-0.29660165,0.08833768,0.00630121,0.05585454,0.00252507,-0.06714326,-0.01582828,0.04480102,0.02591659,-0.06091232,-0.03181850,0.05356689,-0.04436114,0.05602904,-0.11906504,-0.05644879,-0.05949574,-0.05162257,0.10374392,0.08885912,0.10618892,0.09899471,-0.34077814,-0.08622558,0.13365898,0.09442720,0.11053029,0.08873146,0.05943165,0.14319760,0.05475209,0.13229579,-0.96148884,-0.50518040,0.11976863,0.09492922,0.05409655,0.14027889,-0.02597217,0.14160867,0.02916992,0.10229883,-1.16720150,-0.32897090,0.10029743,0.07697669,0.04636247,0.15469068,-0.03025894,0.10088090,-0.06960653,0.08665330,-0.99016744,-0.06270531,0.08067924,0.19035512,0.06782183,0.22401610,-0.00840790,-0.20315762,-0.34646720,0.03888203,-0.21437141,0.25181884,0.08397165,-0.14939134,0.10133991,0.11770932,-0.17980458,-0.53092230,-0.32472366,0.10801548,-0.14227724,0.16102639,0.06468999,-0.14937767,0.12616790,0.11128607,-0.25337570,-0.42889880,-0.12906690,0.12653126,-0.01440489,0.13041678,0.16913064,-0.03961881,0.16896245,0.13410172,-0.06616037,-0.14970607,-0.35207300,0.08734696,0.02493847,0.12001768,0.03474955,0.00441836,-0.01496304,-0.04585006,0.03596203,0.02480776,-0.16744854,-0.15576390,-0.15413300,-0.00185943,0.02200233,0.01338324,-0.17304425,-0.05024373,0.04518292,0.07291365,-0.10715365,0.05806509,-0.21773437,-0.16858597,0.05138116,-0.00708824,0.01840604,0.07253496,-0.01424201,0.05419087,-0.11934681,0.03637128,-0.19070719,-0.16615407,0.07092332,-0.08713145,-0.00183130,0.11954062,-0.19280009,0.06072811,-0.17396255,0.04988950,-0.24728364,-0.00992701,0.08697736,-0.13212183,0.00382546,0.17961164,-0.14740145,0.04859665,-0.24298698,0.03662844,-0.35497814,0.08981594,0.15520951,-0.07817782,0.06900044,0.19523880,-0.95335275,0.18231723,-0.35204607,0.11492702,-0.22762000,0.10016884,0.06123439,-0.24286631,-0.06915443,0.20509109,-0.51758750,0.07581349,-0.37709865,0.09739119,-0.32983970,0.09466505,0.07635484,-0.04632892,0.15032534,0.19473943,-0.06360204,-0.02033262,-0.58131710,0.13602409,-0.27238044,0.12601708,0.13001078,0.04746041,0.02413749,0.26863468,0.10287640,0.11104323,-0.51020560,-0.00353548,-0.14513351,0.19756673,0.03603174,0.23156351,-0.44232630,-0.07003915,0.05550939,0.00655169,-0.34439316,-0.10274708,-0.06173855,0.06742527,0.00824142,0.03856696,-0.03469622,-0.00999249,0.02935550,-0.00823334,-0.07816783,-0.01541527,-0.02824786,0.03267656,0.00920964,-0.12614027,0.02523948,0.04783041,0.00379601,-0.02014415,0.05785305,0.00263130,-0.00150010,0.02815870,0.05762859,-0.13653299,0.06851876,0.07520274,-0.66922370,-0.07865547,-0.00101300,-0.01686299,-0.03709225,0.02250350,0.10650263,-0.14012440,0.06990429,0.12952617,-0.33402774,-0.14389887,-0.08888651,-0.04338102,-0.07087911,0.05155972,0.20301035,-0.15690988,-0.06374276,0.14125344,-0.18904282,0.20397216,-0.13278161,-0.11457692,0.00047483,-0.01684284,-0.27089047,-0.04232777,-0.18444720,0.15272573,-0.08735901,0.14833304,-0.28791115,-0.24250278,-0.23311244,0.12120488,-0.06479161,0.15763062,-0.17617404,0.27278050,0.02255975,0.20110363,-0.40176928,-0.11258850,-0.24476346,0.21259551,-0.07543942,0.21552098,-0.43441367,0.09394111,0.07634789,0.06577975,-0.68449930,0.00323381,-0.20552693,0.09964345,0.04682403,0.11427882,-0.05499176,-0.12308583,-0.00397077,-0.05520388,-0.14225014,-0.00149006,-0.01707971,-0.06958470,0.02607443,-0.01017680,0.04210583,-0.00612730,-0.04737271,-0.10751292,0.06736220,0.04606007,0.04391666,0.02209836,0.04048280,0.03214747,0.06926613,0.04022945,-0.31437746,-0.09604082,0.08567139,0.03716477,0.08830545,0.02676940,0.05749948,0.03100548,0.06856740,0.02077412,-0.38776287,-0.14258711,0.05430888,-0.04227592,0.01057895,0.02594883,0.01826560,-0.02777948,0.03830448,0.12093519,-0.23720057,-0.14742920,-0.01496432,-0.06165942,0.06580026,-0.04132023,0.06322572,0.05269435,-0.03069748,0.09553666,0.18219809,0.07284757,0.05568660,-0.49406356,-0.06146473,-0.35825240,-0.18299179,0.10291668,-0.44252774,0.11090703,0.16059190,0.12884495,0.00289201,-0.27792755,0.00712605,-0.27644372,-0.11303847,0.14039590,-0.15487266,0.10701840,0.16613044,-0.02285497,-0.36857860,0.01760353,-0.24969316,-0.07068457,0.10178185,0.16206962,0.09671681,-0.11795554,0.15047212,-0.24189883,-0.45566600,0.05416813,-0.19250667,-0.31373778,0.10126052,0.01758108,0.08545200,-0.12006349,-0.00981711,-0.23083170,-0.06512410,0.03146851,0.00392825,-0.36860394,0.02454130,0.00835576,0.04210635,0.02325193,-0.08636893,-0.19896734,0.06012450,0.02615859,0.05790143,-0.09894114,0.02221395,0.07103330,0.05132164,0.09702157,-0.13894618,-0.16737302,0.09050205,0.00681750,0.08158237,-0.00821453,0.02087115,0.04504582,0.01710508,-0.01434485,-0.01900889,-0.15156956,0.08654749,-0.14851747,0.07381722,-0.04694847,-0.04153617,0.05341776,-0.02462200,0.10466677,0.09868575,-0.06840579,0.07301454,-0.02756693,0.16973288,-0.23520394,-0.05135377,0.05622729,0.04073105,-0.07051206,0.18969692,-0.23017210,0.22491491,0.03456886,0.02748690,-1.05776070,0.28216377,-0.15513663,0.06333230,-0.32598257,0.19868520,-0.43827018,0.25399706,0.03892683,0.09736609,-0.57326216,0.32858470,-0.09429433,0.12958243,-0.43842750,0.12739669,-0.72514033,-0.17000441,0.15853442,-0.17146050,-0.73043830,0.30173650,-0.26583300,0.27341804,-1.14776620,0.14398624,-1.23307160,-0.36633100,0.28630910,-0.24850565,-0.37191328,0.36315870,-0.22135574,0.38959217,-1.11673780,0.11069468,-1.04030860,0.10513575,0.22806546,0.00837004,-0.61930573,0.26300080,-0.26137966,0.28515910,-0.70325320,0.08997543,-0.78185960,0.11011015,0.13019776,0.10942668,-0.64418290,0.19702375,0.03459917,0.16063051,-0.31354082,0.13708697,-0.34710320,0.15424208,0.04485670,0.11005277,-0.17101698,0.15048584,0.08404284,0.08556207,-0.30917555,0.09870827,-0.07982238,0.08985451,0.04036839,0.01137696,-0.30596843,0.06136291,-0.02030710,0.04129652,-0.42742643,0.12830628,-0.22653227,-0.27669600,0.00918540,0.09420098,-0.38816650,-0.24353900,-0.07434578,0.25030825,-0.15525761,0.11013281,-0.40377858,0.33605132,0.21380462,-0.37560037,0.16060650,-0.03740116,-0.49072522,-0.44855288,-0.19757160,0.26561680,0.04633448,-0.04880677,0.19442314,-0.42618048,-0.02005195,-0.11304385,-0.24387057,-0.79473270,-0.00104060,0.02510660,0.28214365,0.17497835,0.11076166,-0.21486217,-0.16006248,-0.08235415,-0.32750112,-0.66405650,-0.08710127,-0.12742366,0.19546226,0.10801718,-0.20164129,-0.23439527,-0.38471892,-0.10123166,-0.14784247,-0.12811634,-0.17284118,-0.16396440,0.14818930,0.12644829,-0.57941866,-0.16446017,-0.29100380,-0.28250837,-0.04971324,-0.01644387,-0.01874204,-0.27149886,0.18266182,0.09876411,-0.54502030,0.01325271,-0.06335211,-0.27833140,0.07240643,0.02803952,-0.09238503,-0.01894229,0.08551982,0.02849116,-0.35559880,0.02018031,0.01257568,-0.48879445,0.07902010,0.00142531,0.00482698,0.09861849,0.12445493,-0.05274464,0.00589483,0.06595093,0.27274877,-0.76917416,0.11525888,-0.07708397,-0.11443584,0.19208436,-0.22858573,-0.41226670,0.58540344,0.21329021,0.35738790,-0.83035004,0.09098814,-1.02872250,-0.05101240,0.08902317,0.03606651,0.21166942,-0.12788603,-0.67862200,0.15875891,0.21519259,-0.55505090,-0.99776447,-0.26749685,-0.07683125,0.04027605,0.14341049,0.07587042,-0.22008497,-0.14310901,0.24705306,-0.24913010,-0.97426180,-0.19697824,-0.11974232,0.15322213,0.14691754,-0.11894639,-0.04861209,-0.34963640,0.25758630,-0.03796049,-0.29594150,-0.11549356,-0.08835432,0.09505004,0.13769943,-0.27056920,-0.01736247,-0.41593817,0.17124462,0.01436644,-0.02711031,-0.04377987,-0.19116314,0.09333108,0.08137702,-0.62549835,0.05996463,-0.24445473,0.02910941,0.05802303,0.04925596,-0.00890071,-0.49188554,0.05798688,0.09028523,-0.53440610,0.07113824,-0.04964386,-0.04665849,0.09568717,0.05976379,0.01437748,-0.58105730,0.04864971,-0.02090417,-0.49683344,0.08644554,0.03973351,-0.11167192,0.05707274,0.06200220,0.01350090,-0.49618010,-0.04551150,-0.10002641,-0.16481261,0.11598127,0.05387404,-0.21324077,0.03750895,-0.01101589,0.02575848,-0.34007198,-0.73187790,-0.39249070,0.37675540,0.35310090,0.11398141,-0.14190839,0.17970206,-0.47289360,0.01826700,-0.00740962,0.12751324,0.18701012,-0.14811133,-0.44421384,-0.14217927,0.37067375,-0.11590225,-0.65407085,-0.12929001,0.06252070,0.08493249,0.23960656,-0.19185807,-0.20432526,-0.39262187,0.26127180,-0.07096140,-0.62507993,-0.15823418,0.00084627,0.11263483,0.15642025,-0.35449886,-0.05437492,-0.58768390,0.19150859,-0.08096170,-0.17109789,-0.06644525,0.00182334,0.11503920,0.13164377,-0.56974160,-0.00524142,-0.57018440,0.11828457,0.02485560,0.02342150,-0.02145401,-0.23016492,0.06547634,0.09661286,-0.49391404,0.05714675,-0.46416530,0.07381047,0.02722598,0.06618001,0.01886222,-0.68181896,-0.00453012,-0.00730116,-0.61171640,0.09066290,-0.14934976,0.02047782,0.01413423,0.01510092,0.06736233,-0.57351300,-0.02539827,-0.04336140,-0.55693080,0.14251243,0.01717292,0.02672930,0.05505303,0.04002002,0.09612814,-0.34565110,-0.08703640,-0.28546137,-0.32928094,0.22294231,0.09206048,-0.13203481,0.10870419,0.01348613,0.06631624,-0.29925945,-0.38492545,-0.81046070,0.19490694,0.34614778,0.10542321,-0.39817680,0.13415399,-0.23340502,-0.16415574,-0.27861896,0.18851279,0.21460977,-0.09066901,-0.36880884,-0.55139080,0.45790260,-0.02208457,-0.46196610,-0.41085090,0.03287520,0.10515342,0.13857849,-0.09483693,-0.03159453,-0.76477486,0.23291852,0.07803572,-0.31619370,-0.17076005,0.07837240,0.09022888,0.05293775,-0.11386138,-0.01101479,-0.84060430,0.14606278,0.09564187,-0.04460237,-0.13786948,-0.00160015,0.02440160,0.03595229,-0.24983911,0.00099313,-0.67448640,0.11385106,0.02034481,0.05818875,-0.06393528,-0.27241895,-0.04547648,0.02041212,-0.25024325,0.03952321,-0.25248477,0.07474135,-0.01816649,0.02586251,0.15234782,-0.53022677,-0.01294167,0.10166578,-0.36770958,0.13925968,-0.01583588,0.10916492,0.03830294,0.00209719,0.09174997,-0.58300310,-0.17534790,-0.00893480,-0.64300390,0.17942487,0.05686524,0.06085650,-0.02435573,-0.11180404,0.05260393,-0.14358610,-0.24057534,-0.16020630,-0.26265445,0.15617293,0.03458599,-0.15551093,0.11142449,-0.15645812,-0.04002619,-0.00255020,-0.21872221,-0.33765304,0.13930530,0.25151834,-0.06303308,-0.24904233,0.29693000,-0.50518860,-0.17002769,-0.08064555,-0.20451885,-0.04228478,0.20279549,-0.15944237,-0.32586655,0.28146654,-0.13732159,-0.11188501,-0.40391338,-0.06407696,-0.10821428,-0.01947803,0.17553999,0.09399746,-0.53982323,0.02372889,0.07992015,-0.02685183,-0.63470630,-0.06831304,-0.04197862,0.01306325,0.09696896,0.04303513,-0.61151260,-0.01600863,0.03745711,0.11984545,-0.34453170,-0.13722563,-0.00320245,0.08326863,0.10027894,0.07618923,-0.40242514,-0.04508074,0.05468759,0.15398991,-0.22679932,-0.22833498,-0.06153505,0.09169989,0.15392075,0.08130111,0.03887274,-0.13880333,-0.02785941,0.12884867,-0.12229195,-0.69267880,-0.08929036,0.11648674,0.00365891,0.12256295,0.12904933,-0.02636516,0.01455142,0.02389851,-0.11446033,-0.68834716,-0.17123160,0.13110527,-0.00414442,0.13031850,0.18052000,0.04793497,0.09691548,-0.20985128,-0.04253407,-0.24255179,-0.05429155,0.06124781,-0.00435935,0.05737025,0.06764066,-0.04927724,0.10743251,-0.49866173,-0.39496988,-0.08623200,0.27641135,-0.20824172,0.20286737,0.05111234,0.04366802,-0.01608103,0.20282413,-0.54797465,-0.05679457,-0.09273537,-0.14915262,-0.03508726,0.42373910,0.06060356,-0.21677445,0.16043323,-0.42578712,-0.03095741,-0.15413898,-0.05874960,-0.10768877,-0.00420750,0.16938730,0.11999375,-0.24016233,-0.03522851,-0.04867989,0.07186171,-0.19912738,-0.18141359,-0.07188600,-0.02678373,0.09708656,0.04343674,-0.15717134,-0.07528075,-0.06731551,0.08653630,-0.23661144,-0.29080033,0.03079215,0.03289078,0.10365320,0.04553660,-0.15146235,-0.08983357,-0.01948993,0.11576884,-0.32929397,-0.53753567,-0.00878475,0.00230741,0.03933321,-0.00232760,-0.06387456,-0.20975587,-0.06711267,0.06603246,-0.33392450,-0.42898010,0.00974602,0.10587617,0.01945857,0.07001072,0.05970916,-0.09242389,0.05933343,-0.00976573,-0.36153305,-0.44468730,0.03866372,0.09640554,0.09122206,0.08696657,0.10369141,0.13601622,0.12035435,-0.25267090,-0.25667712,-0.14826860,0.15355168,-0.04113401,0.16902997,-0.03399821,0.04784340,0.16501716,0.05864723,-0.43717155,-0.41250405,0.13721925,0.48783788,-0.45145285,0.25690266,-0.45304760,-0.16381726,0.04520164,-0.10199223,-0.32464156,-0.01450837,-0.02313977,0.08593100,0.14231905,0.09669732,0.09610049,-0.34006873,-0.09234831,-0.40912604,-0.27372754,0.01802421,0.14946456,-0.03509026,0.03578188,0.02085309,0.03481702,-0.02195202,-0.10237841,-0.22654600,-0.01907084,-0.01603180,-0.00069110,-0.03435639,-0.02710459,-0.00271393,0.04934284,-0.04807404,-0.09235465,-0.20969933,0.08697600,-0.00116239,-0.17344023,-0.03716772,0.00101132,0.05341516,0.01934084,0.00133175,-0.03287012,-0.15079038,0.09403153,0.06165290,-0.16515075,0.11925405,0.13468730,0.13158450,0.00209291,0.07914776,-0.05596897,-0.02189354,0.09953620,0.01279103,-0.03810924,0.14023009,0.05186618,-0.00733026,-0.09471686,0.05626759,-0.10344607,-0.04529522,-0.19062054,0.05774526,0.03505826,0.20491739,-0.03765765,0.06793788,-0.10814852,0.13393623,0.15010674,-0.00490804,-0.45846733,0.10335206,0.13054083,0.23371947,-0.24004062,0.14695112,-0.32533930,0.05360584,0.12080409,-0.15290947,-0.48832402,0.02891397,0.24832107,0.41858912,-0.71371555,0.12488535,-0.73159945,-0.00494991,0.00710199,-0.77466774,-0.34537745,0.12319480,0.33503813,0.11580992,0.14883310,-0.11746187,0.08355470,-0.21461686,-0.27283400,-0.13146828,-0.33699630,0.01470944,0.19947481,0.02220758,0.11240719,-0.10106082,0.08127562,-0.04558476,-0.24749140,0.00834692,-0.11439374,-0.01137777,0.09870955,0.01532743,0.06468035,-0.11341752,0.09964360,0.01009457,-0.24333951,0.02052071,0.00256004,0.04519090,-0.01595899,0.04935458,0.07223720,-0.13414603,0.09011500,0.08623315,-0.25330004,0.08975536,0.04548668,0.11243259,0.01613117,0.08573477,0.10665991,-0.10019606,0.09886404,0.12443012,-0.21636994,0.08834713,0.03527124,0.04023831,0.04176931,0.05068447,0.00543579,-0.18329422,-0.02312513,0.09368628,-0.22183082,0.01206919,-0.10645071,-0.01372815,0.00722979,0.11076760,-0.08987469,-0.13803735,-0.15136403,0.01043890,-0.21470858,-0.10704423,-0.28560150,-0.02351973,0.19837129,0.24276580,-0.20404260,0.06304217,-0.28496220,0.03587183,-0.10902275,-0.15552357,-0.05806538,-0.17240167,0.10926636,0.39411490,-0.46061210,-0.11553843,-0.53207060,-0.04530932,-0.26821125,-0.53533110,0.13527444,0.02967863,0.22680812,0.04875117,0.19352302,-0.29880205,-0.05497341,-0.98041780,0.11939403,-0.19542144,0.14995710,0.00660806,0.02210535,-0.02849742,0.13150759,-0.15721536,0.07283515,-0.24736291,-0.02082552,0.01841145,0.08304763,-0.00980663,-0.03628275,-0.00193419,0.09483198,-0.20080990,0.07997786,-0.07702708,-0.04605423,0.04489160,-0.00841503,-0.01187480,-0.09819010,-0.06180811,0.03313572,-0.19108935,0.05275727,-0.05302611,-0.14812273,0.01124110,-0.04621569,0.08082577,-0.02455073,0.02879113,0.11688404,-0.21895492,0.10006515,0.07265863,-0.15822105,0.09733618,-0.01875830,0.04630517,-0.06376280,-0.00283412,0.05897730,-0.17095658,0.04166321,0.05693860,-0.24149224,0.01778157,-0.05634665,-0.03508151,-0.08350239,-0.03640977,-0.13473563,-0.15310203,-0.06703419,-0.06874407,-0.35483460,-0.02018987,-0.10066734,-0.09434033,0.03029172,0.15348351,-0.06588361,0.04628841,-0.08136846,-0.07123173,-0.42270696,0.01220281,0.04951854,-0.16719697,-0.00392800,0.11608747,-0.45013980,0.08002393,0.05334148,-0.50352836,-0.47829348,-0.00805291,0.22869168,-0.13503788,-0.07636278,0.04600265,-0.09798245,-0.03055177,-0.13574731,0.06936716,-0.20640688,-0.38298425,-0.51352304,-0.16586617,-0.02544425,0.16191293,0.11632849,-0.18610778,-0.14624010,0.09740232,0.07464172,-0.15650450,-0.81000460,-0.18715484,0.12398265,0.15342928,0.04960210,-0.19908997,-0.12624368,-0.04801819,-0.13460249,-0.19782595,-0.38774252,-0.07028303,0.15931457,0.03225198,0.12012772,0.05151968,-0.03189081,0.02644091,0.05676203,-0.05041887,-0.57366550,-0.04915584,0.07341365,-0.07342449,0.02497471,-0.06570405,0.18974973,0.12131278,-0.42802940,-0.07139064,-1.13662100,0.08557824,0.15327133,-0.37504840,-0.20318432,0.14383596,0.19034387,0.28924477,-0.76563810,-0.23771870,-1.66559180,-0.01930887,0.58605534,-1.11652590,-0.60882795,0.48516962,-0.33105367,0.13772860,-0.28109110,0.01181511,-1.09176210,-0.31837448,-0.02094384,-0.25841970,-0.17402169,0.51908330,-0.05455559,0.05101422,-0.83108100,0.18027921,-0.78431890,-0.40996632,-0.18347467,-0.34604767,-0.09114955,-0.46707696,-0.07904338,0.41057920,-0.48013370,0.00853368,-0.16654415,-0.01311814,0.07486673,0.04123774,0.07056409,0.04871318,-0.04627186,-0.01168216,-0.02059506,-0.06341957,-0.08318002,-0.20722010,-0.25585118,-0.00157519,0.03511741,-0.06059144,-0.02753424,-0.06286877,0.08861453,-0.03415901,-0.15407458,-0.15616230,-0.02488012,0.12615739,0.08295324,0.03129243,0.00183472,-0.12810518,0.23778151,-0.03591261,-0.09641786,-0.08807171,0.09464685,0.11772024,0.07913542,-0.01372202,0.08177044,0.01270114,0.10653923,0.04385661,-0.16939327,0.04064055,0.16950983,-0.02367462,-0.08771696,0.02914104,0.08917731,0.15108126,-0.48881330,-0.08162944,-0.45213348,-0.06847367,0.46956980,-0.19671501,-0.26341486,0.38632150,0.10142297,0.21990275,-0.40939610,-0.14816773,-0.92247710,-0.39972442,0.33075750,-0.90616850,-0.83860600,0.39766353,0.16005600,0.22621065,-0.48226390,0.02855385,-0.85010650,-0.56804040,-0.17085770,-0.87791044,-0.51377810,0.30572137,0.41135946,0.37839717,-0.95338684,0.14741278,-1.06246330,-0.41231608,-0.04864518,-0.69807420,-0.50899470,0.11448373,0.12611534,0.37358070,-0.61369870,-0.04386447,-1.02122440,-0.02055577,-0.11116984,0.04141109,0.03888246,-0.00078995,-0.08593813,-0.06631109,0.01182372,0.01568215,-0.02770292,-0.10025620,-0.21022776,-0.00516899,0.00396732,-0.06211804,0.00485429,-0.07530650,0.02265633,0.01005394,-0.04825391,-0.04352418,-0.32049665,0.04450149,-0.01112161,-0.01907543,-0.01906912,-0.05612499,0.01852840,0.03712451,-0.00679959,0.01187129,-0.03290356,0.04141162,0.01184148,-0.07414748,0.07373876,0.02132781,-0.18811186,0.05035589,0.10836085,-0.02608755,0.24310110,-0.02067460,-0.06574941,0.04543144,0.04692522,0.08731770,-0.38741517,-0.09820091,-0.13692404,-0.22236465,0.24541622,0.06900403,-0.36761776,0.26136196,-0.07482883,0.06090485,-0.41609370,-0.05411504,-0.19059974,-0.15998174,-0.02671669,-0.12707585,-0.21104562,0.26185128,0.23883866,0.21003962,-0.33536118,-0.06373729,-0.18842494,-0.43947910,0.06671982,-0.60952700,-0.11431822,0.14708829,0.31341133,0.22786063,-0.20098045,-0.00700734,-0.47752380,-0.33088997,0.16694683,-0.29634175,-0.12391362,0.30314353,0.18440673,0.22995633,-0.10689222,-0.02666496,-0.53577340,0.03762386,-0.05313308,-0.07582418,-0.19890027,-0.05345931,-0.15995020,-0.01168813,-0.01398520,-0.06714746,-0.03330056,0.07805827,-0.28670385,-0.12935221,-0.07223639,0.08285844,0.02699241,0.03997379,0.00533004,0.09404219,0.07415803,-0.02186770,-0.23316364,-0.20899260,0.06562884,0.02983563,0.03736900,-0.00314380,-0.09442168,-0.05302533,0.04702087,-0.17321664,0.07399821,-0.09664130,0.26473302,-0.20139463,0.05272018,-0.04055788,-0.32113582,-0.07306082,0.04342205,-0.31678683,0.22560784,0.14277218,0.15300560,-0.11845101,-0.35831204,-0.09613526,0.11302707,-0.27124727,-0.03702425,0.08695740,-0.40173674,0.11679715,-0.30687514,0.19023608,-0.22101198,0.13114914,0.09433612,-0.13625650,0.05742326,0.19452250,-0.03319996,0.12871590,-0.07802902,-0.02856027,-0.05810616,-0.00617380,-0.07358371,0.00056616,-0.12565038,-0.32278696,-0.00050726,-0.15009362,0.04966563,0.05322675,0.01534420,-0.04547064,0.02068908,0.12348606,-0.11493050,-0.46964297,-0.00753314,-0.11273176,-0.02684558,0.12498902,0.00715062,-0.01340462,0.03238203,0.09778589,-0.20171645,0.14670704,-0.09284549,0.07764316,-0.16301060,0.15277912,-0.09599494,0.07393556,0.09218624,-0.11005046,0.07256988,0.05923814,-0.23335388,-0.13908063,-0.08062602,0.07118510,-0.05880708,0.01686484,-0.11198171,-0.19465806,-0.03622857,-0.04160469,-0.08519220,-0.09442884,0.21651252,-0.00244846,0.06822706,0.11134104,-0.14206392,-0.21488851,0.01705420,-0.26813546,0.07190083,-0.01611657,0.45866010,-0.31343930,0.04190642,0.00688870,0.06363982,-0.33206242,-0.24845174,-0.14123480,0.22405387,-0.11152212,0.23095301,-0.05685246,-0.21091920,-0.03045679,0.28899120,-0.68188800,-0.01146723,0.21782063,-0.12172278,0.00883659,-0.20318770,0.17545909,0.07318454,0.00933477,0.34081480,-0.57947550,-0.08740450,0.15542315,-0.00661474,0.20975402,0.08420244,-0.36641562,-0.22983290,-0.25833356,0.00782446,0.16841537,-0.09017270,-0.12249754,0.00766409,0.16963488,0.18444087,0.07207796,-0.65662843,-0.47573367,0.02910362,0.24991159,0.05167348,-0.14724004,-0.06336395,0.09388466,0.02550356,0.19817875,-0.49002194,-0.43647495,0.04307484,0.33852026,-0.06878643,0.03554751,-0.32708140,0.03787327,-0.10680715,0.05100083,-0.01120811,-0.04725301,-0.07429108,-0.08241694,-0.12361468,0.03542311,-0.27052987,0.09878162,-0.20913630,-0.01213948,-0.19358367,-0.01797767,0.02308064,-0.04954436,-0.16489965,0.04643470,0.09380118,0.24422282,0.05429261,-0.06662187,-0.12963100,0.20499961,0.23272417,0.11117724,-0.14665875,-0.08714511,0.23255450,0.05952690,0.17399426,-0.31520855,-0.08984745,0.19593437,0.14904600,-0.06151187,-0.47806603,0.11397690,0.26616135,-0.28658610,0.03801788,-0.14242418,0.05877437,0.18013600,0.23455155,-0.42805606,0.00670481,0.04201937,0.19667262,-0.02456040,-0.03415360,-0.04883020,-0.01951557,-0.15643325,0.10681890,-0.43144295,0.04248129,-0.13241963,0.05331912,0.07507668,-0.09716570,0.07251380,-0.54441375,-0.27118564,0.09269571,0.05685200,0.17091526,0.11788960,-0.26462874,0.08056516,-0.10058139,0.24323463,-0.91775110,-0.01861438,0.15089567,0.13567169,0.07644098,0.14585753,-0.13555025,0.07681616,-0.46067170,0.24979872,-0.85740244,0.09903088,0.06477970,0.07341346,0.10149464,0.01379243,0.09187161,0.09253219,-0.02297507,0.02138757,0.00874483,-0.19308819,-0.14210270,0.07486289,-0.22948150,-0.12298338,0.05460312,0.00515279,-0.06570930,-0.18192933,-0.04627954,-0.14023867,-0.12759553,0.03935625,-0.26601774,-0.03570391,0.06038906,0.13692777,-0.07262242,-0.09691891,-0.08943460,0.03506991,-0.00162925,0.10670448,-0.14657936,-0.16209866,0.12206576,0.14743517,-0.16103210,-0.09797707,-0.21312751,0.04273270,0.04308154,0.06389975,-0.08738732,-0.24836834,0.22443803,-0.15059547,-0.15342270,0.00349425,-0.22545044,-0.22809660,0.03223305,-0.08499812,0.09592505,-0.44044610,0.39902390,0.04523277,-0.24789168,0.17073086,-0.10721736,-0.35704657,0.20484018,-0.19842657,0.24150181,0.15887171,-0.26155528,-0.20833340,-0.05789999,0.14103800,-0.12037339,0.15240575,0.14312212,-0.16219081,0.19935594,0.06411252,-0.78196930,-0.13695134,-0.04408257,0.18071635,-0.25211832,0.15691955,0.31744888,-0.26577082,-0.02983446,0.06668068,-0.11281623,-0.00225174,-0.22484306,0.02734914,-0.33829418,0.09147502,0.22200407,-0.39391705,-0.10010174,-0.12757932,0.12832934,0.03112081,-0.01174347,-0.32238000,-0.14176147,-0.73666257,0.12643324,-0.04036037,-0.14431599,-0.06938458,0.16095530,0.06435421,0.10192528,0.02347521,0.11950970,-0.36471134,0.06543893,0.07994686,0.05504810,-0.14512216,0.03821367,0.04986225,0.01771494,0.03195327,0.13189764,-0.28161046,0.02548645,-0.01870028,0.04630865,-0.35645230,0.17861383,0.01689934,-0.03094714,0.06073848,-0.09763392,-0.30722610,0.08248502,-0.11618701,0.05371923,-0.54380230,0.21951643,0.01358245,-0.28163600,0.09507354,-0.08130810,-0.57809365,0.18505967,-0.25372750,0.16065826,0.01375184,-0.14207545,-0.10171986,-0.08998154,0.04734981,-0.04745438,-0.05106422,0.15120193,-0.11249788,0.16583657,0.07129285,-0.45582306,-0.17807940,0.16542062,-0.16321087,0.03644714,0.11443646,-0.09811611,-0.02308877,-0.07140144,-0.01800804,-0.20987377,-0.03407532,0.13870728,-0.16593891,0.00016120,0.07650643,-0.04385026,-0.01848163,-0.18593347,0.19064336,-0.04098453,0.24231105,0.15685315,-0.04623615,0.07949359,0.09500449,-0.14001915,0.00498757,-0.11207281,-0.23220487,-0.10705093,-0.55170655,0.38538155,0.07930873,-0.18179761,-0.61418480,0.19274051,-0.46826562,0.18369015,-0.49458864,0.00926718,-0.31042033,0.28204495,0.09942288,0.08477110,-1.13914190,0.21370551,-0.27250660,0.18507239,-0.92591155,-0.08457763,-0.04991395,0.16676510,0.05796184,0.11988721,-0.86009604,0.18611148,-0.37445363,0.18066888,-0.56953204,0.00470213,-0.03764582,0.00517324,0.05409867,0.03093308,-0.22024819,0.17022653,-0.40806392,0.11577159,-0.16389287,-0.07762501,-0.11182489,-0.01653173,0.00285229,0.05839811,-0.07273252,0.09092694,-0.15423222,0.07301983,0.03601544,-0.08509731,-0.13328093,0.18185906,-0.10433301,0.06659536,-0.00769926,-0.05167320,0.06338306,-0.04487811,0.00397938,-0.03903789,-0.04465166,0.09108713,-0.08244024,0.04770325,0.03218003,-0.14003402,0.05738074,-0.15535910,-0.05250621,0.09679504,0.21128844,0.06802443,-0.07655830,0.03071935,-0.05302487,-0.28479940,0.04068515,-0.25875090,0.00835262,0.03069505,0.01952569,-0.09530646,0.03490349,0.07161346,-0.09110723,-0.24916285,0.02727550,-0.04719631,-0.40785357,0.13050221,-0.06924103,0.05394551,-0.09887190,-0.28791785,0.26963583,-0.25153646,-0.16250978,-0.04807674,-0.54648480,-0.06050474,0.02025863,0.05870478,-0.18772958,-0.41941375,0.41168118,-0.27940230,-0.50760640,-0.48237370,-0.35746214,0.18403189,0.40043557,-0.04757605,-0.09945463,-0.34086960,0.16793692,-0.35964260,-0.16277723,-0.63345870,-0.19698335,0.15509519,0.20601964,-0.00832077,0.14356245,-0.26848817,0.20732792,-0.31987995,-0.38243148,-0.78766793,-0.12245947,0.11751906,0.34794152,0.18776637,-0.18989160,-0.33823990,0.07823581,-0.62316966,0.06329362,-0.14409257,-0.15326121,0.18597665,0.15658881,0.06287884,-0.12374045,-0.23593979,0.10970966,-0.62573266,-0.03020273,-0.24761705,-0.07906927,0.12671472,0.18639907,0.01121603,-0.15153755,-0.00679691,0.07286697,-0.48356440,0.10078313,-0.60882040,-0.02628930,0.10728547,0.13782470,-0.08287354,-0.04265935,-0.02309887,0.22832718,-1.01143040,0.05315477,-0.43574995,-0.07881894,0.05857963,0.03494143,-0.41221900,0.09056999,0.00846537,0.32613000,-0.85338926,-0.14809700,-1.01595560,-0.25136578,0.28536674,-0.19529131,0.01292449,0.09778501,0.00757901,0.00443724,0.06167445,-0.22034380,-0.55198467,-0.04625301,0.08914135,-0.25457978,-0.27510995,0.09413798,0.04808379,0.12744953,0.07932765,0.04625324,-0.87418610,0.06155671,0.33321795,-0.04798243,-0.10405862,0.17825788,0.15952343,0.09075147,0.09435085,-0.02474954,-0.55445050,-0.06580640,0.24767902,-0.04236545,0.00159833,0.12166324,0.04917499,-0.12820603,0.06159302,-0.16009425,-0.45239120,0.02452991,0.14182818,0.08355473,0.11467189,0.16107322,-0.00103269,-0.11215316,-0.00922316,-0.15157837,-0.21995040,0.08257674,0.13680118,0.09974764,0.03097114,0.06659627,-0.24126631,-0.38988480,-0.10099591,-0.04913139,0.00702713,0.10172926,0.03841157,0.13259588,0.05673590,0.07402003,-0.32928547,-0.41437220,0.06999166,0.05769514,0.19268821,0.16314946,-0.00303773,0.10491108,0.09945231,-0.01706786,-0.11248603,-0.26606393,0.05078258,0.09887675,0.06610145,0.16222125,0.15408596,0.04980867,-0.08703701,0.00094352,-0.07833445,-0.16197078,-0.05228201,0.01458028,-0.16457534,-0.06398267,-0.19942829,-0.16346012,-0.02243801,0.08925365,0.03557501,0.02818318,0.06937098,-0.20708470,-0.25406367,-0.02266285,0.03444886,-0.35718685,-0.17223135,0.13392258,0.05721544,0.07337886,0.08276025,-0.02480493,-0.14535620,-0.05821040,0.03212696,-0.10443788,-0.19866303,0.24432358,0.12260147,0.02656500,0.24104865,0.05945183,-0.21567722,-0.08866584,0.25736790,-0.09766980,-0.07642613,0.18360437,0.06195050,-0.09730651,0.11349694,0.08046648,-0.39467466,-0.02673385,0.05435105,0.04518095,-0.03728501,0.12886614,-0.10965572,-0.28909400,-0.03346363,-0.04461002,-0.01866558,0.10628865,0.10100567,0.16452515,0.06355745,0.15574830,-0.37602878,-0.69117890,-0.02551980,0.08532155,0.07153216,0.20563425,-0.29049706,0.22346891,0.10561740,0.08276728,-0.65916765,-0.56529550,0.05712777,0.13355370,0.15430310,0.22903308,-0.38326790,0.15320303,0.01736329,-0.06702888,-0.46979600,-0.34793314,0.15218934,0.19952210,0.11109243,0.15313847,-0.04694314,-0.03741493,-0.15069342,-0.05553466,-0.36152673,-0.21461198,0.08880311,0.13016197,-0.02001223,0.04181055,-0.08283943,-0.32506695,-0.32656600,0.06989767,-0.08559239,0.19778416,0.10682256,0.01607282,0.10271387,0.02098118,-0.08258270,-0.47766630,-0.47734890,0.10887448,0.05036810,0.05436826,0.07639373,0.07666374,0.05036994,-0.04449001,-0.19117558,-0.33099982,-0.40269715,0.19935971,0.11326104,0.07394373,-0.03004682,0.10154866,0.10134197,-0.08765517,0.12835076,-0.19261247,-0.15468894,0.16231160,0.08671364,-0.00931806,-0.25261530,0.16916725,0.17484707,-0.30981410,0.03397743,-0.09191436,-0.14209960,-0.04467129,-0.14817674,-0.31820923,-0.14897030,0.11456544,0.07924259,0.18202418,0.05728091,0.15230885,-0.12656802,0.14560395,-0.11389792,-0.58318270,0.07820934,0.03219909,0.08481304,0.14616036,-0.41486523,0.12315334,-0.18298742,0.00150923,-0.20588963,-0.30200220,-0.01344505,-0.10938525,0.02886776,0.18522820,-0.16613053,0.13718008,-0.20347726,0.01960157,-0.13921160,-0.05729301,0.02414319,-0.04228656,0.09343064,0.32170242,0.22581927,0.09820471,-0.52649474,-0.08297443,-0.43576914,0.18239152,0.03608305,-0.05417812,0.15736276,0.12145842,-0.06586383,-0.45785767,-0.33539790,0.12032390,-0.29302484,0.15014742,0.12530477,0.11798248,0.11824834,0.08150563,-0.02447569,-0.49303080,-0.41072774,0.11987212,0.00636387,0.11340675,-0.08090112,0.08687425,0.13686130,0.02330721,-0.44858438,-0.43256780,-0.18392886,0.09991778,0.09015375,0.14729846,-0.24670558,0.12395906,0.09082494,-0.04202726,0.09279232,-0.29722992,-0.12053454,0.04214924,0.09201934,0.04991928,-0.27724860,0.17334320,0.11058473,-0.25847328,0.05798288,-0.08116748,-0.09243022,-0.06983982,0.02530551,-0.12361212,0.02406269,0.15127276,-0.10344930,0.04419017,0.02084509,0.00405942,-0.18691806,0.08190976,-0.05711975,-0.18233138,0.16204517,-0.29732123,-0.00326285,0.13358214,-0.18326716,-0.00976012,-0.01329101,0.00371841,-0.00583876,-0.04492258,0.02175827,-0.31107520,-0.12049846,0.19091444,-0.21687847,-0.14718176,-0.00510418,-0.04892292,0.00652825,0.02652910,0.05296076,-0.13075788,-0.02097169,0.21698250,-0.48053584,-0.25387722,-0.01822426,-0.01987866,-0.08145655,0.10726254,0.03506407,-0.15396759,-0.06378268,0.05957716,-0.55493830,0.01505525,0.10179696,0.06998161,-0.16277017,-0.02541283,-0.00821392,-0.08790129,0.11819074,0.10071914,-0.58838220,-0.03608655,-0.04672036,0.05579476,-0.05597577,0.15564904,-0.18478373,0.05223843,0.09309643,0.09375422,-0.15463684,-0.13246480,-0.06950373,-0.04569638,0.03344601,0.12720364,-0.31756140,0.04501275,0.04798027,-0.05647234,0.08949316,-0.13119586,-0.06486928,-0.08714841,0.02534419,0.07673523,-0.23159286,0.08436716,-0.10380546,-0.10496630,0.05428263,-0.07103921,0.02583636,-0.13023600,0.07997939,-0.03101157,-0.08842102,-0.01261464,-0.26596853,-0.02451823,-0.00299128,-0.13728671,0.04036898,0.02104919,0.07344257,0.01293230,0.07538307,-0.07269371,0.04600093,0.09761308,-0.14852408,-0.20675011,0.09495924,-0.21051873,0.07703512,0.06606447,-0.09225403,0.04764893,-0.07547748,0.14163370,-0.06684864,-0.20123176,0.06699228,-0.17287949,0.07017363,0.06891220,-0.09304521,0.05498707,0.00554533,0.01793696,-0.23099802,-0.13486086,0.05529788,-0.12185787,0.03910723,-0.02956232,-0.15884101,0.08212762,-0.06326342,0.10864887,-0.42041050,0.11704788,0.19185053,-0.22666563,-0.06686150,-0.08162247,-0.23419076,-0.10530096,-0.15133701,0.09160680,-0.33187080,0.05973257,0.05647230,-0.18515640,0.01950270,0.11537202,-0.33060366,0.01195717,-0.05589463,0.11926279,0.03606233,0.07434382,-0.00113307,-0.10025449,0.02881764,0.13451748,-0.30303696,0.05630056,0.01238305,0.08359888,0.06907048,-0.01444581,-0.04814341,-0.10028415,-0.00773440,0.10573785,-0.13022068,0.03865164,-0.20805109,-0.02838196,0.16179709,-0.06664758,0.01877060,-0.05135848,0.03903922,0.08335697,-0.06193996,0.03022703,-0.06961685,-0.13773318,0.04726933,-0.07425693,0.04689617,0.06790535,0.01546662,0.00890268,-0.06432381,0.06166405,0.07666726,-0.20354053,-0.11547096,-0.09837031,0.02479846,-0.05983620,0.05119325,-0.02900942,-0.28392290,0.08086529,-0.02781675,-0.16743690,0.11918887,-0.05855117,-0.03928585,-0.16945685,0.03211449,-0.03041333,-0.40306790,0.04784082,-0.07022912,-0.15078448,0.05802405,-0.08921153,0.03929863,-0.00969524,0.17655190,-0.08467875,-0.29137623,0.00421564,0.20195894,0.05471606,-0.15181538,0.08698663,0.25067326,-0.62946730,-0.05980320,-0.41056532,-0.27482066,0.06420580,0.02022689,0.07255359,-0.07378612,0.05711050,0.14229375,-0.53012574,0.04306785,-0.04093975,-0.48182200,0.08915802,-0.07689588,0.06341498,-0.07290205,0.03447949,0.00202064,-0.43774912,0.03203395,0.02208507,-0.23481841,0.03202956,-0.07666562,0.19304201,-0.01351654,0.00749541,-0.07937160,-0.18050537,-0.00115069,0.16163242,-0.05978560,0.14905669,-0.09536340,0.05231247,0.11101306,-0.08749920,-0.13615637,0.02325724,-0.07166081,0.07320932,0.00001636,0.12274163,0.01581996,-0.52647480,0.05097405,0.06003878,-0.05964381,0.10339404,-0.01101979,-0.46865448,0.01732451,0.07607393,0.08294272,-0.64341320,0.01399317,0.11518760,-0.04793158,0.07260257,-0.10801856,-0.45611880,0.01757065,0.04323885,0.09331150,-0.78017820,0.23373656,0.07254270,-0.10745676,0.05403797,-0.06437359,-0.42856145,-0.15540032,-0.04226070,0.05518836,-0.68420994,-0.04071204,-0.03376335,-0.33075365,0.11407530,0.04730419,-0.48491690,-0.21122189,-0.00581301,0.26312694,-0.04683069,0.19825667,-0.01469755,0.39278615,-0.37547627,-0.18655886,-0.46750212,-0.10731304,0.04392066,-0.26811114,-0.01903369,-0.03700985,-0.22323392,0.23211987,-0.34191640,0.03068601,-0.86136830,-0.01849265,0.10729451,-0.02454459,0.05514205,-0.08172122,-0.16743560,0.15937704,-0.05543784,0.15980148,-0.70083857,-0.07611536,0.13970779,-0.05212302,0.18935946,-0.02125930,-0.12211082,-0.00512091,-0.05108080,0.07442015,-0.21588810,-0.01242394,0.11862277,-0.09388834,-0.12464738,0.00788027,-0.13963546,-0.46624380,0.05782765,-0.20001812,-0.26019755,0.12672766,0.03615113,0.05932682,-1.11081080,0.24536416,-0.02125527,-0.35071254,0.21016547,-0.36093542,-0.76977000,0.19880131,-0.15726808,0.19457778,-0.98610240,0.41138660,0.15373210,-0.25660023,0.24917473,-0.43010244,-0.70494650,0.18329814,-0.47534946,0.20105780,-0.66520230,-0.00543561,0.26253623,-0.53823066,-0.00337557,-0.16787267,-0.68904610,0.12924930,-0.58658785,0.26505715,-0.57875020,-0.39961080,-0.20130540,-0.17903472,0.22604832,0.07792160,-0.36195060,-0.08735301,-0.49302652,0.24226427,-0.55625695,0.75193894,0.36017722,0.10578234,-0.37372163,0.31196920,-0.00429248,0.17031822,-0.74752870,0.09517786};

float weights_bias_FP_scaled []={0.006321,-0.730935,2.685930,2.324267,-1.146461,0.857924,0.161350,0.214722,-2.041883,1.838131,-1.752564,1.509003,0.581434,0.055812,0.417884,-0.389694,0.986878,-1.375045,0.324425,-0.074722,-0.540036,1.295707,-0.517217,-0.929418,1.674691,-2.706387,0.716704,-2.200486,0.595426,0.554129,-0.346784,-0.335789,-1.203819,-0.243301,-2.279612,-0.707967,-0.507173,0.461554,-0.055336,0.363431,-1.068996,1.151557,-1.436054,1.736300,1.724302,-0.985279,-0.996864,2.307658,0.353244,-0.749446,1.497010,-0.403114,-0.400285,1.429916,1.163550,-0.337173,-1.457168,0.824087,-3.094957,0.065951,1.179256,-0.754509,-1.044616,1.171595,0.682136,-0.382687,0.145111,-0.320539,-2.303157,0.881978,-0.645315,-1.431256,-1.640075,0.732443,-4.825210,1.296875,0.463902,-1.014457,-1.619321,0.922204,0.599057,-0.768774,-1.521179,1.278013,-2.466669,1.192556,-3.250995,-2.335141,-2.475828,1.075802,-2.752021,0.864029,1.113781,-0.004515,-1.152585,1.567654,2.070068,-1.437884,0.611722,-0.529628,-0.889500,0.996119,-1.033468,0.199775,-0.283777,0.743769,-2.423158,0.230515,-1.370967,-0.017109,0.684096,0.863198,0.022253,-0.513826,2.827881,-0.410391,-2.482375,0.201077,-2.454104,-0.477971,-0.844649,-0.687760,-1.072003,-0.148300,0.698097,0.654816,0.644787,0.398359,2.331601,-0.758342,0.702347,-1.869754,-1.337000,1.494709,-0.362514,-1.671118,-2.180251,0.779912,-1.616602,0.320074,-1.746858,0.607400,3.310194,-0.075942,2.023775,-0.553562,0.001864,0.454229,-0.382322,1.056062,-2.345165,-1.195789,-0.269900,-0.013804,-2.254598,0.735546,0.536439,-0.199127,1.122753,-0.292653,1.027560,-0.978583,-3.120904,0.553187,-1.198075,0.741286,-0.569354,-0.413143,-0.858938,0.978631,0.507073,0.310126,0.199276,-0.363921,2.068948,0.616228,0.728755,-0.883352,-0.871488,-1.309982,-1.210467,1.390866,-0.636266,-0.966935,0.594018,-0.546746,0.417596,-3.189823,-2.054054,0.390905,0.050370,-0.596775,-0.526515,-0.602856,1.289636,-0.519268,-0.914548,-0.131153,-1.852862,-0.269406,2.697102,-0.089962,-2.192177,-1.979707,1.985864,-0.984284,-0.472389,-3.443139,-2.611550,0.918669,1.083002,0.879399,-2.181994,-0.873501,2.333522,-1.328541,-2.878458,-0.632313,-2.212355,1.462841,-0.449800,-0.780753,-0.844096,-0.807646,2.729168,-2.859437,-0.989020,-4.532462,-1.579652,0.852036,-1.184429,-2.277110,-1.114006,0.473763,2.791896,-4.156077,-2.047776,-4.623298,-1.771128,1.006998,-0.961047,-2.925946,-0.552169,0.114035,1.305352,-4.243262,-0.534047,-7.007363,-3.420295,0.477735,-1.257278,-3.687607,-1.458854,0.577347,1.920581,-0.698827,-0.486453,-2.089117,-2.141701,-0.121528,-1.607102,-2.819245,-0.692933,0.396241,2.440900,-4.801344,0.466400,-2.278320,-2.694773,-0.642164,-0.585084,-3.342038,-0.484517,0.710969,2.399671,-3.875057,-0.462903,-3.471265,-0.950101,-0.143766,0.193738,-0.420429,0.862468,0.332797,0.530934,-1.716079,-0.798894,-1.029645,-1.731785,-1.639648,0.686555,0.100803,0.292581,0.319656,1.386371,0.708390,-0.426654,-2.171898,-0.738784,0.262595,-0.054741,-0.314430,0.226332,-0.315386,0.956887,0.294348,-0.458129,-3.027406,0.016950,0.543019,-0.018146,-2.362403,1.094222,0.054145,1.006177,-2.663644,0.157397,-1.260539,-0.104501,1.250280,-0.109880,-1.557592,0.968016,0.124295,1.163171,-2.876810,0.685167,-3.085630,-0.517197,0.656737,-0.106912,0.071734,0.556194,-0.433667,0.704547,-0.957675,-0.140577,-2.718193,-0.684441,0.712948,-0.212763,0.332101,0.367264,-0.270064,0.542932,-0.411385,-0.038439,-2.330189,-0.312686,0.473360,0.226216,0.051681,0.847679,0.167935,0.197393,-0.946926,-0.236428,-1.875134,-0.914683,0.733870,-0.012161,-0.994539,1.153632,0.122935,0.006854,-2.109972,-0.045298,-2.771473,-0.272874,-0.183978,0.069001,0.197868,-0.364392,-0.234799,0.413638,0.066340,-0.009592,0.100471,-0.491583,-1.734341,-0.184204,-1.056331,0.339257,0.139323,0.572592,-0.372576,0.026086,-0.166240,0.510041,-1.557313,0.010980,-1.012988,1.175068,0.778620,1.193224,-0.192623,0.358479,0.548158,0.172763,-0.452846,-0.413787,-1.797775,0.829677,0.272936,0.503043,-0.770407,0.190909,0.440679,0.076633,0.161057,-0.424906,-0.040197,0.725186,-0.259228,0.447831,-1.574345,-0.235991,0.014794,-0.613682,0.251586,0.185289,0.732280,0.529373,-1.494104,0.101446,-0.031023,-0.102128,-0.092839,-0.570867,0.329742,0.302177,0.496578,0.575824,-3.113963,-1.098324,0.166423,0.267797,0.086292,-0.101859,0.047368,0.579061,0.475795,0.419618,-1.856719,-1.992056,0.405189,0.573581,-0.080279,-0.030187,0.252691,0.294761,-0.212162,0.210371,-1.679864,-1.306481,-0.311774,0.105044,-0.633639,0.772400,0.358897,-1.069727,-0.751104,-0.576713,-0.423676,0.380545,0.007277,-0.331505,0.515886,0.509729,-2.002791,-1.075529,-0.988938,0.190976,0.232720,1.356399,0.238392,0.237604,0.705340,0.253123,-2.538739,-1.588836,-1.403619,0.496991,0.229694,0.363277,0.131384,0.072724,0.391231,0.354714,-0.477044,-1.126490,-1.424608,0.424296,0.030264,0.268277,0.012128,-0.322494,-0.076023,0.215184,0.124482,-0.292566,-0.152825,0.257287,-0.213070,0.269113,-0.571881,-0.271130,-0.285765,-0.247950,0.498292,0.426798,0.510036,0.475483,-1.636790,-0.414152,0.641977,0.453542,0.530886,0.426184,0.285458,0.687794,0.262979,0.635431,-4.618125,-2.426429,0.575262,0.455953,0.259833,0.673774,-0.124746,0.680162,0.140106,0.491352,-5.606184,-1.580080,0.481736,0.369728,0.222681,0.742996,-0.145337,0.484541,-0.334329,0.416203,-4.755868,-0.301178,0.387509,0.914294,0.325756,1.075971,-0.040384,-0.975788,-1.664115,0.186754,-1.029645,1.209511,0.403326,-0.717539,0.486746,0.565368,-0.863621,-2.550070,-1.559681,0.518807,-0.683370,0.773424,0.310712,-0.717477,0.605997,0.534517,-1.216990,-2.060044,-0.619921,0.607741,-0.069189,0.626406,0.812353,-0.190294,0.811541,0.644105,-0.317773,-0.719052,-1.691041,0.419536,0.119780,0.576458,0.166908,0.021220,-0.071869,-0.220222,0.172729,0.119155,-0.804274,-0.748150,-0.740316,-0.008929,0.105678,0.064280,-0.831147,-0.241327,0.217018,0.350213,-0.514671,0.278892,-1.045798,-0.809735,0.246788,-0.034044,0.088406,0.348393,-0.068406,0.260285,-0.573235,0.174693,-0.915984,-0.798054,0.340650,-0.418499,-0.008794,0.574167,-0.926037,0.291682,-0.835561,0.239622,-1.187729,-0.047680,0.417759,-0.634595,0.018372,0.862694,-0.707981,0.233416,-1.167090,0.175928,-1.704994,0.431395,0.745489,-0.375497,0.331414,0.937752,-4.579047,0.875686,-1.690911,0.552006,-1.093281,0.481121,0.294113,-1.166509,-0.332153,0.985072,-2.486021,0.364137,-1.811243,0.467778,-1.584254,0.454685,0.366740,-0.222523,0.722026,0.935350,-0.305487,-0.097661,-2.792122,0.653336,-1.308268,0.605272,0.624455,0.227955,0.115932,1.290280,0.494123,0.533350,-2.450569,-0.016979,-0.697093,0.948933,0.173065,1.112224,-2.124535,-0.336404,0.266615,0.031470,-1.654153,-0.493504,-0.296538,0.323849,0.039582,0.185241,-0.166648,-0.047993,0.141000,-0.039544,-0.375448,-0.074040,-0.135678,0.156951,0.044237,-0.605863,0.121225,0.229732,0.018233,-0.096754,0.277874,0.012637,-0.007205,0.135250,0.276798,-0.655781,0.329103,0.361207,-3.214348,-0.377788,-0.004866,-0.080995,-0.178156,0.108084,0.511544,-0.673029,0.335756,0.622126,-1.604369,-0.691161,-0.426933,-0.208363,-0.340439,0.247648,0.975077,-0.753654,-0.306164,0.678452,-0.907992,0.979697,-0.637765,-0.550324,0.002281,-0.080899,-1.301111,-0.203305,-0.885917,0.733558,-0.419594,0.712458,-1.382864,-1.164765,-1.119660,0.582159,-0.311202,0.757117,-0.846181,1.310189,0.108358,0.965922,-1.929735,-0.540771,-1.175620,1.021119,-0.362341,1.035168,-2.086533,0.451208,0.366707,0.315948,-3.287715,0.015533,-0.987166,0.478595,0.224900,0.548893,-0.264132,-0.591194,-0.019073,-0.265150,-0.683241,-0.007157,-0.082037,-0.334224,0.125236,-0.048881,0.202239,-0.029429,-0.227537,-0.516395,0.323546,0.221231,0.210938,0.106139,0.194444,0.154405,0.332691,0.193224,-1.509983,-0.461294,0.411486,0.178507,0.424137,0.128574,0.276173,0.148920,0.329334,0.099780,-1.862463,-0.684859,0.260851,-0.203056,0.050812,0.124636,0.087733,-0.133425,0.183978,0.580863,-1.139299,-0.708116,-0.071874,-0.296154,0.316044,-0.198464,0.303681,0.253094,-0.147441,0.458873,0.875115,0.349896,0.267470,-2.373037,-0.295222,-1.720719,-0.878928,0.494320,-2.125505,0.532697,0.771339,0.618855,0.013891,-1.334915,0.034227,-1.327787,-0.542932,0.674336,-0.743870,0.514018,0.797939,-0.109775,-1.770321,0.084554,-1.199300,-0.339507,0.488869,0.778438,0.464541,-0.566554,0.722732,-1.161864,-2.188608,0.260174,-0.924630,-1.506914,0.486366,0.084443,0.410434,-0.576674,-0.047152,-1.108708,-0.312797,0.151149,0.018867,-1.770441,0.117873,0.040135,0.202239,0.111682,-0.414839,-0.955658,0.288781,0.125644,0.278104,-0.475223,0.106696,0.341178,0.246505,0.466006,-0.667371,-0.803909,0.434690,0.032743,0.391846,-0.039457,0.100245,0.216360,0.082157,-0.068900,-0.091302,-0.728005,0.415694,-0.713342,0.354550,-0.225496,-0.199501,0.256572,-0.118262,0.502726,0.473998,-0.328561,0.350698,-0.132407,0.815244,-1.129708,-0.246658,0.270064,0.195635,-0.338676,0.911133,-1.105538,1.080289,0.166038,0.132023,-5.080529,1.355261,-0.745138,0.304190,-1.565728,0.954303,-2.105053,1.219972,0.186970,0.467658,-2.753433,1.578226,-0.452903,0.622395,-2.105812,0.611900,-3.482918,-0.816546,0.761454,-0.823539,-3.508365,1.449272,-1.276822,1.313253,-5.512831,0.691579,-5.922564,-1.759523,1.375170,-1.193598,-1.786334,1.744288,-1.063194,1.871248,-5.363801,0.531679,-4.996705,0.504978,1.095418,0.040202,-2.974587,1.263219,-1.255434,1.369646,-3.377792,0.432159,-3.755349,0.528869,0.625354,0.525588,-3.094073,0.946325,0.166182,0.771526,-1.505968,0.658442,-1.667169,0.740839,0.215453,0.528595,-0.821411,0.722799,0.403667,0.410963,-1.485002,0.474104,-0.383393,0.431582,0.193891,0.054645,-1.469594,0.294732,-0.097536,0.198353,-2.052969,0.616266,-1.088055,-1.328998,0.044116,0.452457,-1.864404,-1.169741,-0.357091,1.202254,-0.745719,0.528979,-1.939390,1.614086,1.026926,-1.804043,0.771411,-0.179641,-2.357000,-2.154444,-0.948957,1.275784,0.222547,-0.234425,0.933833,-2.046984,-0.096312,-0.542961,-1.171336,-3.817180,-0.005000,0.120591,1.355165,0.840436,0.532001,-1.032003,-0.768793,-0.395554,-1.573019,-3.189530,-0.418355,-0.612030,0.938823,0.518816,-0.968501,-1.125822,-1.847843,-0.486227,-0.710099,-0.615354,-0.830172,-0.787535,0.711766,0.607342,-2.783006,-0.789917,-1.397720,-1.356913,-0.238776,-0.078982,-0.090020,-1.304036,0.877343,0.474373,-2.617784,0.063655,-0.304286,-1.336851,0.347773,0.134679,-0.443734,-0.090980,0.410761,0.136845,-1.707977,0.096926,0.060404,-2.347725,0.379541,0.006844,0.023185,0.473672,0.597769,-0.253339,0.028314,0.316769,1.310040,-3.694417,0.553600,-0.370242,-0.549647,0.922598,-1.097921,-1.980158,2.811747,1.024453,1.716569,-3.988252,0.437024,-4.941052,-0.245016,0.427586,0.173233,1.016667,-0.614249,-3.259487,0.762535,1.033593,-2.665964,-4.792357,-1.284814,-0.369027,0.193450,0.688812,0.364411,-1.057090,-0.687366,1.186620,-1.196596,-4.679475,-0.946104,-0.575132,0.735940,0.705661,-0.571309,-0.233488,-1.679336,1.237211,-0.182326,-1.421438,-0.554729,-0.424373,0.456534,0.661382,-1.299569,-0.083391,-1.997791,0.822506,0.069001,-0.130212,-0.210280,-0.918174,0.448278,0.390862,-3.004328,0.288018,-1.174141,0.139813,0.278690,0.236581,-0.042752,-2.362576,0.278517,0.433648,-2.566804,0.341683,-0.238445,-0.224103,0.459594,0.287052,0.069054,-2.790873,0.233671,-0.100404,-2.386337,0.415209,0.190846,-0.536371,0.274127,0.297802,0.064847,-2.383201,-0.218599,-0.480435,-0.791613,0.557068,0.258762,-1.024217,0.180159,-0.052911,0.123718,-1.633399,-3.515281,-1.885172,1.809591,1.695978,0.547462,-0.681598,0.863126,-2.271356,0.087738,-0.035591,0.612457,0.898227,-0.711392,-2.133603,-0.682900,1.780383,-0.556689,-3.141566,-0.620992,0.300294,0.407937,1.150856,-0.921513,-0.981393,-1.885802,1.254915,-0.340833,-3.002320,-0.760013,0.004063,0.540997,0.751300,-1.702693,-0.261168,-2.822703,0.919836,-0.388868,-0.821800,-0.319142,0.008756,0.552543,0.632299,-2.736526,-0.025173,-2.738649,0.568134,0.119386,0.112493,-0.103046,-1.105505,0.314488,0.464042,-2.372317,0.274483,-2.229430,0.354517,0.130769,0.317869,0.090596,-3.274843,-0.021758,-0.035067,-2.938131,0.435463,-0.717343,0.098358,0.067887,0.072532,0.323546,-2.754639,-0.121989,-0.208267,-2.674994,0.684499,0.082484,0.128382,0.264425,0.192220,0.461712,-1.660195,-0.418042,-1.371097,-1.581569,1.070812,0.442173,-0.634177,0.522116,0.064775,0.318522,-1.437370,-1.848832,-3.892723,0.936157,1.662582,0.506357,-1.912483,0.644355,-1.121067,-0.788457,-1.338234,0.905446,1.030793,-0.435492,-1.771425,-2.648384,2.199353,-0.106076,-2.218868,-1.973357,0.157902,0.505060,0.665604,-0.455511,-0.151754,-3.673289,1.118733,0.374814,-1.518710,-0.820177,0.376428,0.433379,0.254266,-0.546885,-0.052906,-4.037503,0.701555,0.459378,-0.214228,-0.662198,-0.007685,0.117205,0.172681,-1.200001,0.004769,-3.239622,0.546837,0.097719,0.279487,-0.307086,-1.308455,-0.218426,0.098041,-1.201941,0.189833,-1.212710,0.358988,-0.087253,0.124222,0.731742,-2.546732,-0.062162,0.488312,-1.766147,0.668879,-0.076062,0.524330,0.183973,0.010072,0.440684,-2.800220,-0.842213,-0.042916,-3.088411,0.861796,0.273128,0.292302,-0.116984,-0.537005,0.252662,-0.689657,-1.155505,-0.769485,-1.261553,0.750114,0.166120,-0.746934,0.535180,-0.751483,-0.192249,-0.012248,-1.050543,-1.621780,0.669095,1.208065,-0.302754,-1.196173,1.426184,-2.426472,-0.816661,-0.387351,-0.982325,-0.203099,0.974044,-0.765815,-1.565171,1.351913,-0.659571,-0.537395,-1.940033,-0.307768,-0.519762,-0.093555,0.843136,0.451477,-2.592822,0.113973,0.383864,-0.128973,-3.048555,-0.328114,-0.201629,0.062743,0.465752,0.206701,-2.937156,-0.076893,0.179910,0.575627,-1.654821,-0.659110,-0.015380,0.399949,0.481650,0.365943,-1.932886,-0.216528,0.262672,0.739629,-1.089338,-1.096715,-0.295559,0.440444,0.739297,0.390497,0.186711,-0.666684,-0.133809,0.618874,-0.587380,-3.327004,-0.428869,0.559498,0.017575,0.588682,0.619835,-0.126634,0.069890,0.114789,-0.549762,-3.306197,-0.822444,0.629710,-0.019904,0.625935,0.867055,0.230236,0.465492,-1.007935,-0.204295,-1.165001,-0.260770,0.294180,-0.020937,0.275554,0.324886,-0.236682,0.516011,-2.395122,-1.897079,-0.414181,1.327629,-1.000207,0.974390,0.245496,0.209742,-0.077239,0.974183,-2.631977,-0.272792,-0.445415,-0.716396,-0.168526,2.035260,0.291087,-1.041187,0.770575,-2.045096,-0.148689,-0.740345,-0.282182,-0.517241,-0.020211,0.813582,0.576343,-1.153521,-0.169208,-0.233815,0.345160,-0.956426,-0.871349,-0.345275,-0.128646,0.466318,0.208632,-0.754908,-0.361582,-0.323325,0.415641,-1.136466,-1.396741,0.147897,0.157979,0.497855,0.218719,-0.727487,-0.431481,-0.093612,0.556050,-1.581631,-2.581838,-0.042195,0.011081,0.188920,-0.011182,-0.306798,-1.007478,-0.322350,0.317158,-1.603874,-2.060433,0.046811,0.508533,0.093463,0.336270,0.286788,-0.443921,0.284982,-0.046907,-1.736478,-2.135875,0.185707,0.463047,0.438148,0.417711,0.498038,0.653298,0.578072,-1.213603,-1.232845,-0.712150,0.737525,-0.197571,0.811867,-0.163296,0.229795,0.792593,0.281687,-2.099780,-1.981297,0.659076,2.343133,-2.168373,1.233930,-2.176034,-0.786829,0.217110,-0.489877,-1.559287,-0.069683,-0.111144,0.412735,0.683572,0.464445,0.461578,-1.633384,-0.443556,-1.965072,-1.314742,0.086571,0.717895,-0.168541,0.171864,0.100159,0.167229,-0.105438,-0.491731,-1.088122,-0.091600,-0.077003,-0.003319,-0.165015,-0.130188,-0.013036,0.236999,-0.230904,-0.443590,-1.007205,0.417754,-0.005581,-0.833049,-0.178522,0.004856,0.256557,0.092897,0.006398,-0.157878,-0.724259,0.451645,0.296125,-0.793236,0.572789,0.646915,0.632011,0.010053,0.380156,-0.268825,-0.105159,0.478081,0.061436,-0.183041,0.673538,0.249117,-0.035207,-0.454935,0.270261,-0.496861,-0.217556,-0.915571,0.277355,0.168387,0.984236,-0.180875,0.326313,-0.519450,0.643308,0.720978,-0.023574,-2.202061,0.496410,0.627001,1.122575,-1.152940,0.705820,-1.562635,0.257475,0.580233,-0.734437,-2.345468,0.138877,1.192710,2.010524,-3.428047,0.599835,-3.513941,-0.023775,0.034112,-3.720806,-1.658879,0.591718,1.609220,0.556247,0.714859,-0.564181,0.401323,-1.030826,-1.310448,-0.631454,-1.618624,0.070649,0.958098,0.106667,0.539902,-0.485406,0.390377,-0.218949,-1.188723,0.040091,-0.549445,-0.054650,0.474114,0.073617,0.310664,-0.544758,0.478600,0.048487,-1.168786,0.098564,0.012296,0.217057,-0.076653,0.237057,0.346961,-0.644316,0.432831,0.414185,-1.216624,0.431102,0.218478,0.540027,0.077479,0.411794,0.512298,-0.481251,0.474853,0.597649,-1.039246,0.424339,0.169410,0.193267,0.200621,0.243440,0.026110,-0.880379,-0.111072,0.449983,-1.065476,0.057969,-0.511294,-0.065937,0.034726,0.532029,-0.431678,-0.663005,-0.727016,0.050140,-1.031268,-0.514143,-1.371774,-0.112969,0.952795,1.166029,-0.980038,0.302797,-1.368700,0.172297,-0.523648,-0.746997,-0.278892,-0.828064,0.524815,1.892973,-2.212364,-0.554940,-2.555589,-0.217624,-1.288243,-2.571247,0.649734,0.142551,1.089381,0.234156,0.929510,-1.435175,-0.264041,-4.709043,0.573461,-0.938626,0.720258,0.031739,0.106172,-0.136874,0.631646,-0.755119,0.349834,-1.188108,-0.100029,0.088430,0.398888,-0.047104,-0.174271,-0.009289,0.455487,-0.964510,0.384142,-0.369968,-0.221202,0.215621,-0.040418,-0.057037,-0.471616,-0.296870,0.159155,-0.917819,0.253397,-0.254689,-0.711449,0.053992,-0.221980,0.388215,-0.117921,0.138286,0.561405,-1.051662,0.480622,0.348988,-0.759951,0.467514,-0.090096,0.222407,-0.306260,-0.013612,0.283272,-0.821123,0.200111,0.273484,-1.159910,0.085409,-0.270640,-0.168502,-0.401068,-0.174881,-0.647150,-0.735364,-0.321971,-0.330184,-1.704307,-0.096975,-0.483513,-0.453124,0.145495,0.737199,-0.316447,0.222326,-0.390818,-0.342134,-2.030303,0.058612,0.237845,-0.803063,-0.018867,0.557577,-2.162066,0.384363,0.256202,-2.418494,-2.297288,-0.038679,1.098430,-0.648601,-0.366779,0.220957,-0.470617,-0.146744,-0.652006,0.333176,-0.991393,-1.839509,-2.466501,-0.796670,-0.122210,0.777684,0.558735,-0.893895,-0.702405,0.467831,0.358513,-0.751704,-3.890533,-0.898924,0.595502,0.736934,0.238243,-0.956249,-0.606362,-0.230635,-0.646506,-0.950177,-1.862367,-0.337576,0.765205,0.154909,0.576986,0.247456,-0.153176,0.126999,0.272633,-0.242167,-2.755373,-0.236101,0.352615,-0.352663,0.119957,-0.315583,0.911388,0.582678,-2.055865,-0.342898,-5.459301,0.411039,0.736175,-1.801392,-0.975912,0.690858,0.914241,1.389272,-3.677434,-1.141787,-8.000000,-0.092743,2.814879,-5.362783,-2.924260,2.330319,-1.590084,0.661526,-1.350107,0.056749,-5.243839,-1.529181,-0.100596,-1.241216,-0.835845,2.493206,-0.262038,0.245025,-3.991763,0.865898,-3.767160,-1.969106,-0.881248,-1.662102,-0.437802,-2.243416,-0.379651,1.972051,-2.306130,0.040990,-0.799927,-0.063007,0.359593,0.198070,0.338926,0.233973,-0.222249,-0.056110,-0.098920,-0.304612,-0.399522,-0.995298,-1.228877,-0.007565,0.168670,-0.291024,-0.132248,-0.301966,0.425626,-0.164069,-0.740037,-0.750061,-0.119501,0.605944,0.398431,0.150299,0.008814,-0.615301,1.142090,-0.172494,-0.463105,-0.423018,0.454599,0.565421,0.380093,-0.065908,0.392749,0.061004,0.511717,0.210649,-0.813611,0.195203,0.814173,-0.113713,-0.421313,0.139967,0.428326,0.725657,-2.347816,-0.392072,-2.171639,-0.328887,2.255390,-0.944841,-1.265208,1.855537,0.487145,1.056215,-1.966369,-0.711665,-4.430747,-1.919913,1.588658,-4.352418,-4.027906,1.910019,0.768764,1.086513,-2.316361,0.137148,-4.083142,-2.728351,-0.820648,-4.216687,-2.467726,1.468408,1.975797,1.817478,-4.579210,0.708039,-5.103113,-1.980394,-0.233647,-3.352917,-2.444752,0.549878,0.605743,1.794346,-2.947656,-0.210683,-4.905038,-0.098732,-0.533960,0.198901,0.186754,-0.003794,-0.412769,-0.318498,0.056792,0.075322,-0.133060,-0.481539,-1.009745,-0.024827,0.019054,-0.298359,0.023314,-0.361707,0.108819,0.048290,-0.231769,-0.209050,-1.539378,0.213743,-0.053420,-0.091619,-0.091590,-0.269574,0.088992,0.178315,-0.032661,0.057018,-0.158041,0.198906,0.056873,-0.356135,0.354176,0.102440,-0.903520,0.241865,0.520468,-0.125303,1.167638,-0.099304,-0.315799,0.218210,0.225385,0.419397,-1.860792,-0.471669,-0.657659,-1.068041,1.178757,0.331433,-1.765705,1.255347,-0.359411,0.292533,-1.998540,-0.259920,-0.915470,-0.768409,-0.128324,-0.610358,-1.013674,1.257696,1.147167,1.008843,-1.610771,-0.306135,-0.905024,-2.110860,0.320463,-2.927617,-0.549080,0.706478,1.505343,1.094438,-0.965326,-0.033655,-2.293594,-1.589297,0.801863,-1.423359,-0.595171,1.456030,0.885725,1.104501,-0.513413,-0.128075,-2.573370,0.180712,-0.255203,-0.364190,-0.955336,-0.256769,-0.768255,-0.056139,-0.067171,-0.322514,-0.159948,0.374920,-1.377067,-0.621290,-0.346957,0.397975,0.129645,0.191999,0.025601,0.451693,0.356188,-0.105034,-1.119909,-1.003814,0.315222,0.143305,0.179487,-0.015101,-0.453518,-0.254684,0.225846,-0.831978,0.355420,-0.464176,1.271538,-0.967320,0.253219,-0.194804,-1.542447,-0.350919,0.208560,-1.521559,1.083617,0.685748,0.734903,-0.568932,-1.721007,-0.461746,0.542880,-1.302826,-0.177830,0.417663,-1.929582,0.560987,-1.473950,0.913722,-1.061542,0.629921,0.453105,-0.654456,0.275808,0.934308,-0.159463,0.618235,-0.374781,-0.137176,-0.279089,-0.029654,-0.353431,0.002719,-0.603509,-1.550377,-0.002435,-0.720916,0.238551,0.255654,0.073699,-0.218402,0.099371,0.593115,-0.552020,-2.255741,-0.036182,-0.541463,-0.128944,0.600334,0.034347,-0.064386,0.155534,0.469676,-0.968862,0.704648,-0.445944,0.372927,-0.782958,0.733812,-0.461073,0.355122,0.442778,-0.528581,0.348561,0.284526,-1.120822,-0.668020,-0.387255,0.341908,-0.282456,0.081004,-0.537860,-0.934961,-0.174011,-0.199833,-0.409185,-0.453552,1.039933,-0.011758,0.327701,0.534782,-0.682347,-1.032133,0.081912,-1.287878,0.345347,-0.077412,2.202988,-1.505478,0.201279,0.033089,0.305669,-1.594926,-1.193339,-0.678365,1.076153,-0.535651,1.109290,-0.273066,-1.013064,-0.146288,1.388052,-3.275174,-0.055077,1.046215,-0.584647,0.042445,-0.975932,0.842747,0.351515,0.044837,1.636968,-2.783279,-0.419815,0.746512,-0.031772,1.007469,0.404430,-1.759932,-1.103910,-1.240803,0.037579,0.808914,-0.433110,-0.588370,0.036811,0.814773,0.885888,0.346198,-3.153848,-2.284997,0.139789,1.200352,0.248190,-0.707208,-0.304343,0.450939,0.122498,0.951873,-2.353623,-2.096432,0.206893,1.625944,-0.330386,0.170740,-1.571002,0.181908,-0.513004,0.244963,-0.053833,-0.226961,-0.356827,-0.395857,-0.593735,0.170140,-1.299382,0.474460,-1.004501,-0.058305,-0.929803,-0.086350,0.110860,-0.237965,-0.792031,0.223032,0.450535,1.173027,0.260775,-0.319992,-0.622630,0.984635,1.117796,0.533994,-0.704417,-0.418566,1.116979,0.285914,0.835710,-1.513979,-0.431544,0.941090,0.715882,-0.295448,-2.296197,0.547443,1.278397,-1.376500,0.182604,-0.684076,0.282297,0.865211,1.126576,-2.055995,0.032205,0.201821,0.944640,-0.117964,-0.164045,-0.234535,-0.093737,-0.751363,0.513062,-2.072263,0.204040,-0.636026,0.256096,0.360602,-0.466698,0.348292,-2.614873,-1.302533,0.445228,0.273066,0.820921,0.566237,-1.271039,0.386962,-0.483100,1.168281,-4.408047,-0.089405,0.724768,0.651646,0.367154,0.700570,-0.651060,0.368955,-2.212652,1.199809,-4.118185,0.475656,0.311145,0.352610,0.487490,0.066244,0.441270,0.444440,-0.110351,0.102729,0.042003,-0.927420,-0.682534,0.359574,-1.102224,-0.590699,0.262264,0.024750,-0.315607,-0.873823,-0.222287,-0.673582,-0.612856,0.189031,-1.277710,-0.171490,0.290054,0.657678,-0.348811,-0.465511,-0.429565,0.168445,-0.007824,0.512510,-0.704033,-0.778577,0.586295,0.708145,-0.773452,-0.470593,-1.023674,0.205251,0.206927,0.306918,-0.419728,-1.192936,1.077997,-0.723322,-0.736906,0.016782,-1.082858,-1.095572,0.154818,-0.408254,0.460737,-2.115505,1.916551,0.217258,-1.190649,0.820038,-0.514974,-1.714931,0.983866,-0.953064,1.159958,0.763078,-1.256274,-1.000644,-0.278099,0.677419,-0.578163,0.732021,0.687429,-0.779019,0.957526,0.307941,-3.755873,-0.657789,-0.211735,0.867996,-1.210947,0.753702,1.524738,-1.276524,-0.143296,0.320275,-0.541866,-0.010817,-1.079943,0.131360,-1.624859,0.439363,1.066307,-1.892022,-0.480800,-0.612774,0.616377,0.149477,-0.056403,-1.548422,-0.680892,-3.538264,0.607270,-0.193853,-0.693164,-0.333263,0.773082,0.309099,0.489556,0.112753,0.574018,-1.751742,0.314310,0.383993,0.264401,-0.697035,0.183546,0.239492,0.085087,0.153473,0.633519,-1.352600,0.122412,-0.089818,0.222427,-1.712074,0.857900,0.081168,-0.148641,0.291731,-0.468946,-1.475636,0.396183,-0.558057,0.258018,-2.611934,1.054357,0.065236,-1.352725,0.456650,-0.390530,-2.776642,0.888861,-1.218675,0.771656,0.066052,-0.682400,-0.488571,-0.432192,0.227427,-0.227926,-0.245265,0.726238,-0.540339,0.796531,0.342427,-2.189362,-0.855331,0.794533,-0.783918,0.175058,0.549647,-0.471261,-0.110899,-0.342946,-0.086494,-1.008045,-0.163666,0.666223,-0.797021,0.000773,0.367466,-0.210616,-0.088771,-0.893054,0.915677,-0.196855,1.163843,0.753380,-0.222076,0.381817,0.456313,-0.672525,0.023958,-0.538297,-1.115303,-0.514176,-2.649902,1.851027,0.380929,-0.873193,-2.949990,0.925754,-2.249127,0.882281,-2.375559,0.044510,-1.490977,1.354690,0.477538,0.407163,-5.471410,1.026451,-1.308878,0.888919,-4.447245,-0.406236,-0.239742,0.800988,0.278397,0.575829,-4.131125,0.893909,-1.798539,0.867771,-2.735517,0.022584,-0.180817,0.024846,0.259843,0.148574,-1.057873,0.817617,-1.959971,0.556064,-0.787194,-0.372840,-0.537106,-0.079405,0.013698,0.280491,-0.349344,0.436731,-0.740791,0.350722,0.172984,-0.408729,-0.640162,0.873486,-0.501122,0.319862,-0.036979,-0.248190,0.304435,-0.215553,0.019112,-0.187503,-0.214468,0.437500,-0.395967,0.229122,0.154564,-0.672597,0.275607,-0.746204,-0.252191,0.464916,1.014837,0.326726,-0.367716,0.147546,-0.254684,-1.367917,0.195414,-1.242806,0.040120,0.147431,0.093785,-0.457764,0.167642,0.343964,-0.437596,-1.196754,0.131004,-0.226687,-1.958962,0.626814,-0.332571,0.259108,-0.474892,-1.382898,1.295088,-1.208152,-0.780551,-0.230918,-2.624820,-0.290611,0.097306,0.281966,-0.901685,-2.014486,1.977344,-1.341995,-2.438081,-2.316889,-1.716925,0.883924,1.923333,-0.228512,-0.477692,-1.637232,0.806618,-1.727400,-0.781834,-3.042565,-0.946128,0.744936,0.989534,-0.039967,0.689542,-1.289574,0.995817,-1.536415,-1.836853,-3.783246,-0.588182,0.564455,1.671199,0.901858,-0.912070,-1.624600,0.375775,-2.993146,0.304007,-0.692093,-0.736127,0.893266,0.752112,0.302014,-0.594335,-1.133243,0.526948,-3.005456,-0.145068,-1.189328,-0.379776,0.608624,0.895292,0.053872,-0.727852,-0.032647,0.349987,-2.322605,0.484071,-2.924222,-0.126269,0.515300,0.661987,-0.398052,-0.204895,-0.110947,1.096677,-4.857996,0.255309,-2.092950,-0.378575,0.281365,0.167825,-1.979928,0.435016,0.040658,1.566434,-4.098910,-0.711324,-4.879735,-1.207335,1.370645,-0.938002,0.062075,0.469671,0.036403,0.021311,0.296226,-1.058334,-2.651238,-0.222158,0.428153,-1.222772,-1.321380,0.452154,0.230952,0.612155,0.381020,0.222158,-4.198800,0.295664,1.600478,-0.230462,-0.499805,0.856190,0.766204,0.435886,0.453177,-0.118877,-2.663077,-0.316073,1.189626,-0.203483,0.007675,0.584359,0.236192,-0.615786,0.295837,-0.768947,-2.172878,0.117820,0.681214,0.401323,0.550781,0.773649,-0.004962,-0.538682,-0.044299,-0.728044,-1.056441,0.396625,0.657068,0.479099,0.148757,0.319867,-1.158824,-1.872655,-0.485094,-0.235981,0.033751,0.488614,0.184497,0.636871,0.272509,0.355525,-1.581588,-1.990269,0.336178,0.277115,0.925499,0.783620,-0.014592,0.503898,0.477678,-0.081979,-0.540281,-1.277931,0.243916,0.474916,0.317490,0.779163,0.740090,0.239237,-0.418047,0.004534,-0.376246,-0.777962,-0.251116,0.070029,-0.790470,-0.307317,-0.957872,-0.785114,-0.107772,0.428696,0.170870,0.135366,0.333196,-0.994649,-1.220294,-0.108853,0.165462,-1.715604,-0.827242,0.643245,0.274809,0.352446,0.397504,-0.119141,-0.698159,-0.279588,0.154309,-0.501626,-0.954198,1.173512,0.588864,0.127594,1.157782,0.285554,-1.035918,-0.425871,1.236163,-0.469118,-0.367081,0.881868,0.297552,-0.467375,0.545137,0.386486,-1.895662,-0.128406,0.261053,0.217009,-0.179083,0.618956,-0.526688,-1.388547,-0.160731,-0.214266,-0.089655,0.510516,0.485142,0.790230,0.305270,0.748073,-1.806104,-3.319800,-0.122575,0.409810,0.343575,0.987680,-1.395285,1.073343,0.507289,0.397538,-3.166048,-2.715167,0.274391,0.641473,0.741132,1.100068,-1.840873,0.735849,0.083396,-0.321947,-2.256476,-1.671156,0.730979,0.958324,0.533586,0.735537,-0.225472,-0.179708,-0.723793,-0.266740,-1.736449,-1.030802,0.426529,0.625181,-0.096120,0.200822,-0.397884,-1.561328,-1.568528,0.335727,-0.411107,0.949976,0.513081,0.077200,0.493345,0.100774,-0.396654,-2.294276,-2.292754,0.522932,0.241922,0.261135,0.366928,0.368225,0.241932,-0.213690,-0.918237,-1.589825,-1.934193,0.957545,0.544004,0.355160,-0.144319,0.487750,0.486755,-0.421015,0.616482,-0.925134,-0.742986,0.779600,0.416496,-0.044755,-1.213334,0.812526,0.839807,-1.488067,0.163195,-0.441472,-0.682520,-0.214559,-0.711709,-1.528389,-0.715517,0.550267,0.380612,0.874279,0.275126,0.731555,-0.607918,0.699350,-0.547063,-2.801085,0.375645,0.154655,0.407365,0.702021,-1.992637,0.591516,-0.878904,0.007248,-0.988910,-1.450545,-0.064578,-0.525387,0.138656,0.889668,-0.797943,0.658889,-0.977320,0.094150,-0.668649,-0.275184,0.115961,-0.203109,0.448758,1.545166,1.084631,0.471688,-2.528807,-0.398532,-2.093041,0.876046,0.173310,-0.260222,0.755830,0.583375,-0.316351,-2.199136,-1.610949,0.577928,-1.407428,0.721171,0.601852,0.566679,0.567957,0.391481,-0.117561,-2.368076,-1.972766,0.575757,0.030567,0.544705,-0.388575,0.417264,0.657357,0.111946,-2.154592,-2.077666,-0.883429,0.479916,0.433018,0.707487,-1.184953,0.595387,0.436241,-0.201860,0.445689,-1.427625,-0.578941,0.202446,0.441976,0.239766,-1.331654,0.832583,0.531150,-1.241471,0.278498,-0.389853,-0.443950,-0.335448,0.121547,-0.593720,0.115577,0.726579,-0.496876,0.212249,0.100121,0.019496,-0.897785,0.393422,-0.274353,-0.875753,0.778318,-1.428062,-0.015673,0.641607,-0.880249,-0.046878,-0.063838,0.017858,-0.028045,-0.215770,0.104506,-1.494123,-0.578764,0.916978,-1.041686,-0.706929,-0.024515,-0.234982,0.031355,0.127421,0.254377,-0.628043,-0.100731,1.042186,-2.308061,-1.219396,-0.087532,-0.095481,-0.391246,0.515195,0.168416,-0.739523,-0.306356,0.286154,-2.665421,0.072311,0.488941,0.336130,-0.781800,-0.122061,-0.039453,-0.422197,0.567683,0.483763,-2.826056,-0.173329,-0.224401,0.267989,-0.268858,0.747597,-0.887535,0.250904,0.447149,0.450310,-0.742737,-0.636242,-0.333834,-0.219482,0.160644,0.610973,-1.525276,0.216202,0.230453,-0.271240,0.429844,-0.630147,-0.311572,-0.418580,0.121730,0.368566,-1.112364,0.405223,-0.498585,-0.504162,0.260727,-0.341207,0.124093,-0.625536,0.384147,-0.148954,-0.424695,-0.060591,-1.277475,-0.117762,-0.014366,-0.659403,0.193896,0.101100,0.352754,0.062114,0.362072,-0.349156,0.220947,0.468845,-0.713375,-0.993040,0.456097,-1.011143,0.370007,0.317312,-0.443105,0.228863,-0.362523,0.680282,-0.321082,-0.966537,0.321769,-0.830355,0.337053,0.330991,-0.446904,0.264108,0.026633,0.086153,-1.109506,-0.647750,0.265602,-0.585296,0.187835,-0.141989,-0.762929,0.394469,-0.303858,0.521852,-2.019275,0.562193,0.921479,-1.088699,-0.321140,-0.392038,-1.124842,-0.505771,-0.726886,0.439997,-1.594009,0.286903,0.271240,-0.889322,0.093675,0.554143,-1.587923,0.057431,-0.268469,0.572832,0.173209,0.357081,-0.005442,-0.481530,0.138416,0.646098,-1.455516,0.270419,0.059477,0.401534,0.331750,-0.069386,-0.231236,-0.481674,-0.037147,0.507870,-0.625464,0.185649,-0.999289,-0.136322,0.777127,-0.320117,0.090159,-0.246677,0.187508,0.400372,-0.297504,0.145183,-0.334377,-0.661545,0.227038,-0.356664,0.225246,0.326154,0.074290,0.042762,-0.308954,0.296178,0.368239,-0.977627,-0.554618,-0.472481,0.119107,-0.287398,0.245885,-0.139333,-1.363710,0.388402,-0.133608,-0.804216,0.572476,-0.281226,-0.188694,-0.813918,0.154247,-0.146077,-1.935975,0.229785,-0.337317,-0.724230,0.278695,-0.428494,0.188757,-0.046566,0.847996,-0.406721,-1.399507,0.020250,0.970029,0.262806,-0.729182,0.417807,1.204007,-3.023391,-0.287240,-1.971984,-1.319992,0.308388,0.097152,0.348484,-0.354401,0.274305,0.683452,-2.546247,0.206860,-0.196639,-2.314238,0.428235,-0.369339,0.304588,-0.350155,0.165606,0.009707,-2.102551,0.153862,0.106076,-1.127854,0.153843,-0.368234,0.927199,-0.064923,0.035999,-0.381231,-0.866983,-0.005528,0.776334,-0.287158,0.715935,-0.458038,0.251260,0.533206,-0.420266,-0.653970,0.111706,-0.344195,0.351630,0.000077,0.589542,0.075985,-2.528711,0.244833,0.288373,-0.286476,0.496611,-0.052930,-2.250991,0.083214,0.365391,0.398383,-3.090375,0.067210,0.553259,-0.230222,0.348719,-0.518826,-2.190784,0.084395,0.207681,0.448182,-3.747271,1.122661,0.348431,-0.516126,0.259550,-0.309195,-2.058420,-0.746401,-0.202984,0.265073,-3.286327,-0.195544,-0.162167,-1.588644,0.547913,0.227206,-2.329103,-1.014520,-0.027920,1.263825,-0.224934,0.952248,-0.070596,1.886589,-1.803448,-0.896061,-2.245457,-0.515435,0.210957,-1.287763,-0.091422,-0.177763,-1.072215,1.114895,-1.642256,0.147388,-4.137234,-0.088824,0.515348,-0.117892,0.264852,-0.392514,-0.804211,0.765503,-0.266274,0.767540,-3.366198,-0.365588,0.671031,-0.250352,0.909510,-0.102109,-0.586511,-0.024597,-0.245347,0.357446,-1.036931,-0.059674,0.569758,-0.450953,-0.598692,0.037848,-0.670680,-2.239415,0.277753,-0.960706,-1.249756,0.608687,0.173637,0.284953,-5.335333,1.178507,-0.102090,-1.684509,1.009443,-1.733606,-3.697280,0.954860,-0.755373,0.934577,-4.736344,1.975932,0.738390,-1.232475,1.196812,-2.065822,-3.385929,0.880398,-2.283147,0.965701,-3.195030,-0.026110,1.260986,-2.585176,-0.016215,-0.806310,-3.309555,0.620795,-2.817439,1.273094,-2.779792,-1.919370,-0.966887,-0.859922,1.085730,0.374267,-1.738486,-0.419565,-2.368057,1.163618,-2.671756,3.611636,1.729965,0.508081,-1.795023,1.498417,-0.020615,0.818054,-3.590454,0.457149};


float weights_bias[] = {1.874809,0.240583,0.095230,2.559407,2.352885,-0.307689,-0.177067,2.654851,2.300659,-0.355171,-0.226987,2.252478,2.664380,-0.356356,-0.316122,3.042953,3.600993,-0.299740,0.124201,3.196961,3.142609,0.006874,-0.254739,3.233623,1.664182,-0.275044,0.140586,1.019381,1.923844,-0.279946,0.123392,1.710877,2.139622,-0.352001,0.226135,1.808715,0.003676,-0.006004,-0.008244,0.003835,-2.647595,0.948329,0.722843,-1.826703,0.060929,-0.144775,-0.215200,0.019842,0.203331,0.042147,0.046903,0.253995,-2.585117,0.644776,0.396602,-2.268950,-3.455243,0.541710,2.008958,-0.716897,0.154877,-0.245559,-0.086898,0.028790,0.056874,0.144751,-0.213799,0.259440,-3.341993,0.865653,2.022736,-0.924705,-3.554748,-1.160677,0.485305,0.268154,-0.143806,-0.155932,0.020073,-0.184720,0.184435,-0.022590,-0.239373,0.154186,-3.789283,-0.891362,0.941256,-0.142299,0.729974,0.942887,1.032635,0.361675,-0.015491,0.123388,-0.032049,0.220657,0.228943,0.205836,-0.034875,0.223499,0.884783,1.286791,0.910770,0.849062,0.745400,1.475676,2.097614,1.502868,0.178141,0.001346,0.047338,0.110444,0.287006,-0.179955,0.272246,-0.134294,0.280837,1.322749,2.201113,1.230449,0.258241,-0.031857,0.962755,1.359867,0.088978,-0.130320,0.033369,0.083658,0.285493,0.084157,-0.013449,-0.213845,0.294216,0.143338,1.446518,1.535245,2.408755,1.078743,0.216787,1.081374,0.225766,0.020383,0.050069,0.243744,0.281187,0.043910,0.114240,-0.097628,2.427903,1.148571,-0.119376,1.182845,1.619992,0.864294,0.993966,0.746511,0.231253,0.278855,0.148426,-0.225946,0.156507,0.292558,0.176727,-0.123072,1.983636,1.458778,1.228687,0.957045,1.584141,0.912637,0.899002,1.016225,0.140231,-0.058980,-0.195011,0.048663,0.140378,-0.000684,-0.096655,-0.180941,1.620054,1.279345,0.678401,1.264998,0.005841,-0.322290,-0.612552,-0.114404,-0.062883,0.084432,-0.066935,0.356521,0.140039,-0.250599,-0.152334,-0.168601,-0.271276,-0.538300,-0.276301,-0.272500,0.039494,0.266044,0.352870,-0.360907,-0.031543,0.142855,-0.187496,-0.738658,-0.129136,-0.274374,0.174438,0.216734,0.241615,-0.213018,-0.125841,0.071029,-0.106406,-0.587548,-0.022846,-0.001969,0.079729,0.071511,0.105902,-0.181482,-0.332627,-0.069758,0.060317,-0.372531,0.110984,-0.005292,0.104357,0.021005,-0.000309,-0.201851,-0.183753,-0.427133,0.120512,-0.211563,0.109425,-0.002210,0.081687,-0.030425,-0.034693,-0.098325,0.001778,-0.675611,0.200093,-0.218556,0.056513,-0.051449,-0.077109,-0.201704,0.191451,0.010099,0.130532,-0.760302,0.125897,-0.522235,0.037665,0.109436,-0.258965,-0.379021,0.306234,0.132032,0.411585,-0.848422,0.122488,-0.965372,0.011998,0.049704,-0.483479,-0.748705,0.385252,0.392690,0.312640,-1.119913,-0.029444,-1.538646,-0.158812,-0.180066,0.115210,0.402478,0.289295,-0.860359,-0.599468,0.471453,-0.075899,-0.792095,-0.220970,-0.032068,0.176365,0.424170,-0.129061,-0.444010,-0.455904,0.550838,-0.110101,-0.426362,-0.280586,-0.779781,0.200271,0.247215,-0.018871,-0.191618,-0.728183,0.361344,0.060184,-0.084649,-0.113219,-0.731866,0.070555,0.086854,-0.093170,-0.120295,-0.661112,0.179355,0.045774,0.141032,0.051591,-0.315497,0.050138,0.056399,-0.292226,-0.000610,-0.487305,0.066475,0.081891,0.186043,0.164288,-0.147886,0.003798,0.021011,-0.332912,0.016949,-0.649304,0.109941,0.070595,0.197057,0.193316,-0.295343,-0.016518,-0.044000,0.018524,0.115097,-0.673126,0.113569,0.128154,0.152843,0.060757,-0.240692,-0.160731,-0.137409,0.076785,0.349985,-0.439059,0.024236,0.217526,-0.146353,-0.120287,-0.389062,-0.331187,-0.593895,0.191834,0.615046,-0.106019,-0.158838,0.249896,-0.582574,-0.101925,-0.076011,0.228636,0.454971,-0.569480,-0.899535,-0.637663,0.290855,-0.093477,-0.336778,-0.280327,0.029815,0.435605,0.511034,-0.694796,-0.615231,-0.776572,0.207217,-0.023792,-0.071527,-0.144297,-0.639574,0.359306,0.105004,-0.189113,-0.294855,-0.520132,0.309057,0.035523,0.220834,0.026137,-1.123068,0.099144,-0.006391,-0.055739,-0.060331,-0.265647,0.403699,0.094981,0.313829,0.010280,0.144235,-0.032466,0.088480,-0.678210,0.183113,-0.317868,0.394418,-0.180857,0.048013,-0.091246,0.277695,-0.045977,0.035438,-0.699826,0.338749,-0.288415,0.436341,-0.321298,-0.018193,0.128585,-1.344949,-0.146757,-0.317910,-0.207727,0.348098,0.085726,0.316804,-0.080988,0.172286,0.295788,-1.881543,-0.245738,-0.380457,-0.539967,0.538535,0.243563,0.073669,0.333050,-0.027092,0.119466,-1.023825,-0.480593,-0.544540,-0.691921,0.902859,0.046995,-0.352677,0.347241,-0.366188,0.130452,0.277001,0.159064,0.355647,-0.311170,-0.399487,-0.183256,0.441500,0.022268,-0.135520,0.066557,0.278492,0.575010,0.450402,-0.038753,-0.555762,-0.486080,0.373781,-0.691130,0.098110,0.070845,-0.664141,0.302992,0.612603,0.195192,-0.323481,-0.314900,0.065155,-0.738277,0.011906,-0.314891,0.081165,-0.051492,0.624592,0.119277,0.024649,-0.379442,-0.298461,0.072002,-0.293773,-1.514383,-0.178756,-0.139181,0.295668,0.002553,0.447488,-0.045946,-0.855075,0.466569,0.008965,-2.188191,-0.056303,-0.552210,-0.047213,-0.125311,0.551813,0.488065,-0.537436,0.365466,0.462723,-0.737201,-1.355874,-0.749473,-0.176718,-0.141084,0.606091,0.590211,-0.168565,-0.001169,0.412438,0.007879,-0.687724,-0.549441,-0.316189,-0.228309,0.747954,0.487980,-0.245919,0.000441,0.011724,0.302118,0.015499,-0.160669,-0.696524,-0.243806,0.217417,0.507531,-0.412653,0.125609,-0.358114,-0.070658,-0.114509,0.549594,0.348754,-0.093703,-0.110930,-0.542884,0.408869,-0.914423,-0.810955,-0.113029,-0.062907,1.007862,0.405415,0.205469,-0.379471,-0.823598,0.479055,-0.530871,-1.196014,-0.208036,-0.365219,0.665519,0.521101,-0.164500,-0.486038,-0.434130,0.035299,-0.079861,-0.329468,-0.955180,0.007020,0.610850,0.399141,0.064783,-0.277421,-0.478439,-0.374262,-0.028518,0.263088,-2.114113,-0.769785,0.455721,-0.032584,0.341730,0.201734,0.274805,-0.504094,0.054346,0.234290,-0.925004,-0.685157,0.101797,-0.037597,0.062970,0.460818,0.524732,-0.754399,0.050833,0.094445,-0.703268,-1.390906,-0.327377,0.384234,0.109084,0.513639,0.405698,-0.008059,0.027350,-0.611721,-0.607943,-0.543082,-0.152623,0.411873,0.221354,0.410270,0.114168,0.474231,-0.224191,-1.299902,-0.434452,0.139860,0.376543,0.044670,0.039536,0.382656,-0.376707,0.140166,-0.253733,-1.302651,-0.596313,-0.732174,0.174062,0.633447,-0.283849,0.730815,-1.040050,0.176488,-0.326381,-1.291948,-0.738198,-0.473879,0.224488,0.513149,-0.341343,0.713832,-1.297080,0.085478,0.151335,-1.227012,-0.762764,-0.379834,0.159287,0.201302,-0.650125,0.385466,-1.017046,0.050064,0.376978,0.183322,-0.460547,-0.444721,0.027038,-0.061032,0.091405,-0.037664,-0.264966,0.261599,-0.183957,0.547645,0.065265,-1.090272,0.154622,0.059257,0.406288,0.391472,-0.044653,0.190405,-1.043226,0.242400,0.052189,-0.490395,0.171459,0.363775,-0.259624,0.397540,0.179011,-0.510797,-0.102661,-0.837623,-0.263992,-0.653099,0.233452,0.341920,-0.187282,0.125963,0.176618,-0.184958,0.343674,-1.392518,-0.934150,0.371394,0.493623,0.099693,-0.002072,-0.074750,-0.231503,-0.008044,0.217362,-1.177696,-0.780372,0.432434,0.947911,-0.015577,0.040739,-0.172035,-0.577648,-0.401565,0.248841,-0.712944,-0.650501,0.388817,-0.200925,0.537220,-0.184230,0.321531,-0.771664,-0.281759,-0.368117,-0.410422,-1.145239,0.020895,0.095725,0.789417,-0.516459,0.875665,-1.733416,-0.199475,-0.353826,-0.116257,-0.261434,-0.039113,0.062812,0.567817,-0.573839,0.643576,-0.922408,-0.190334,-0.602199,0.045780,0.297582,-0.372900,-0.120541,0.416669,-0.738641,0.483304,-0.095620,-0.194324,-0.840953,0.285837,0.414281,-1.159330,-0.080146,0.508205,-1.410329,0.457042,0.289638,-0.482357,-0.317748,-0.111631,0.190637,-0.186417,0.294198,0.289385,-1.672320,0.267623,0.359368,-1.042977,-0.024516,-1.064379,-0.142159,0.193066,0.805275,0.057605,-0.666395,-0.081617,0.230653,-1.218609,0.200990,-1.371627,-0.663241,0.444585,1.326814,-0.544713,-0.234883,-0.492644,-0.157301,-0.718905,-0.046836,-0.445997,-0.688958,0.047975,1.323533,-0.707055,-0.166554,-0.203184,-0.563860,-0.551208,-0.162434,-0.182524,-0.806177,0.454344,-0.315009,0.376989,-0.325708,0.234357,-0.524769,0.384671,-0.825684,0.080010,-0.998322,0.131894,-0.347600,0.695865,0.049743,0.540205,-1.302036,0.111644,-1.692914,0.095746,-0.168076,-0.333876,-0.213959,0.562191,-0.249739,0.525984,-1.474289,-0.003894,-0.787708,0.228118,0.250339,-1.443753,-0.367883,0.431072,-1.099374,0.476575,-0.554010,-0.597456,0.140631,0.171205,0.550831,-1.584088,-0.049621,0.421845,-2.199273,0.431168,0.083945,-0.988590,0.471421,-0.424627,0.425702,0.098408,0.146471,0.125808,-1.050771,0.179943,-0.007880,-0.598350,0.286082,-0.715568,0.042873,0.392170,0.907967,-0.540832,0.376652,-0.333183,-0.466028,-0.820075,-0.135684,-0.311221,-0.803130,0.123741,1.442618,-1.213377,0.542521,-0.652588,-0.712241,-0.520796,-0.577113,0.208259,-0.352411,-0.108753,0.800445,-0.966373,0.220080,-0.528449,-0.578467,-0.441541,-0.434076,0.439628,-0.278819,-0.476655,-0.677829,0.298980,0.034837,-0.391187,0.008371,0.246035,-0.931287,0.462786,-1.164325,-1.128508,-0.981529,0.927183,-0.444724,0.137530,-0.015899,0.106966,-1.856379,0.477243,-1.311842,-1.570811,-1.145820,1.301784,-1.578141,0.426985,-0.388228,-0.033254,-1.087304,0.120225,-0.814445,-1.461116,-0.921307,1.449164,-2.222306,0.833458,-0.326146,-0.373939,-0.332057,-0.456026,-0.078373,-0.928224,-0.371122,1.144238,-1.838076,0.696072,-0.385731,-0.410406,0.164782,-0.774037,0.062306,-0.670522,-0.005758,0.312915,-0.854304,0.224889,-0.398905,0.093353,0.237448,-0.105907,-0.545612,-0.813869,0.416665,-0.290271,-0.511519,-0.138368,-0.584073,-0.043661,-0.415386,0.754549,-0.410207,-0.093144,0.283552,-0.432770,-0.618378,-0.261504,-0.297425,-0.141891,-0.798284,0.702168,-0.301025,-0.044018,0.189743,-0.157898,-0.333230,0.049270,-0.058141,0.098002,-0.439989,0.186321,-0.561432,0.047091,-0.012007,0.416158,0.267230,-0.682788,-0.074657,-0.043700,-0.517038,0.001609,-0.425694,-0.029340,0.318853,0.426937,-0.337917,-0.313792,0.085290,-0.544233,-0.641103,-1.197793,-0.187477,-0.476786,0.501645,0.491084,-0.739908,-0.186070,0.481279,-0.680445,-0.143515,-1.203429,-0.052921,0.182269,0.561859,0.438477,-1.090442,-0.077250,0.133164,-1.142115,0.170594,-0.782398,0.247112,0.123135,0.462856,0.266283,-0.984287,-0.054220,0.074118,-1.636288,0.305752,-1.163927,0.263124,-0.283339,0.447457,0.159079,-0.826892,0.136568,0.306540,-2.167746,0.327572,-1.667757,0.207399,-0.044303,0.217887,0.037569,-0.329873,0.291734,0.774020,-2.470178,0.130135,-1.893971,-0.082728,0.514132,-0.219504,-0.519400,0.054849,0.087753,0.959151,-2.835240,0.025522,-1.946688,-0.539782,0.109621,-0.854267,-1.341656,0.289585,0.412529,1.198713,-1.916449,-0.407812,-2.425142,-0.941913,0.238259,0.218503,0.535981,0.158287,-1.175254,-0.269719,0.547137,-0.514930,-1.496262,-0.343914,-0.342502,0.233369,0.397595,0.074587,-0.344997,-0.293516,0.406581,-0.128193,-0.903893,-0.202771,-0.782479,0.217902,0.279028,-0.117517,-0.015310,-0.195817,0.386801,-0.012206,-0.313664,-0.044818,-0.258789,0.204590,0.189550,-0.206003,0.106677,-0.284481,0.168033,-0.023576,-0.036231,0.089514,-0.037028,0.101664,0.122687,-0.499799,-0.012309,-0.207234,0.030902,0.091461,0.253684,0.201221,-0.049505,0.079702,0.056423,-0.527782,-0.052672,-0.179737,-0.005023,0.054278,0.250495,0.128077,-0.101521,-0.005809,-0.026717,-0.225730,0.016160,-0.176287,-0.036963,0.068533,-0.021248,0.074650,0.003953,-0.040565,-0.244614,-0.006823,0.160883,0.014431,-0.242499,0.129519,-0.241984,0.005050,-0.063993,-0.589431,-0.949475,0.574856,0.584224,0.184630,-0.891970,0.303820,-1.393114,-0.542200,-0.299432,0.310265,0.735587,-0.233797,-1.571393,-0.866510,0.818681,-0.062704,-1.056188,-0.162116,-0.293892,0.035159,0.261427,-0.145518,-0.167017,-0.343858,0.309534,0.062389,-0.186549,-0.065011,-0.462945,-0.003176,-0.041061,-0.041175,0.078469,-0.097818,0.342663,0.120978,-0.045036,0.031410,-0.189883,-0.078342,-0.263554,0.154182,0.160044,-0.085926,0.262477,0.098019,0.116345,0.055985,0.204533,-0.114835,0.022747,-0.390976,0.041510,-0.101460,0.201423,-0.002692,0.043473,0.192820,0.280045,0.013007,0.239713,-0.306592,-0.165609,-0.274366,0.220021,-0.084233,0.125317,0.237547,-0.189520,0.069390,0.142081,0.054498,-0.243440,-0.560923,0.194242,0.054743,0.133225,0.199878,-0.098564,0.008432,0.087757,-0.059416,-0.123721,-0.378068,0.068589,0.171560,-0.089529,0.281585,-0.701381,-0.239778,-0.469899,-0.054946,0.580439,-0.660232,-0.526598,0.279386,-0.863588,-0.615956,0.046047,-0.570279,0.283989,-0.281988,-0.044342,-0.641441,0.824544,0.100018,-0.209219,0.023070,-0.115219,-0.818375,-0.500395,0.105749,-0.041991,0.012336,0.334392,0.271881,0.243602,0.064247,-0.402611,-0.743675,-0.737017,0.454088,0.147700,0.085613,0.151577,0.146989,0.247854,0.171972,-0.701025,-0.726633,-0.266334,0.430128,0.273032,0.176086,-0.054737,0.243498,0.169362,-0.245402,0.362038,-0.524006,0.010852,-0.057132,0.114774,-0.114836,-0.273275,0.172364,-0.163448,-0.437170,0.383055,-0.196517,0.104415,0.192945,-0.272579,-0.273909,0.225842,-0.034219,0.186488,0.076167,-0.230419,0.000487,0.012197,0.314640,-0.544347,-0.294658,0.299785,0.030707,0.284698,0.276696,-0.617863,0.061193,-0.142485,0.029087,-0.930678,0.194236,0.121502,0.186633,0.139152,0.674133,-1.395547,-0.254374,-1.216130,-0.318647,-0.326840,0.595619,-0.515574,0.504702,-0.489770,-0.305713,-0.185929,-0.421967,-0.084896,0.076162,-0.435105,-0.986055,0.738584,-0.483597,0.268268,0.133051,-0.177197,-0.542287,-0.966013,0.498495,-0.170500,0.159640,0.240157,-0.314812,0.462007,0.288549,-1.274934,-0.391069,-0.512631,0.431912,0.127968,0.077234,-0.248522,-0.093234,0.338803,0.106261,-0.475600,-0.218508,-0.088045,0.372728,0.204699,0.270452,-0.799460,0.116235,0.121924,-0.677503,0.427105,-0.008000,0.177999,0.235927,0.071183,0.130416,-0.699701,0.275778,0.095359,-0.908008,0.370856,-0.075531,0.025222,0.280233,-0.196457,-0.063777,0.062982,0.064696,0.218168,0.024286,-1.003398,-0.089275,-0.037844,0.445741,-0.227559,-0.018121,0.289599,-0.140585,0.300907,0.268669,-1.144968,-0.050886,-0.223903,0.214844,-0.301561,0.210423,0.193623,-0.307498,0.160607,0.634416,-0.848102,0.034509,-0.645784,-0.008697,-0.710480,0.574248,-0.400450,-0.118161,-0.520662,-0.141812,-1.278310,0.489670,0.964017,-0.376266,-0.310089,-1.452012,0.210841,-1.388451,0.037771,0.112049,-1.333292,0.007276,0.094772,0.306986,-0.050642,-0.073537,-0.139262,-0.407165,0.283494,0.372986,-0.432344,0.026562,-0.353811,0.276781,-0.237113,0.282194,-0.371991,-0.127955,0.345345,0.153262,-0.069339,0.095426,-0.388081,0.167543,-0.324651,0.345046,-0.505733,0.117235,0.042713,-0.797535,0.365209,0.268506,-0.170005,0.177575,-0.276971,0.165372,-0.234059,0.195270,-0.069975,-0.310766,0.108997,-0.033007,-0.090940,0.233080,-0.221268,0.020421,0.076030,0.012119,0.086332,0.160087,-1.501248,-0.017751,0.040556,0.247340,0.017313,0.045670,0.108490,-0.279348,0.144086,0.255398,-0.333084,-0.044095,0.051265,-0.037475,0.043315,0.193478,-0.030720,-0.251116,-0.231520,0.305322,-0.156397,0.318290,-0.001285,-0.476476,0.031838,0.142285,-0.657566,-0.059923,-1.012201,-0.213499,-0.642377,0.715919,1.162098,-0.924519,-0.092524,-1.683078,-0.673297,-0.720189,-0.866923,0.261174,-0.237236,0.287205,0.462067,-0.766716,0.266007,-0.347099,-1.094106,-0.064921,-0.346746,0.311493,0.033425,0.224020,0.100432,-0.626464,-0.004057,0.080818,-0.620253,-0.013279,-0.270950,0.257247,-0.011334,0.157086,-0.273211,-0.357343,-0.119858,0.364244,-0.168741,0.085122,-0.451275,-0.003407,0.280960,0.116450,-0.236042,-0.067760,-0.145226,0.263868,0.011417,-0.014101,-0.190392,-0.033942,-0.052716,0.029860,0.030464,0.061075,0.069219,0.198179,-0.060649,-0.072520,0.007636,0.085571,-0.239259,0.087301,0.187527,-0.159667,0.163874,0.264325,-0.376315,-0.017226,-0.199035,-0.053653,0.261370,0.148923,0.125658,-0.469458,0.242047,0.169034,-0.820711,0.020594,-0.148498,0.204562,0.125770,0.255558,0.021477,-0.994942,0.378835,-0.071676,-1.315155,0.186194,-0.588832,-0.041144,0.273757,0.638464,0.837061,-1.291731,-0.362675,-1.769682,-0.255892,-0.664823,-0.724971,0.308185,0.405082,0.335034,0.351450,-1.453325,-0.152059,-1.076511,0.032866,0.255475,-0.180878,0.164416,0.060809,0.180393,0.142008,-0.833754,-0.039603,-0.413140,-0.151219,0.110687,-0.381583,0.310595,-0.117583,0.077585,-0.001313,-0.479836,0.004563,0.146208,-0.104386,0.113998,-0.353041,0.172190,0.038297,-0.114226,0.008040,-0.136598,0.021428,0.190344,0.026355,0.085800,-0.142019,-0.034170,0.138603,-0.144041,0.099253,0.030028,0.124157,0.011830,-0.149243,0.098945,-0.172019,-0.214070,0.383612,0.045815,0.045841,0.016233,0.211862,-0.142658,-0.530054,0.095037,-0.080684,0.030381,-0.241689,-0.131227,0.025600,0.007247,0.271126,-0.359501,-1.117077,0.183565,0.157954,-0.059475,-0.256693,0.013540,-0.670293,-0.119739,0.704177,-0.738602,-1.615436,0.081836,0.478295,-0.801396,-0.123138,-0.397279,1.067902,-0.497704,-0.193236,-0.542554,0.674003,-1.307319,0.146212,-0.273862,0.217306,-0.370965,0.525504,-0.563284,-0.624453,-2.232478,0.899936,-0.360780,0.438474,-0.172649,-0.241711,-0.286228,0.332724,-0.033129,-0.159979,-2.429186,0.626144,0.151023,0.303444,0.100448,-0.487211,-0.281313,0.342106,-0.174970,0.200467,-2.338987,0.372272,0.201319,0.155618,-0.020692,-0.328607,-0.432710,0.183405,-0.160098,0.296592,-1.772875,0.302272,0.233701,0.099009,-0.230125,0.252106,-0.422336,0.143914,0.058798,0.239600,-1.609319,0.403273,0.258555,0.238009,-0.584188,0.215333,-0.306492,0.001858,0.015219,-0.016767,-1.595381,0.012991,0.078952,0.509846,-0.879770,-0.144442,-0.338423,-0.453816,0.069632,0.335033,-1.229963,-0.101440,0.127818,0.734766,-0.692980,-0.381678,-0.169546,-0.580570,-0.239022,0.309465,-1.288738,-0.548282,-0.221790,0.801808,-0.057777,0.055719,-0.136743,0.321907,0.105833,-0.237463,0.169657,-0.024520,-0.294775,0.095120,-0.505880,0.143709,0.157462,0.429976,-0.330238,-0.615043,0.565325,-0.637271,-0.661666,-0.554292,-0.382287,-0.500927,0.602863,0.414467,-1.331048,-0.519432,0.624989,-1.212505,-0.297225,-1.447978,-0.197092,-0.367683,0.643400,0.633332,-1.730115,-0.197825,0.607887,-1.421890,-0.304290,-1.116970,-0.149497,0.168818,0.682406,0.576689,-1.624421,-0.154356,0.503828,-1.630734,-0.088783,-1.331967,-0.165861,-0.485785,0.541214,0.479227,-1.263244,0.187466,0.635862,-2.201639,-0.323538,-1.789436,-0.148537,-0.681336,0.286196,0.294861,-0.633943,0.296569,0.994098,-2.116756,-0.427446,-1.696039,-0.266148,0.046211,-0.226971,-0.346424,-0.161104,0.175960,1.002838,-1.518136,-0.342124,-1.539150,-0.553441,-0.183036,-0.723990,-1.032416,0.049327,0.271112,0.933754,-0.515508,-0.425818,-0.613222,-0.560853,-0.152663,0.070710,0.516814,0.361462,-0.811260,0.055730,0.081226,-0.607748,-0.885025,-0.052219,-0.083633,0.086943,0.177702,0.138573,0.027370,-0.100954,0.313538,-0.149609,-0.817159,-0.102042,-0.439935,0.095511,0.139696,-0.109128,0.035369,0.004484,0.106483,-0.054920,-0.298905,-0.043766,0.105369,0.096061,0.069461,-0.227832,0.062535,-0.166203,0.027346,-0.020936,-0.132740,0.033660,0.019440,0.066858,0.060215,-0.575175,-0.058826,-0.143684,-0.246434,0.047809,0.008722,0.156180,-0.025931,0.057365,0.073064,-0.415633,0.013768,-0.037959,-0.173697,0.076089,0.027678,0.188471,0.101044,0.095593,0.067438,-0.238173,0.117739,0.111980,-0.305706,0.123932,-0.030747,0.190482,0.254636,0.082864,-0.057190,-0.035371,0.072402,0.121490,-0.612202,0.151142,-0.224643,-0.256809,0.033447,-0.708923,-0.747246,0.460095,0.541874,0.502289,-1.503195,0.226707,-1.362381,-0.458273,-0.067637,0.215635,0.380178,0.083053,-1.069994,-0.665246,0.551995,0.045048,-0.864700,-0.076700,0.013710,0.013355,0.175163,-0.093673,-0.062118,-0.077844,0.204639,0.091458,-0.069897,-0.037995,-0.304260,0.048259,-0.026077,0.015108,0.121607,-0.033309,0.154921,0.065474,-0.027185,0.003338,-0.188217,-0.053540,-0.146723,-0.057104,0.031567,-0.094557,0.159332,0.037171,0.051057,0.157445,0.205264,0.039005,0.062170,-0.465219,0.038114,-0.001140,0.174951,-0.013314,0.146781,0.169858,0.053852,0.005045,0.095232,-0.305805,-0.117494,-0.252438,0.199867,-0.098133,0.110717,0.188727,-0.025751,0.029116,0.023829,-0.028138,-0.077519,-0.443901,0.132570,0.042230,-0.028109,0.078359,0.092664,-0.028392,0.057233,-0.021734,0.066592,-0.378150,0.095672,0.086951,-0.038176,0.187937,-0.491786,-0.542172,-0.757290,0.053212,0.886194,-0.344149,-0.468201,0.342408,-0.922704,-0.315966,-0.041723,-0.318429,0.371567,-0.343880,-0.293370,-0.740105,0.573437,0.153696,-0.273720,0.010107,0.196941,-0.584668,-0.424497,0.016702,0.194292,0.047201,0.159893,0.101638,0.101094,-0.035898,-0.385001,-0.497726,-0.651632,0.235621,0.131446,0.006831,0.177160,0.103223,0.230720,0.082475,-0.303732,-0.503124,-0.278872,0.297355,0.179345,0.140200,0.013883,0.146116,0.063048,-0.114975,0.489427,-0.334139,0.181958,-0.257405,0.053373,-0.059583,0.141347,0.068253,-0.131027,-0.195911,0.156370,-0.087257,0.111983,0.136493,-0.392940,-0.478085,0.232661,-0.078378,0.113370,0.140742,-0.048877,0.043205,0.141373,0.212204,-0.630095,-0.251213,0.236767,0.085201,0.205072,0.206066,-0.435995,0.061818,-0.018275,-0.006477,-0.767180,0.258048,0.050711,0.100794,0.030125,0.557531,-1.498275,-0.516735,-1.338166,-0.356163,0.538917,0.362649,-0.563668,0.484197,-0.769845,-0.320679,-0.008798,-0.787068,-0.360197,0.176581,-0.117606,-0.574189,0.705651,-0.135787,0.299947,0.068043,0.025475,-0.727206,-1.031611,0.448239,-0.049329,0.150333,0.245192,-0.149321,0.370895,0.199870,-1.121470,-0.502328,-0.380033,0.433684,0.201636,0.264608,-0.087118,-0.115203,0.260810,0.065403,-0.283191,-0.316413,0.031656,0.341535,0.173413,0.177528,-0.649808,0.136490,0.025598,-0.647152,0.293550,-0.102197,0.166511,0.126622,0.008680,0.014633,-0.456888,0.227166,0.083951,-0.758386,0.133338,-0.108810,-0.008683,0.251008,-0.325814,-0.173069,0.078842,-0.023633,0.192447,0.161150,-0.690174,-0.012050,-0.022846,0.273503,-0.302875,-0.021591,0.243219,-0.111857,0.309361,0.257849,-0.855445,-0.057482,-0.342365,0.263180,-0.532517,0.367015,0.132978,-0.083259,0.381644,0.497046,-0.411891,0.054740,-0.543334,-0.220558,-1.176357,0.607961,-0.561315,0.323852,-0.626867,-0.084236,-0.639499,0.509727,0.855355,-0.157955,-0.581828,-0.990310,0.235968,-1.359194,0.154228,0.142713,-1.171613,0.016940,-0.240846,0.312960,-0.362254,0.050011,-0.051374,-0.301686,0.187591,0.294167,-0.315739,-0.056085,-0.509930,0.286780,-0.181683,0.211615,-0.431407,-0.163767,0.150032,0.049621,0.064655,0.170556,-0.247720,0.152828,-0.205134,0.273079,-0.630644,0.137644,-0.033545,-1.043451,0.251741,0.165988,-0.066104,0.176053,-0.243062,0.119228,-0.095287,0.083049,0.011385,-0.242470,-0.080274,0.009681,-0.037386,0.284418,-0.187318,0.008207,0.124271,-0.063148,0.204735,0.200000,-1.401461,0.099509,0.047308,0.229078,0.012982,0.053997,0.213578,-0.268024,0.119620,0.138675,-0.127814,-0.071168,0.024309,-0.151807,-0.002742,0.141523,-0.038934,-0.278616,-0.165744,0.509355,0.291013,0.439133,0.005737,-0.431139,0.165840,0.093338,-0.646106,-0.187338,-1.269781,0.077253,-1.016925,0.545374,0.837367,-0.826144,-0.188576,-1.287773,-0.292464,-0.451079,-0.227394,0.152113,-0.101280,0.284060,0.346323,-0.267612,0.095803,-0.204017,-0.850992,-0.005079,-0.178435,0.265570,0.102216,0.236379,-0.145408,-0.202059,-0.117994,0.208336,-0.569244,0.101269,-0.183418,0.161240,0.172296,0.200764,-0.403951,-0.149601,-0.316256,0.352331,-0.024521,0.121742,-0.290728,-0.115772,0.201111,0.085490,-0.215062,0.062726,-0.186890,0.139435,0.036415,-0.071435,-0.102025,0.025669,-0.149806,0.030029,0.051178,0.096062,-0.008094,0.076156,-0.063630,-0.149877,0.015403,0.081873,0.053485,0.058541,0.129337,-0.190332,0.193180,0.143546,-0.325341,-0.136621,-0.104966,-0.003309,0.691644,-0.024728,0.062770,-0.316120,0.257353,0.072640,-0.720662,0.000704,-0.116156,0.098499,0.421542,0.326835,-0.115884,-0.952016,0.284614,-0.200899,-0.909817,0.156389,-0.461882,-0.083009,0.192965,0.604218,0.655603,-0.719792,-0.447385,-1.565828,-0.343869,-0.372264,-0.244720,0.170452,0.416443,0.351426,0.374419,-1.347192,-0.119833,-0.569419,0.010072,0.134337,-0.267195,0.165601,0.156742,0.267914,0.144459,-0.669282,0.036267,-0.099693,-0.035267,0.106137,-0.335578,0.146646,-0.020966,0.087860,-0.035733,-0.404813,-0.010266,0.200428,-0.039602,-0.041688,-0.303149,0.074682,0.015628,-0.093222,-0.026722,-0.129514,0.009701,0.190144,-0.022347,-0.020771,-0.160237,-0.040324,0.095707,-0.093806,0.128693,-0.041843,0.099899,0.133762,-0.254049,-0.043716,-0.214725,-0.080886,0.457052,-0.013455,0.108173,-0.104099,0.140117,-0.017753,-0.505610,-0.019911,-0.138563,0.126569,-0.010662,-0.189852,-0.057458,-0.026055,0.288952,-0.139715,-1.058936,0.131782,0.127692,-0.021758,0.211246,0.102705,-0.498502,-0.266469,0.636669,-0.410893,-1.096251,0.069945,0.372976,-0.632118,-0.157306,-0.042706,0.788767,-0.788172,-0.238117,-0.459619,0.488842,-1.025441,0.194433,-0.003911,0.503375,0.049123,0.134526,-0.370420,-0.682343,-2.320438,0.850725,-0.041354,0.443926,0.056351,0.149570,0.056008,0.165339,0.088380,-0.057499,-2.016114,0.465452,0.100547,0.205559,0.197093,-0.224984,-0.116787,0.156619,-0.152187,0.140824,-1.469774,0.243683,0.090467,0.087247,0.144080,-0.084631,-0.178236,0.185575,-0.107259,0.207409,-0.970108,0.186761,0.212855,0.022088,-0.114412,0.416235,-0.204682,0.052084,0.007149,0.224034,-0.946975,0.135260,0.162954,0.089843,-0.352891,0.248720,-0.252728,-0.011140,0.070694,0.198130,-1.119147,-0.142426,0.103719,0.279549,-0.562547,-0.042640,-0.282958,-0.366832,0.144380,0.218730,-0.860927,-0.328403,0.215446,0.727186,-0.415776,-0.327101,-0.190664,-0.438427,-0.050918,0.183864,-0.649926,-0.622293,-0.425463,0.677941,-0.642770,0.308494,-0.106903,0.642255,0.207166,-0.888843,-0.007891,-0.116761,-0.760769,-0.750043,-0.359636,-0.157240,0.242653,0.505926,-0.139334,-0.615688,0.239080,-0.460945,-0.521914,-1.848639,-0.217576,-0.488674,0.403754,0.245353,-0.369104,-0.181712,0.266345,-0.653625,-0.127680,-1.436300,0.053215,0.336448,0.393291,0.261569,-0.346335,-0.114595,0.006072,-1.184907,0.183023,-0.945681,0.293296,0.301582,0.319822,0.208651,-0.351337,-0.083553,0.086210,-1.708858,0.348349,-1.117380,0.210832,0.045454,0.268628,0.136495,-0.207396,0.104376,0.331828,-2.041627,0.321701,-1.302717,0.116219,0.017648,0.015669,-0.153936,0.099018,0.187614,0.550827,-2.848659,0.207808,-1.849779,-0.100727,0.459145,-0.279148,-0.548199,0.357758,0.223676,0.796793,-3.326490,0.067023,-2.179870,-0.461140,0.069141,-0.943320,-1.611583,0.337584,0.429448,1.057501,-2.675591,-0.231216,-3.193660,-0.682258,-0.054321,0.121528,0.823070,0.308350,-1.160218,-0.419367,0.557541,-0.647919,-1.825780,-0.389557,-0.435796,0.214612,0.381206,0.016526,-0.256554,-0.207355,0.593949,-0.071198,-0.764045,-0.090779,-0.629541,0.136218,0.305679,-0.001941,0.014064,-0.088209,0.427166,0.170499,-0.105284,-0.068719,-0.306865,0.060963,0.104073,-0.173944,-0.018448,-0.125033,0.125675,0.064602,0.097340,0.119628,-0.154452,-0.008017,0.013873,-0.408190,-0.027340,-0.042662,0.050587,0.122364,0.292148,0.153856,-0.101595,-0.080872,-0.052463,-0.336809,-0.039747,-0.042597,0.038353,0.075293,0.219173,0.025346,-0.188412,-0.186787,-0.113635,-0.015929,0.138777,-0.114055,0.075779,0.050149,0.039059,0.021029,0.029639,-0.226435,-0.303055,0.143460,0.374249,-0.053647,-0.079035,0.122258,-0.312771,-0.047138,-0.318855,-0.758078,-1.032871,0.539372,0.872841,-0.028550,-0.600871,0.354644,-1.407450,-0.522118,-0.387812,0.425490,0.620077,-0.530443,-0.892414,-0.929537,0.582279,-0.140994,-0.636227,-0.097851,-0.241300,0.011013,0.201557,-0.296946,-0.201861,-0.132107,0.155384,0.086384,-0.119424,-0.064347,-0.667717,-0.008751,-0.189124,0.003350,-0.011731,-0.119974,0.238705,0.066538,0.170461,0.110525,-0.441069,-0.203565,-0.240159,0.005546,0.017778,0.047564,0.110418,0.067756,0.157292,0.032470,0.329681,-0.168140,0.062525,-0.414001,-0.018979,0.021874,0.138559,-0.091399,0.108776,-0.008742,0.074991,-0.109846,0.142979,-0.071822,-0.237341,-0.223592,0.212415,-0.096799,-0.025137,0.107175,-0.189100,-0.117463,0.029730,0.182081,-0.087587,