#include <stdio.h>
#include <time.h>
#include <stdlib.h>
#include <math.h>
#include <stdint.h>

#ifndef FUNCTIONS_H
#define FUNCTIONS_H

//  typedef signed char       int8_t;
//  typedef signed short      int16_t;
//  typedef signed long       int32_t;


float weights_bias[] = {1.8748094,0.24058302,0.095229544,2.5594075,2.3528845,-0.30768943,-0.17706689,2.6548512,2.3006592,-0.35517126,-0.22698703,2.2524784,2.6643796,-0.356356,-0.3161225,3.0429533,3.600993,-0.29973987,0.12420149,3.1969612,3.142609,0.0068742028,-0.2547388,3.233623,1.6641821,-0.27504426,0.14058588,1.0193815,1.9238435,-0.2799465,0.12339191,1.7108766,2.1396217,-0.35200053,0.22613499,1.8087145,0.0036761893,-0.0060041817,-0.008244164,0.003834943,-2.6475947,0.9483292,0.722843,-1.8267026,0.060929254,-0.14477463,-0.21520011,0.019842304,0.20333122,0.04214723,0.04690268,0.2539952,-2.5851173,0.64477646,0.3966018,-2.2689502,-3.4552429,0.5417104,2.0089579,-0.7168971,0.15487671,-0.24555854,-0.08689825,0.02879017,0.05687362,0.14475057,-0.21379876,0.2594401,-3.3419926,0.8656526,2.022736,-0.9247046,-3.554748,-1.1606766,0.48530525,0.26815405,-0.14380647,-0.15593156,0.020073306,-0.18471974,0.184435,-0.022590483,-0.23937303,0.15418619,-3.7892835,-0.89136183,0.94125617,-0.14229877,0.7299742,0.9428875,1.0326351,0.36167482,-0.015491123,0.123387866,-0.032049313,0.22065665,0.22894327,0.2058361,-0.034875333,0.223499,0.8847834,1.286791,0.9107701,0.8490615,0.7453996,1.4756761,2.0976143,1.502868,0.17814104,0.0013455626,0.047337923,0.11044363,0.28700596,-0.17995463,0.27224603,-0.13429372,0.28083694,1.3227493,2.201113,1.2304488,0.25824094,-0.031856917,0.96275455,1.3598665,0.08897784,-0.13032001,0.033369053,0.08365821,0.28549328,0.084157094,-0.013448759,-0.21384533,0.294216,0.14333849,1.4465182,1.5352447,2.4087546,1.078743,0.2167874,1.0813743,0.22576635,0.020383019,0.050069127,0.24374396,0.28118727,0.043909717,0.114240214,-0.09762844,2.4279025,1.1485709,-0.1193758,1.1828445,1.6199918,0.8642939,0.99396604,0.74651086,0.23125286,0.27885485,0.14842606,-0.22594614,0.15650687,0.29255816,0.17672667,-0.12307197,1.9836357,1.4587778,1.2286866,0.95704496,1.5841414,0.9126368,0.89900243,1.0162253,0.14023104,-0.05897994,-0.19501127,0.048662882,0.14037816,-0.0006843434,-0.09665531,-0.1809412,1.6200535,1.2793452,0.678401,1.2649983,0.005841017,-0.3222905,-0.61255175,-0.11440446,-0.0628828,0.08443162,-0.06693464,0.35652098,0.14003934,-0.25059864,-0.15233427,-0.16860108,-0.2712759,-0.5382995,-0.56143224,0.04709087,-0.012007463,0.41615802,0.26722986,-0.6827881,-0.07465691,-0.04370009,-0.51703787,0.0016086479,-0.05777652,0.05571867,-0.13674326,0.32190728,0.10583288,-0.23746271,0.16965654,-0.024519905,-0.29477504,0.09512035,-0.64277047,0.308494,-0.10690346,0.64225465,0.20716581,-0.88884306,-0.0078911,-0.11676129,-0.76076937,-0.75004345,-0.27630126,-0.2724995,0.03949398,0.26604372,0.3528703,-0.36090666,-0.031542733,0.14285466,-0.18749645,-0.73865765,-0.42569417,-0.029340098,0.31885332,0.4269368,-0.3379175,-0.31379175,0.08529023,-0.54423344,-0.6411031,-1.1977934,-0.5058803,0.14370948,0.15746233,0.4299759,-0.33023778,-0.6150433,0.5653254,-0.6372706,-0.6616664,-0.5542923,-0.35963646,-0.15724045,0.24265301,0.5059257,-0.13933408,-0.61568767,0.23908043,-0.4609453,-0.5219139,-1.8486394,-0.1291364,-0.2743742,0.17443763,0.2167337,0.2416147,-0.21301757,-0.12584114,0.07102888,-0.10640607,-0.5875481,-0.18747672,-0.47678578,0.5016455,0.4910836,-0.7399076,-0.18607022,0.481279,-0.6804447,-0.14351502,-1.2034287,-0.3822866,-0.5009267,0.6028627,0.4144674,-1.3310481,-0.51943165,0.6249893,-1.2125052,-0.29722503,-1.4479777,-0.21757637,-0.48867375,0.40375382,0.24535297,-0.36910447,-0.18171187,0.266345,-0.6536246,-0.12767984,-1.4363,-0.022846177,-0.0019688788,0.07972908,0.07151055,0.105901875,-0.18148182,-0.33262694,-0.06975823,0.060317207,-0.3725314,-0.052921284,0.18226884,0.56185895,0.4384766,-1.0904423,-0.07725033,0.13316424,-1.1421149,0.17059413,-0.78239775,-0.19709247,-0.36768323,0.6433995,0.63333225,-1.7301155,-0.19782506,0.6078871,-1.4218895,-0.30429015,-1.1169702,0.0532147,0.33644843,0.39329132,0.26156852,-0.34633452,-0.114595145,0.006071683,-1.1849071,0.18302292,-0.94568115,0.11098424,-0.0052915197,0.10435732,0.021005426,-0.00030904004,-0.20185067,-0.18375315,-0.42713305,0.12051204,-0.21156329,0.24711229,0.12313496,0.46285585,0.26628256,-0.9842874,-0.054220486,0.074118055,-1.6362883,0.30575225,-1.1639267,-0.14949729,0.16881764,0.68240565,0.57668895,-1.6244206,-0.15435632,0.50382775,-1.6307344,-0.0887834,-1.3319669,0.29329622,0.30158192,0.3198216,0.20865142,-0.35133708,-0.08355283,0.08621029,-1.7088578,0.3483493,-1.1173799,0.10942538,-0.002209596,0.081687324,-0.030424977,-0.034692824,-0.09832488,0.001778435,-0.67561054,0.20009343,-0.21855599,0.2631237,-0.2833393,0.4474571,0.15907866,-0.82689184,0.136568,0.3065396,-2.167746,0.32757238,-1.6677569,-0.16586132,-0.48578545,0.54121447,0.47922733,-1.2632438,0.18746613,0.6358616,-2.2016385,-0.3235376,-1.7894362,0.21083163,0.045454163,0.2686278,0.13649493,-0.20739594,0.10437601,0.33182815,-2.0416267,0.32170102,-1.3027171,0.056512915,-0.051449165,-0.07710883,-0.20170441,0.19145128,0.01009892,0.1305318,-0.7603017,0.12589727,-0.52223533,0.20739934,-0.044302635,0.2178873,0.037569053,-0.3298732,0.2917337,0.77401996,-2.4701777,0.13013457,-1.8939708,-0.14853683,-0.6813361,0.28619617,0.29486114,-0.6339427,0.2965686,0.99409837,-2.1167555,-0.42744562,-1.6960394,0.11621948,0.017648289,0.01566873,-0.15393591,0.09901785,0.18761449,0.5508271,-2.8486588,0.20780796,-1.8497795,0.037664875,0.109435834,-0.2589649,-0.37902054,0.3062344,0.13203181,0.4115846,-0.8484222,0.122487575,-0.96537185,-0.08272779,0.5141319,-0.2195038,-0.51939994,0.054849464,0.08775276,0.9591507,-2.8352404,0.025522072,-1.9466878,-0.26614848,0.0462105,-0.2269709,-0.34642357,-0.16110384,0.17596003,1.0028381,-1.5181363,-0.3421236,-1.5391498,-0.100727305,0.45914504,-0.27914762,-0.54819936,0.35775754,0.22367603,0.7967929,-3.3264904,0.06702322,-2.1798697,0.011997926,0.04970417,-0.48347893,-0.74870527,0.3852516,0.3926902,0.31263998,-1.1199127,-0.029444283,-1.5386463,-0.5397823,0.10962115,-0.8542665,-1.3416562,0.28958452,0.4125295,1.1987131,-1.9164487,-0.40781218,-2.425142,-0.5534407,-0.18303622,-0.72399044,-1.0324157,0.049326666,0.27111197,0.93375355,-0.5155082,-0.42581794,-0.61322206,-0.4611396,0.069140814,-0.9433199,-1.6115829,0.33758438,0.42944786,1.0575014,-2.6755912,-0.23121564,-3.1936603,-0.1588125,-0.18006629,0.11521046,0.40247756,0.2892945,-0.8603586,-0.5994684,0.47145265,-0.07589868,-0.7920953,-0.94191325,0.23825856,0.21850318,0.53598076,0.15828708,-1.175254,-0.26971874,0.54713744,-0.5149301,-1.496262,-0.56085294,-0.15266311,0.070710085,0.516814,0.361462,-0.81125987,0.055730123,0.08122606,-0.60774755,-0.8850247,-0.6822576,-0.054320663,0.121528305,0.8230695,0.3083502,-1.160218,-0.41936696,0.5575409,-0.64791876,-1.8257804,-0.22096969,-0.032068085,0.17636475,0.42417026,-0.12906101,-0.44401005,-0.4559045,0.55083805,-0.110100515,-0.42636245,-0.34391403,-0.3425023,0.23336923,0.39759457,0.07458671,-0.34499735,-0.2935157,0.4065813,-0.1281934,-0.9038932,-0.052219022,-0.0836332,0.086942546,0.17770162,0.13857281,0.02737005,-0.100954056,0.31353784,-0.14960942,-0.8171592,-0.3895572,-0.43579614,0.21461213,0.38120595,0.0165258,-0.2565538,-0.20735475,0.5939492,-0.07119826,-0.76404476,-0.28058553,-0.779781,0.20027138,0.24721482,-0.018870799,-0.19161814,-0.7281835,0.36134446,0.06018401,-0.08464875,-0.20277134,-0.7824786,0.21790181,0.2790276,-0.11751661,-0.0153102875,-0.19581684,0.3868011,-0.012206403,-0.31366387,-0.102042474,-0.43993488,0.09551074,0.13969637,-0.109128095,0.035368547,0.004483596,0.10648252,-0.054920487,-0.2989049,-0.09077868,-0.6295412,0.13621832,0.30567917,-0.00194077,0.014063614,-0.08820893,0.42716563,0.17049882,-0.10528445,-0.11321877,-0.7318656,0.070555255,0.08685361,-0.093169704,-0.12029535,-0.6611124,0.1793546,0.045774356,0.14103246,-0.04481785,-0.25878853,0.20459048,0.18955009,-0.20600322,0.106677085,-0.28448087,0.16803308,-0.023575615,-0.036231294,-0.043766465,0.105369195,0.0960609,0.06946082,-0.22783217,0.06253486,-0.16620348,0.02734613,-0.020935846,-0.13274008,-0.06871933,-0.3068647,0.060962513,0.10407294,-0.17394388,-0.01844763,-0.1250334,0.12567502,0.0646016,0.097339936,0.05159071,-0.3154969,0.050138015,0.0563986,-0.29222605,-0.00060971885,-0.48730466,0.06647471,0.08189128,0.18604267,0.08951378,-0.037028417,0.101663776,0.12268726,-0.49979857,-0.012308816,-0.20723382,0.030901777,0.09146136,0.25368366,0.03366006,0.019439934,0.066857584,0.060214594,-0.57517546,-0.058826275,-0.1436841,-0.24643433,0.047808897,0.008722171,0.11962752,-0.15445171,-0.008016661,0.013873458,-0.40818995,-0.027339961,-0.04266157,0.050586596,0.12236414,0.29214826,0.16428761,-0.14788616,0.00379756,0.021010982,-0.33291194,0.01694919,-0.6493044,0.109941,0.0705948,0.19705707,0.20122069,-0.04950506,0.07970186,0.056423318,-0.5277818,-0.052672055,-0.17973688,-0.0050230296,0.054277588,0.2504948,0.15618005,-0.025931118,0.057364535,0.073064275,-0.4156332,0.013768407,-0.0379593,-0.17369652,0.07608898,0.02767842,0.15385604,-0.10159537,-0.08087152,-0.052463222,-0.33680895,-0.039746888,-0.042596508,0.03835273,0.07529325,0.2191727,0.19331625,-0.29534337,-0.016517563,-0.044000357,0.018523952,0.1150969,-0.673126,0.11356914,0.12815402,0.15284291,0.12807706,-0.10152065,-0.005808826,-0.02671659,-0.22573014,0.016160458,-0.1762868,-0.036963128,0.06853267,-0.021247966,0.18847096,0.10104443,0.09559285,0.067437895,-0.23817272,0.1177392,0.11198006,-0.30570632,0.123931535,-0.030747453,0.025346499,-0.18841161,-0.18678698,-0.113634884,-0.015929477,0.13877735,-0.11405469,0.07577898,0.050148785,0.039059334,0.060756728,-0.24069208,-0.16073118,-0.13740927,0.07678472,0.34998477,-0.43905875,0.024235705,0.21752584,-0.14635278,0.07465037,0.0039530452,-0.04056474,-0.2446139,-0.0068231784,0.16088279,0.014430778,-0.24249887,0.12951855,-0.2419837,0.19048187,0.25463578,0.08286391,-0.05718971,-0.035371147,0.07240231,0.121489905,-0.61220247,0.15114217,-0.22464336,0.02102919,0.029639222,-0.22643477,-0.30305547,0.14345983,0.3742486,-0.053646818,-0.07903493,0.12225788,-0.31277052,-0.120286815,-0.38906187,-0.33118674,-0.5938947,0.19183408,0.615046,-0.10601886,-0.15883814,0.24989624,-0.58257425,0.0050503113,-0.06399318,-0.58943135,-0.94947547,0.5748557,0.58422405,0.18463016,-0.89196974,0.30381992,-1.3931141,-0.25680864,0.033446938,-0.70892286,-0.74724627,0.4600946,0.5418744,0.50228876,-1.5031947,0.22670744,-1.3623809,-0.047137626,-0.3188552,-0.75807834,-1.0328714,0.5393724,0.87284064,-0.028550316,-0.60087126,0.35464415,-1.4074498,-0.10192462,-0.07601129,0.22863589,0.45497108,-0.5694798,-0.8995351,-0.63766295,0.29085517,-0.09347734,-0.33677772,-0.54220045,-0.2994315,0.3102653,0.7355866,-0.23379749,-1.5713933,-0.86651045,0.8186815,-0.06270376,-1.0561882,-0.45827302,-0.067636974,0.21563546,0.38017774,0.08305343,-1.0699937,-0.66524583,0.5519953,0.045048483,-0.8646999,-0.52211756,-0.387812,0.42548952,0.620077,-0.5304425,-0.89241374,-0.92953694,0.5822791,-0.14099373,-0.6362268,-0.28032726,0.029814944,0.4356053,0.5110343,-0.6947959,-0.6152305,-0.7765717,0.20721658,-0.02379245,-0.07152666,-0.1621164,-0.29389226,0.035158645,0.2614265,-0.14551847,-0.16701671,-0.34385785,0.309534,0.06238924,-0.18654917,-0.076699585,0.013710103,0.0133548435,0.17516261,-0.0936725,-0.06211771,-0.07784396,0.20463893,0.091457844,-0.06989671,-0.0978513,-0.24130005,0.011013473,0.20155676,-0.29694605,-0.20186098,-0.13210663,0.15538397,0.0863844,-0.11942446,-0.14429691,-0.63957447,0.3593065,0.10500364,-0.18911332,-0.29485536,-0.52013236,0.30905667,0.03552306,0.22083439,-0.065011226,-0.46294454,-0.0031757522,-0.041060608,-0.041174874,0.07846915,-0.097817704,0.3426629,0.1209784,-0.045035735,-0.037995454,-0.30426022,0.048259232,-0.026077434,0.015108288,0.12160659,-0.033309303,0.15492073,0.06547403,-0.027185058,-0.06434718,-0.6677168,-0.00875074,-0.1891242,0.0033495212,-0.01173073,-0.11997416,0.2387054,0.06653801,0.17046054,0.026136667,-1.1230683,0.09914374,-0.00639113,-0.055738617,-0.0603309,-0.26564738,0.40369928,0.094980985,0.3138288,0.031409618,-0.18988279,-0.07834178,-0.263554,0.15418185,0.16004364,-0.08592643,0.26247713,0.09801922,0.116345026,0.0033384813,-0.18821655,-0.053539842,-0.14672275,-0.05710383,0.03156745,-0.09455673,0.15933226,0.037171174,0.051056955,0.11052515,-0.44106862,-0.20356525,-0.24015933,0.005545681,0.017778015,0.047563534,0.11041836,0.067756355,0.1572917,0.010279731,0.14423506,-0.03246602,0.08848037,-0.6782097,0.18311346,-0.31786782,0.39441842,-0.18085665,0.048013136,0.055985205,0.20453279,-0.114834554,0.022746539,-0.39097628,0.04151032,-0.10146048,0.20142297,-0.0026917765,0.04347264,0.1574446,0.20526434,0.039005317,0.06216993,-0.46521854,0.03811404,-0.0011403892,0.17495105,-0.013314111,0.14678112,0.032469653,0.3296812,-0.16813995,0.06252452,-0.41400132,-0.018978737,0.021874022,0.13855861,-0.09139896,0.10877631,-0.09124562,0.2776948,-0.045977127,0.0354378,-0.6998263,0.3387493,-0.28841504,0.43634146,-0.3212985,-0.018192545,0.19281973,0.2800451,0.013006527,0.2397129,-0.3065916,-0.16560926,-0.27436578,0.22002076,-0.08423287,0.12531732,0.16985793,0.053852025,0.0050451444,0.09523182,-0.30580455,-0.11749353,-0.25243807,0.1998674,-0.09813261,0.110717215,-0.008741978,0.0749906,-0.10984613,0.142979,-0.07182246,-0.2373411,-0.22359164,0.2124148,-0.096799254,-0.025136653,0.12858535,-1.344949,-0.1467565,-0.31791034,-0.20772718,0.34809786,0.08572605,0.31680393,-0.08098778,0.17228551,0.23754655,-0.18951957,0.06938963,0.1420809,0.054498386,-0.24343961,-0.56092304,0.19424236,0.054743487,0.13322546,0.18872735,-0.025750792,0.029116124,0.023828812,-0.02813797,-0.077519454,-0.44390136,0.13257016,0.04223002,-0.028108973,0.107175335,-0.18910001,-0.11746281,0.029729964,0.18208118,-0.08758683,-0.47055644,0.2480326,0.11848569,-0.0865853,0.29578823,-1.8815432,-0.24573806,-0.3804566,-0.5399666,0.5385347,0.24356343,0.07366906,0.33305025,-0.027092233,0.19987835,-0.09856388,0.008432119,0.087756716,-0.059415545,-0.123721495,-0.3780679,0.068588644,0.17155991,-0.089528695,0.07835947,0.09266375,-0.028392237,0.05723287,-0.021733858,0.066591784,-0.37815025,0.09567232,0.086951345,-0.038175523,0.111534365,-0.42423487,-0.24172401,-0.13231474,0.03040998,0.29423177,-0.22438237,0.012043312,0.21696381,-0.26895154,0.119465835,-1.0238249,-0.48059273,-0.5445404,-0.69192106,0.9028588,0.04699465,-0.3526773,0.34724098,-0.3661877,0.2815846,-0.7013809,-0.23977804,-0.4698992,-0.05494608,0.5804391,-0.6602325,-0.52659816,0.2793857,-0.86358833,0.1879369,-0.49178565,-0.5421716,-0.75729,0.053212076,0.8861941,-0.34414887,-0.46820125,0.34240812,-0.9227038,0.054031197,-1.3359758,-0.6993859,-0.9200343,-0.23085834,1.3003653,-0.59089965,-0.50471467,0.4169831,-1.0752025,0.13045208,0.27700087,0.1590642,0.3556474,-0.31117037,-0.39948675,-0.18325557,0.44150007,0.02226801,-0.13551958,-0.615956,0.046047468,-0.57027894,0.28398883,-0.2819884,-0.044341605,-0.641441,0.82454425,0.10001774,-0.20921941,-0.31596637,-0.041722927,-0.31842887,0.37156722,-0.3438797,-0.29337,-0.7401055,0.57343686,0.15369555,-0.27371952,-0.005340411,-0.1587577,-0.8844856,0.023809696,-0.34822,-0.07074763,-0.38277653,0.37377623,0.16189519,0.18148221,0.06655673,0.27849212,0.5750099,0.4504024,-0.038753398,-0.5557617,-0.4860801,0.3737814,-0.69113004,0.09811022,0.023069864,-0.11521866,-0.8183752,-0.5003948,0.105748795,-0.041991442,0.012336175,0.33439153,0.27188113,0.2436019,0.010107276,0.19694129,-0.58466756,-0.42449707,0.016702479,0.19429234,0.04720057,0.15989348,0.10163809,0.10109395,0.08411594,0.08741633,-0.63423455,-0.5899973,0.24327667,0.06543514,0.2129475,0.21779738,0.104717776,0.3316272,0.07084475,-0.6641407,0.30299157,0.6126027,0.19519182,-0.32348073,-0.31489974,0.06515491,-0.7382772,0.011906323,0.06424688,-0.40261063,-0.74367493,-0.73701674,0.4540878,0.14769971,0.08561323,0.15157738,0.14698888,0.24785368,-0.03589844,-0.38500103,-0.4977264,-0.6516319,0.2356209,0.13144627,0.006831498,0.17715985,0.103222825,0.23071952,0.21915153,-1.1005946,-0.6153673,-0.36014184,0.47622657,0.10181094,0.18301354,0.09502277,0.078906864,0.3797792,-0.31489146,0.08116455,-0.051491935,0.62459236,0.11927737,0.024648834,-0.37944221,-0.29846084,0.072002396,-0.29377276,0.1719721,-0.7010254,-0.72663295,-0.26633447,0.43012768,0.27303246,0.17608556,-0.054737058,0.24349776,0.16936229,0.08247464,-0.3037324,-0.50312406,-0.2788724,0.2973553,0.17934532,0.1402004,0.013883049,0.14611614,0.063047916,0.059049,-0.11905326,-0.5973413,0.09302822,0.2772341,0.14190891,0.15462059,-0.13495417,0.09468563,0.070315234,-1.514383,-0.17875594,-0.1391809,0.2956682,0.0025529396,0.4474883,-0.045946047,-0.8550752,0.46656856,0.008965065,-0.24540211,0.36203772,-0.52400637,0.010852098,-0.057132468,0.114773884,-0.11483596,-0.27327484,0.172364,-0.1634481,-0.11497485,0.48942667,-0.33413893,0.18195783,-0.25740477,0.053373136,-0.05958266,0.14134695,0.06825292,-0.13102663,-0.3262096,0.3686398,-0.22567071,0.26446748,-0.06424862,0.00038487389,0.025029466,-0.21528329,0.023551218,0.005200654,-2.188191,-0.056303408,-0.55221,-0.04721316,-0.1253109,0.5518126,0.48806503,-0.53743565,0.36546615,0.46272287,-0.43717015,0.38305542,-0.19651684,0.10441527,0.19294548,-0.27257857,-0.2739091,0.22584212,-0.034219205,0.18648818,-0.19591062,0.15636985,-0.08725667,0.11198279,0.13649337,-0.39293993,-0.47808525,0.2326608,-0.07837789,0.11336953,-0.67451507,0.059052892,-0.112155266,0.06980311,0.28534165,-0.34476283,-0.19932815,0.13115987,0.07568724,0.27625763,-0.73720056,-1.3558737,-0.749473,-0.17671835,-0.14108402,0.6060909,0.5902107,-0.16856496,-0.0011687055,0.41243777,0.07616738,-0.2304188,0.0004867172,0.012196823,0.31464034,-0.5443471,-0.294658,0.2997849,0.030707013,0.28469798,0.14074159,-0.048876736,0.043204952,0.14137265,0.21220449,-0.63009495,-0.2512127,0.23676711,0.085201226,0.20507167,-0.14208256,-0.75566167,-0.08856213,-0.05655792,0.20622274,-0.4668815,-0.022151416,0.20417954,0.1935631,0.2804982,0.007879394,-0.68772364,-0.54944086,-0.31618914,-0.22830923,0.747954,0.48797965,-0.24591875,0.00044080178,0.011724256,0.27669632,-0.61786276,0.06119344,-0.14248472,0.029086757,-0.93067765,0.19423647,0.121502385,0.18663342,0.13915244,0.20606577,-0.43599477,0.061818212,-0.018275268,-0.006477454,-0.76717985,0.25804833,0.05071076,0.100793734,0.030125193,0.25929862,-0.9473562,-0.021055408,-0.38914523,0.06808659,-0.61848897,0.42089865,0.095011145,0.42396253,0.1305825,0.30211762,0.015499271,-0.1606692,-0.69652396,-0.24380596,0.21741672,0.5075309,-0.41265342,0.12560858,-0.35811377,0.67413324,-1.3955467,-0.2543743,-1.2161298,-0.31864697,-0.32684022,0.59561926,-0.5155742,0.50470245,-0.48977044,0.55753106,-1.4982747,-0.51673484,-1.3381664,-0.35616302,0.53891665,0.36264908,-0.56366765,0.48419705,-0.7698449,0.59066856,-1.1842787,-0.1727747,-1.4990258,-0.64106303,0.22104846,0.5612634,-0.6764522,0.62077016,-0.73608446,-0.070657946,-0.114508964,0.54959446,0.34875375,-0.09370311,-0.11092973,-0.5428841,0.40886924,-0.9144232,-0.8109548,-0.30571297,-0.18592928,-0.42196736,-0.08489554,0.0761623,-0.43510497,-0.98605543,0.7385838,-0.48359668,0.26826787,-0.32067925,-0.008797768,-0.7870684,-0.36019674,0.17658082,-0.117605984,-0.574189,0.70565104,-0.13578723,0.299947,0.0732089,-0.17986977,-0.46225703,-0.0046654264,0.09598643,-0.51485825,-0.29444718,0.3585696,-0.8593394,0.33069652,-0.11302944,-0.06290671,1.0078617,0.40541545,0.20546874,-0.37947068,-0.8235983,0.47905484,-0.53087103,-1.1960139,0.13305123,-0.17719653,-0.5422866,-0.96601313,0.49849468,-0.1705004,0.1596403,0.24015705,-0.31481168,0.46200716,0.068043046,0.0254751,-0.7272061,-1.0316106,0.4482387,-0.049328946,0.15033314,0.24519224,-0.14932147,0.37089548,0.17562616,-0.23611596,-0.22420326,-0.59238344,0.44509727,-0.19091764,-0.004820903,0.28535864,-0.623827,0.27620244,-0.20803584,-0.3652188,0.665519,0.521101,-0.16449985,-0.4860383,-0.43413034,0.035298932,-0.07986088,-0.32946783,0.28854892,-1.274934,-0.39106876,-0.51263064,0.43191227,0.12796777,0.07723369,-0.24852228,-0.09323434,0.3388029,0.19987021,-1.1214702,-0.50232846,-0.380033,0.43368375,0.20163578,0.26460782,-0.08711782,-0.115202844,0.26081035,0.33434013,-1.4092672,-0.022796819,-0.06861822,0.49101472,0.11739923,0.32864845,-0.18215643,-0.24844217,0.23285851,-0.9551801,0.0070204856,0.61085016,0.39914063,0.064783104,-0.277421,-0.47843876,-0.37426192,-0.028518014,0.2630876,0.10626091,-0.47559953,-0.21850756,-0.08804499,0.37272826,0.20469919,0.2704516,-0.79946,0.116234556,0.12192369,0.06540281,-0.28319126,-0.3164134,0.03165551,0.34153494,0.17341332,0.1775279,-0.6498079,0.13648966,0.025597798,0.048395302,0.13076344,0.08867531,0.1634283,0.19264728,-0.04868021,0.12061003,-0.8552023,0.06693822,0.011212195,-2.1141129,-0.7697848,0.4557206,-0.03258436,0.34172988,0.20173447,0.27480525,-0.5040943,0.054345723,0.23429026,-0.67750263,0.42710462,-0.007999525,0.17799853,0.23592721,0.07118281,0.13041641,-0.69970095,0.27577814,0.09535872,-0.64715225,0.2935505,-0.10219722,0.16651094,0.12662233,0.008680414,0.014632979,-0.45688808,0.22716577,0.08395057,-1.4898094,0.29739738,0.18512763,0.0044966685,0.21431659,-0.19130722,0.10872506,-0.26020578,0.091378696,0.16223952,-0.92500424,-0.6851567,0.10179709,-0.037596557,0.062969506,0.46081805,0.524732,-0.7543986,0.05083251,0.0944447,-0.90800786,0.3708563,-0.07553118,0.025221942,0.28023255,-0.19645658,-0.06377664,0.06298151,0.0646956,0.2181676,-0.7583858,0.13333781,-0.10880988,-0.008683206,0.25100783,-0.32581368,-0.17306864,0.07884174,-0.023632627,0.19244689,-0.47732747,-0.15433605,0.067814484,-0.15330367,0.2741498,-0.34021828,0.050475918,0.07349089,0.06092129,0.18644685,-0.70326823,-1.390906,-0.32737717,0.3842337,0.109083906,0.5136393,0.40569758,-0.008058574,0.027350185,-0.6117206,0.024286067,-1.0033982,-0.089274816,-0.0378443,0.44574136,-0.22755928,-0.01812109,0.2895991,-0.14058521,0.3009065,0.1611498,-0.6901743,-0.012050219,-0.02284632,0.27350265,-0.30287454,-0.021591099,0.24321938,-0.11185733,0.30936098,0.2096562,-1.8811871,0.063551195,-0.114219524,0.33061862,-0.30546147,0.12211961,0.22128285,-0.13885716,0.15491459,-0.6079428,-0.54308194,-0.15262322,0.41187304,0.22135384,0.41026968,0.11416796,0.47423065,-0.22419102,-1.2999021,0.26866916,-1.1449679,-0.05088612,-0.22390328,0.21484442,-0.3015613,0.21042326,0.19362293,-0.30749846,0.16060664,0.25784877,-0.85544455,-0.05748211,-0.34236452,0.26317957,-0.5325168,0.36701486,0.13297796,-0.08325924,0.38164356,0.2040447,-1.3611357,-0.15839265,-0.21535693,0.3264278,-0.44977129,0.26011974,0.091190785,-0.23891196,-0.24657579,-0.4344521,0.13986039,0.37654266,0.044669773,0.039535645,0.38265622,-0.376707,0.14016578,-0.25373316,-1.3026507,0.63441646,-0.84810233,0.0345092,-0.6457841,-0.008696596,-0.7104798,0.57424766,-0.40044996,-0.118160866,-0.5206616,0.49704647,-0.4118906,0.054740474,-0.5433338,-0.22055793,-1.176357,0.60796106,-0.56131464,0.32385173,-0.62686735,0.40963417,-0.78499466,0.46622533,-0.25295395,-0.023592511,-0.60597825,0.16697824,-0.20889986,-0.24908154,-1.2333144,-0.59631294,-0.7321739,0.17406242,0.6334468,-0.28384948,0.730815,-1.0400499,0.17648792,-0.326381,-1.2919478,-0.14181237,-1.2783096,0.48967037,0.96401656,-0.37626603,-0.31008944,-1.4520122,0.21084097,-1.388451,0.037771247,-0.084235616,-0.63949895,0.509727,0.8553553,-0.15795451,-0.5818284,-0.99030983,0.23596764,-1.3591944,0.15422752,0.0956463,-1.8282464,0.37098047,0.6849446,-0.16562964,-0.027763093,-0.93173873,-0.0649566,-0.98843557,-0.29863954,-0.73819757,-0.47387883,0.22448798,0.51314896,-0.34134343,0.71383154,-1.2970797,0.08547791,0.15133478,-1.2270119,0.11204874,-1.333292,0.0072756833,0.094771996,0.30698612,-0.050641783,-0.07353677,-0.13926242,-0.40716472,0.2834943,0.14271292,-1.1716127,0.016939944,-0.24084616,0.31296,-0.36225381,0.05001072,-0.051373627,-0.301686,0.18759145,0.19705124,-1.0003555,0.10929501,-0.033495765,0.2927556,-0.08417707,-0.05909379,-0.012468021,-0.18635044,0.046546444,-0.7627638,-0.37983438,0.15928744,0.20130223,-0.65012455,0.38546586,-1.0170457,0.050064072,0.376978,0.1833225,0.37298575,-0.43234387,0.026561728,-0.35381123,0.27678064,-0.2371126,0.28219414,-0.37199056,-0.12795463,0.34534466,0.29416725,-0.31573862,-0.05608521,-0.5099301,0.2867798,-0.18168285,0.21161541,-0.43140668,-0.16376671,0.15003186,0.28944623,-0.3362486,0.11430628,-0.41282085,0.13779412,-0.30931064,0.2510251,-0.14716838,0.1855785,-0.005625367,-0.46054658,-0.44472137,0.027038192,-0.061031688,0.091405325,-0.037663676,-0.26496595,0.2615995,-0.18395655,0.54764545,0.1532622,-0.069338776,0.09542558,-0.38808075,0.16754296,-0.32465136,0.34504625,-0.5057329,0.117234774,0.04271297,0.049621023,0.06465488,0.1705556,-0.24771959,0.15282752,-0.20513356,0.2730787,-0.6306439,0.13764423,-0.03354466,-0.1294009,0.22779599,0.25050074,-0.42255056,0.006356044,-0.48194954,0.25594646,-0.12665226,0.3482475,-0.042335287,0.06526487,-1.0902724,0.15462156,0.059257317,0.40628844,0.39147204,-0.04465275,0.19040549,-1.0432261,0.24240024,-0.79753506,0.36520937,0.2685062,-0.17000456,0.17757487,-0.27697098,0.16537224,-0.23405933,0.19526997,-0.069975026,-1.0434515,0.2517412,0.16598816,-0.0661036,0.17605336,-0.24306226,0.11922805,-0.095286906,0.08304867,0.011385053,-0.390272,0.38987765,0.28543785,-0.27133772,0.28072762,-0.35220724,0.16421445,0.20970935,0.10361874,0.13116334,0.052189272,-0.49039528,0.17145889,0.3637754,-0.2596236,0.39753965,0.1790111,-0.5107971,-0.10266061,-0.8376233,-0.3107656,0.1089967,-0.03300731,-0.09094014,0.23307951,-0.22126801,0.020421278,0.076030485,0.012119314,0.086332254,-0.24247028,-0.08027439,0.009681413,-0.037385937,0.28441814,-0.1873181,0.008207099,0.12427136,-0.063148424,0.20473485,0.008398625,-0.42861536,0.105570324,-0.07055064,0.2757699,-0.15704763,0.05875129,0.13230515,-0.33921805,0.102511905,-0.26399162,-0.65309864,0.23345196,0.34191975,-0.18728225,0.1259629,0.17661807,-0.18495847,0.34367383,-1.3925177,0.16008659,-1.5012481,-0.017750772,0.040556297,0.24733965,0.017312858,0.045670427,0.10849045,-0.2793476,0.14408572,0.19999975,-1.4014615,0.09950871,0.047308013,0.22907759,0.012982178,0.05399725,0.21357755,-0.26802424,0.119620465,0.36876288,-1.3965623,0.07927205,0.18257833,0.119078085,0.076495424,0.29892537,0.23338152,-0.34585452,-0.07228497,-0.93414974,0.3713943,0.4936233,0.099693425,-0.0020724584,-0.0747501,-0.23150252,-0.008044313,0.21736197,-1.1776963,0.2553983,-0.33308384,-0.044095412,0.051264945,-0.0374752,0.043314766,0.19347814,-0.030719576,-0.25111595,-0.23152016,0.13867529,-0.12781382,-0.07116843,0.024308564,-0.1518071,-0.0027419028,0.14152251,-0.038934063,-0.27861556,-0.16574359,0.18210714,-0.055377983,0.19947138,-0.14055638,0.030855216,-0.11348604,0.21824075,0.017554618,-0.24373534,-0.5395723,-0.7803716,0.43243393,0.94791085,-0.015577131,0.040738825,-0.17203517,-0.5776476,-0.40156522,0.2488413,-0.7129438,0.3053215,-0.15639672,0.31828958,-0.0012846258,-0.47647628,0.031837743,0.14228465,-0.65756565,-0.059923314,-1.0122015,0.50935477,0.29101318,0.43913272,0.0057367026,-0.4311388,0.16584046,0.093338296,-0.64610577,-0.18733807,-1.2697811,0.25862482,0.1729059,1.1081792,-0.19078256,-0.38013405,-0.14877622,-0.10711384,-0.6451637,-0.19129048,-1.5502713,-0.6505005,0.388817,-0.2009249,0.53722024,-0.18422975,0.32153112,-0.77166414,-0.28175873,-0.36811674,-0.4104219,-0.2134988,-0.64237744,0.7159194,1.1620976,-0.9245189,-0.09252385,-1.6830785,-0.6732973,-0.7201894,-0.86692303,0.07725285,-1.0169245,0.54537386,0.8373666,-0.8261437,-0.18857573,-1.2877734,-0.29246363,-0.4510794,-0.22739413,0.08091378,-0.55851537,0.5567155,0.88679034,-0.6523049,0.11312341,-1.4166932,-0.670633,-0.22103038,-0.7386792,-1.1452392,0.020895367,0.09572477,0.78941685,-0.51645935,0.8756646,-1.7334163,-0.19947451,-0.35382602,-0.11625746,0.26117408,-0.237236,0.28720453,0.46206743,-0.76671606,0.26600736,-0.3470987,-1.0941061,-0.064921305,-0.34674612,0.15211283,-0.10127958,0.28406045,0.34632257,-0.26761198,0.095802926,-0.20401663,-0.8509919,-0.0050786836,-0.17843485,0.16528632,0.037086807,0.33944046,0.25877544,-0.7776083,0.1965288,-0.3753146,-0.77770066,0.11492069,-0.78641546,-0.26143408,-0.039113227,0.062811896,0.5678174,-0.57383865,0.6435756,-0.9224082,-0.19033398,-0.6021991,0.045780115,0.31149304,0.033424746,0.2240196,0.10043242,-0.62646425,-0.004057173,0.08081803,-0.620253,-0.013279206,-0.2709496,0.26557046,0.10221589,0.23637886,-0.14540763,-0.20205867,-0.1179936,0.20833626,-0.5692444,0.101268806,-0.18341805,0.17116141,0.0018423471,0.26335946,-0.11235829,-0.70351166,0.0047414573,0.17662126,-0.4007486,0.19934878,-0.6541981,0.29758215,-0.37289992,-0.12054137,0.4166692,-0.73864126,0.48330376,-0.095620275,-0.19432402,-0.84095263,0.28583673,0.25724652,-0.011333857,0.15708585,-0.27321115,-0.357343,-0.119858384,0.36424392,-0.16874082,0.08512189,-0.4512753,0.1612399,0.17229609,0.20076402,-0.4039512,-0.14960073,-0.31625614,0.3523307,-0.024521148,0.121741645,-0.29072815,0.059870522,0.13690221,0.11293978,-0.11456083,-0.30204657,-0.061435472,0.18796693,-0.05451707,-0.0039988523,-0.3441574,0.41428065,-1.1593299,-0.08014555,0.50820476,-1.4103286,0.4570419,0.28963792,-0.48235697,-0.3177479,-0.111631304,-0.0034067456,0.28095996,0.116450265,-0.2360417,-0.067760356,-0.14522602,0.26386842,0.011417124,-0.014100824,-0.19039154,-0.11577219,0.20111087,0.08549017,-0.21506152,0.062725715,-0.18689035,0.13943465,0.03641471,-0.07143465,-0.1020248,0.037182484,0.0335808,-0.10303646,-0.09267483,-0.06828868,-0.05851295,0.122196,0.016419506,-0.3728061,-0.08209196,0.19063735,-0.1864174,0.29419774,0.28938508,-1.67232,0.2676228,0.35936847,-1.0429769,-0.024516135,-1.0643793,-0.033942465,-0.052716043,0.029860023,0.030463962,0.06107468,0.069218986,0.19817933,-0.060649324,-0.07252013,0.007636471,0.025669482,-0.14980565,0.030029176,0.051178332,0.096062176,-0.008093823,0.07615632,-0.06363033,-0.14987685,0.015402995,0.19841237,-0.40710968,0.039212536,0.19468533,-0.19054157,0.10567798,0.3015931,-0.1704273,-0.13563918,-0.11873903,-0.14215916,0.193066,0.8052754,0.057605132,-0.66639495,-0.08161711,0.23065276,-1.2186086,0.20099,-1.3716267,0.085571215,-0.23925921,0.08730101,0.18752737,-0.159667,0.16387384,0.26432526,-0.37631476,-0.017225588,-0.19903477,0.081872694,0.053485494,0.05854147,0.12933657,-0.19033231,0.19317964,0.14354612,-0.32534125,-0.13662085,-0.104965635,0.23798749,-0.07335502,0.21295713,0.2882853,-0.46635216,0.16306125,0.45155597,-0.4756405,-0.017886156,-0.35999018,-0.6632405,0.44458464,1.326814,-0.54471296,-0.23488256,-0.49264383,-0.15730056,-0.7189048,-0.0468358,-0.4459968,-0.05365345,0.26136997,0.14892308,0.12565826,-0.46945798,0.24204737,0.16903396,-0.8207111,0.02059435,-0.1484981,-0.003308583,0.6916441,-0.024728257,0.0627697,-0.31611994,0.25735325,0.07264007,-0.72066236,0.0007039086,-0.11615607,0.21069491,0.31005782,0.36695653,0.027153678,-0.5059644,0.15897751,0.21774992,-1.0803162,0.004290824,-0.27607104,-0.6889576,0.047974955,1.3235325,-0.70705473,-0.16655414,-0.20318381,-0.5638604,-0.5512084,-0.16243364,-0.18252394,0.20456168,0.1257701,0.2555578,0.02147717,-0.99494207,0.3788355,-0.0716761,-1.315155,0.18619363,-0.58883154,0.098498635,0.4215424,0.3268352,-0.115883626,-0.95201623,0.2846139,-0.2008989,-0.90981716,0.15638863,-0.4618816,-0.118537396,0.26214552,0.8527412,-0.571678,-0.94720894,0.26777053,-0.13176179,-1.5497646,-0.08046043,-0.5125737,-0.80617744,0.45434368,-0.31500894,0.37698933,-0.32570818,0.23435672,-0.52476925,0.38467073,-0.82568353,0.08001036,-0.041144434,0.2737575,0.6384639,0.83706146,-1.2917311,-0.36267483,-1.7696823,-0.25589228,-0.664823,-0.7249711,-0.08300875,0.19296503,0.60421777,0.6556026,-0.71979237,-0.44738537,-1.5658277,-0.3438685,-0.37226433,-0.24472043,0.20461647,0.57144594,0.5027603,0.4331651,-1.2407901,-0.536277,-2.055499,-0.008599261,-0.40186414,-0.4233532,-0.99832207,0.13189353,-0.3476001,0.695865,0.049742576,0.54020476,-1.3020356,0.111644045,-1.6929138,0.095745794,0.30818504,0.40508235,0.33503413,0.3514496,-1.4533252,-0.15205874,-1.0765114,0.03286618,0.2554746,-0.18087828,0.17045204,0.41644275,0.35142615,0.37441912,-1.3471923,-0.11983303,-0.56941926,0.010071754,0.1343371,-0.2671954,0.14300138,0.24088088,0.38751826,0.39879546,-1.0433961,-0.04404378,-1.2323177,0.11722667,0.07695579,-0.31566975,-0.16807577,-0.33387628,-0.2139588,0.5621908,-0.2497388,0.5259841,-1.4742888,-0.0038941314,-0.78770775,0.2281184,0.164416,0.06080903,0.18039307,0.14200762,-0.83375365,-0.039603114,-0.4131397,-0.15121941,0.11068724,-0.38158327,0.16560122,0.15674223,0.26791406,0.14445914,-0.669282,0.0362672,-0.09969341,-0.035266526,0.10613658,-0.3355776,0.17740433,0.09195388,0.2759125,0.15320936,-0.4098976,0.0846846,-0.40194377,-0.02829567,0.018251086,-0.25758168,0.25033933,-1.4437529,-0.36788255,0.43107244,-1.0993743,0.47657546,-0.5540097,-0.5974565,0.14063118,0.17120457,0.31059477,-0.117582716,0.077584766,-0.0013128587,-0.4798358,0.004563006,0.14620817,-0.10438566,0.1139975,-0.35304055,0.14664619,-0.020965891,0.08785982,-0.03573346,-0.404813,-0.010265719,0.20042843,-0.039602272,-0.04168829,-0.30314943,0.12548433,-0.09661965,-0.06891378,0.08785429,-0.16413498,0.06502401,-0.1550659,-0.026665911,-0.03945472,-0.13366686,0.5508307,-1.5840883,-0.049620956,0.42184484,-2.199273,0.4311676,0.08394464,-0.9885899,0.4714212,-0.42462727,0.1721905,0.038297366,-0.11422623,0.008039577,-0.13659781,0.021428375,0.19034366,0.026354998,0.08579965,-0.14201912,0.0746824,0.015627788,-0.093221545,-0.02672224,-0.12951398,0.009701178,0.19014396,-0.022347063,-0.020770598,-0.160237,0.08278626,-0.28647897,-0.27112415,0.082707606,-0.11186622,0.054014,0.014194823,-0.11589493,0.13002373,-0.13891916,0.42570245,0.098408274,0.14647067,0.12580782,-1.0507712,0.17994271,-0.007879757,-0.59835005,0.2860816,-0.71556777,-0.03417035,0.13860284,-0.14404052,0.09925338,0.030027848,0.12415708,0.011829744,-0.14924271,0.09894506,-0.17201912,-0.040323686,0.0957073,-0.09380555,0.12869294,-0.041843083,0.0998993,0.13376245,-0.25404924,-0.04371642,-0.21472515,0.13209842,-0.2200178,-0.17944461,0.12456184,-0.14542663,0.13501461,-0.038418997,-0.397856,0.20446013,-0.17866704,0.0428728,0.39217043,0.90796703,-0.54083234,0.37665156,-0.33318305,-0.46602845,-0.82007504,-0.13568352,-0.31122148,-0.21406992,0.3836117,0.04581499,0.0458408,0.016233064,0.21186219,-0.14265788,-0.53005445,0.09503684,-0.08068351,-0.08088593,0.45705178,-0.01345486,0.10817343,-0.104099266,0.14011708,-0.017752925,-0.50560963,-0.019910667,-0.13856295,0.10507305,0.31911027,0.14040025,0.08557804,-0.050900333,0.175779,-0.10530623,-0.79733944,0.19376425,-0.027231174,-0.8031305,0.12374109,1.4426175,-1.2133771,0.5425206,-0.65258825,-0.7122414,-0.5207956,-0.57711285,0.20825948,0.030381428,-0.24168876,-0.13122688,0.02560013,0.0072468864,0.27112633,-0.3595007,-1.1170774,0.18356463,0.1579541,0.12656882,-0.010662221,-0.18985209,-0.05745756,-0.026054751,0.28895164,-0.13971514,-1.0589355,0.13178216,0.12769157,0.062513314,-0.015321606,0.16634268,-0.18011756,0.13533168,0.3428286,-0.44979528,-1.213451,0.1372763,0.11844174,-0.35241133,-0.10875285,0.8004454,-0.9663735,0.22007975,-0.5284492,-0.5784671,-0.4415405,-0.43407628,0.43962777,-0.059475206,-0.25669336,0.013539671,-0.67029285,-0.11973889,0.7041772,-0.7386021,-1.6154364,0.08183642,0.47829464,-0.021758288,0.21124604,0.102705054,-0.49850243,-0.2664692,0.6366688,-0.41089264,-1.0962507,0.06994453,0.37297598,-0.24035381,-0.23858477,0.7088719,-0.98218143,0.07104238,0.31410688,-0.9619534,-1.5917408,-0.50146204,0.39295092,-0.278819,-0.47665536,-0.67782944,0.2989796,0.034837313,-0.39118743,0.00837101,0.24603468,-0.93128663,0.46278566,-0.80139554,-0.123137556,-0.39727938,1.0679024,-0.49770385,-0.19323577,-0.54255444,0.67400336,-1.3073193,0.14621235,-0.6321179,-0.15730566,-0.042706266,0.78876716,-0.7881716,-0.23811673,-0.45961943,0.48884153,-1.025441,0.19443268,-0.7552288,0.093621776,-0.3633577,0.86731434,-0.5967319,-0.5170898,-0.8924852,0.5840252,-1.2453886,0.40746036,-1.1643255,-1.1285079,-0.98152864,0.92718303,-0.44472417,0.13752955,-0.0158994,0.10696569,-1.8563794,0.47724316,-0.27386177,0.21730585,-0.3709648,0.5255039,-0.5632845,-0.6244533,-2.232478,0.89993554,-0.36078024,0.43847448,-0.0039110654,0.50337464,0.04912259,0.1345258,-0.37041956,-0.68234265,-2.3204384,0.8507252,-0.041354116,0.44392616,-0.80142933,0.07258442,-0.5498536,0.5933431,-0.2557213,-0.4598507,-2.3463733,0.78688425,-0.41957888,0.6374257,-1.3118421,-1.5708114,-1.14582,1.3017837,-1.5781412,0.4269849,-0.38822848,-0.033254273,-1.0873044,0.12022537,-0.17264876,-0.24171098,-0.28622794,0.33272424,-0.033129025,-0.15997946,-2.4291859,0.62614363,0.15102275,0.3034436,0.056351002,0.14957015,0.05600827,0.16533878,0.08838006,-0.05749896,-2.0161142,0.46545196,0.100547336,0.20555931,-0.71485037,-0.36173695,-0.51561844,0.51894873,0.07752849,-0.011839282,-3.3292975,0.50668293,-0.18580079,0.42167315,-0.81444514,-1.4611158,-0.9213069,1.4491644,-2.2223055,0.83345777,-0.3261458,-0.3739385,-0.33205694,-0.45602623,0.100448206,-0.48721096,-0.28131264,0.34210575,-0.17496993,0.20046656,-2.3389866,0.372272,0.20131901,0.1556177,0.19709332,-0.22498396,-0.1167866,0.1566195,-0.15218653,0.14082384,-1.4697738,0.24368304,0.09046744,0.08724661,-0.34825355,-0.7736675,-0.582233,0.59464383,-0.1251941,0.31264478,-2.9491816,0.4443288,0.07818606,0.38399395,-0.07837331,-0.92822367,-0.37112197,1.1442379,-1.838076,0.6960719,-0.3857307,-0.41040564,0.16478217,-0.77403724,-0.020691985,-0.3286072,-0.43270984,0.18340455,-0.16009793,0.29659185,-1.7728748,0.3022722,0.23370138,0.099009216,0.14407954,-0.08463106,-0.1782357,0.18557493,-0.10725938,0.20740949,-0.9701081,0.18676066,0.212855,0.022088164,-0.15955585,-0.63698095,-0.60024756,0.5541167,-0.23908666,0.4294547,-2.3739269,0.38438126,0.34797305,0.23354165,0.062305667,-0.6705222,-0.00575833,0.31291506,-0.85430425,0.22488876,-0.39890498,0.093353376,0.23744825,-0.105907276,-0.23012453,0.2521063,-0.42233562,0.14391436,0.058797523,0.23959996,-1.6093191,0.4032728,0.25855505,0.23800927,-0.114411585,0.41623512,-0.20468152,0.052084476,0.007148744,0.22403352,-0.94697547,0.1352595,0.1629537,0.089842774,-0.22529112,-0.48548123,-0.3894722,0.32367036,-0.2505841,0.27825075,-1.7541014,0.28524962,0.39593408,0.34941453,-0.5456118,-0.8138692,0.41666454,-0.29027075,-0.51151925,-0.13836801,-0.58407336,-0.04366105,-0.41538635,0.7545495,-0.5841881,0.2153333,-0.30649206,0.0018575438,0.015218937,-0.016766777,-1.5953813,0.012991353,0.07895221,0.5098457,-0.352891,0.24872005,-0.25272828,-0.011139681,0.070693694,0.19813007,-1.119147,-0.14242639,0.10371884,0.27954867,-0.7437295,-0.3655118,-0.19415057,0.13438237,-0.30362362,0.05803787,-1.6125207,0.03693128,0.26657572,0.621837,-0.41020682,-0.093143724,0.2835516,-0.43276995,-0.61837846,-0.26150423,-0.29742488,-0.14189097,-0.7982836,0.70216835,-0.8797704,-0.14444222,-0.3384231,-0.4538156,0.069632344,0.3350325,-1.2299632,-0.10143982,0.1278179,0.7347661,-0.5625466,-0.042640403,-0.28295842,-0.36683184,0.14438026,0.21872953,-0.8609269,-0.3284032,0.21544594,0.7271864,-0.79341656,-0.32431123,-0.08624202,-0.33024505,-0.10462549,0.1623115,-1.314369,-0.44130075,0.066082954,1.017586,-0.301025,-0.044018425,0.18974301,-0.15789805,-0.3332296,0.049269658,-0.0581408,0.09800237,-0.43998903,0.18632133,-0.6929802,-0.3816776,-0.16954614,-0.5805704,-0.23902239,0.30946457,-1.2887383,-0.54828227,-0.22178961,0.8018081,-0.4157763,-0.32710147,-0.19066389,-0.4384266,-0.05091828,0.18386416,-0.6499261,-0.6222933,-0.4254632,0.67794114,-0.6351339,-0.35842043,0.05096419,-0.6757637,-0.20669447,0.36437225,-0.8435232,-0.6506854,-0.4093783,0.61668533,-0.5512184,2.452308,-0.54353034,-1.0674621,0.72039795,0.25892586,0.09100775,0.9159683,-1.3589133,-0.193268};   //Bias    


float weights_bias2 [] = {1.8748094,0.24058302,0.095229544,2.5594075,2.3528845,-0.30768943,-0.17706689,2.6548512,2.3006592,-0.35517126,-0.22698703,2.2524784,2.6643796,-0.356356,-0.3161225,3.0429533,3.600993,-0.29973987,0.12420149,3.1969612,3.142609,0.0068742028,-0.2547388,3.233623,1.6641821,-0.27504426,0.14058588,1.0193815,1.9238435,-0.2799465,0.12339191,1.7108766,2.1396217,-0.35200053,0.22613499,1.8087145,0.0036761893,-0.0060041817,-0.008244164,0.003834943,-2.6475947,0.9483292,0.722843,-1.8267026,0.060929254,-0.14477463,-0.21520011,0.019842304,0.20333122,0.04214723,0.04690268,0.2539952,-2.5851173,0.64477646,0.3966018,-2.2689502,-3.4552429,0.5417104,2.0089579,-0.7168971,0.15487671,-0.24555854,-0.08689825,0.02879017,0.05687362,0.14475057,-0.21379876,0.2594401,-3.3419926,0.8656526,2.022736,-0.9247046,-3.554748,-1.1606766,0.48530525,0.26815405,-0.14380647,-0.15593156,0.020073306,-0.18471974,0.184435,-0.022590483,-0.23937303,0.15418619,-3.7892835,-0.89136183,0.94125617,-0.14229877,0.7299742,0.9428875,1.0326351,0.36167482,-0.015491123,0.123387866,-0.032049313,0.22065665,0.22894327,0.2058361,-0.034875333,0.223499,0.8847834,1.286791,0.9107701,0.8490615,0.7453996,1.4756761,2.0976143,1.502868,0.17814104,0.0013455626,0.047337923,0.11044363,0.28700596,-0.17995463,0.27224603,-0.13429372,0.28083694,1.3227493,2.201113,1.2304488,0.25824094,-0.031856917,0.96275455,1.3598665,0.08897784,-0.13032001,0.033369053,0.08365821,0.28549328,0.084157094,-0.013448759,-0.21384533,0.294216,0.14333849,1.4465182,1.5352447,2.4087546,1.078743,0.2167874,1.0813743,0.22576635,0.020383019,0.050069127,0.24374396,0.28118727,0.043909717,0.114240214,-0.09762844,2.4279025,1.1485709,-0.1193758,1.1828445,1.6199918,0.8642939,0.99396604,0.74651086,0.23125286,0.27885485,0.14842606,-0.22594614,0.15650687,0.29255816,0.17672667,-0.12307197,1.9836357,1.4587778,1.2286866,0.95704496,1.5841414,0.9126368,0.89900243,1.0162253,0.14023104,-0.05897994,-0.19501127,0.048662882,0.14037816,-0.0006843434,-0.09665531,-0.1809412,1.6200535,1.2793452,0.678401,1.2649983,0.005841017,-0.3222905,-0.61255175,-0.11440446,-0.0628828,0.08443162,-0.06693464,0.35652098,0.14003934,-0.25059864,-0.15233427,-0.16860108,-0.2712759,-0.5382995,-0.27630126,-0.2724995,0.03949398,0.26604372,0.3528703,-0.36090666,-0.031542733,0.14285466,-0.18749645,-0.73865765,-0.1291364,-0.2743742,0.17443763,0.2167337,0.2416147,-0.21301757,-0.12584114,0.07102888,-0.10640607,-0.5875481,-0.022846177,-0.0019688788,0.07972908,0.07151055,0.105901875,-0.18148182,-0.33262694,-0.06975823,0.060317207,-0.3725314,0.11098424,-0.0052915197,0.10435732,0.021005426,-0.00030904004,-0.20185067,-0.18375315,-0.42713305,0.12051204,-0.21156329,0.10942538,-0.002209596,0.081687324,-0.030424977,-0.034692824,-0.09832488,0.001778435,-0.67561054,0.20009343,-0.21855599,0.056512915,-0.051449165,-0.07710883,-0.20170441,0.19145128,0.01009892,0.1305318,-0.7603017,0.12589727,-0.52223533,0.037664875,0.109435834,-0.2589649,-0.37902054,0.3062344,0.13203181,0.4115846,-0.8484222,0.122487575,-0.96537185,0.011997926,0.04970417,-0.48347893,-0.74870527,0.3852516,0.3926902,0.31263998,-1.1199127,-0.029444283,-1.5386463,-0.1588125,-0.18006629,0.11521046,0.40247756,0.2892945,-0.8603586,-0.5994684,0.47145265,-0.07589868,-0.7920953,-0.22096969,-0.032068085,0.17636475,0.42417026,-0.12906101,-0.44401005,-0.4559045,0.55083805,-0.110100515,-0.42636245,-0.28058553,-0.779781,0.20027138,0.24721482,-0.018870799,-0.19161814,-0.7281835,0.36134446,0.06018401,-0.08464875,-0.11321877,-0.7318656,0.070555255,0.08685361,-0.093169704,-0.12029535,-0.6611124,0.1793546,0.045774356,0.14103246,0.05159071,-0.3154969,0.050138015,0.0563986,-0.29222605,-0.00060971885,-0.48730466,0.06647471,0.08189128,0.18604267,0.16428761,-0.14788616,0.00379756,0.021010982,-0.33291194,0.01694919,-0.6493044,0.109941,0.0705948,0.19705707,0.19331625,-0.29534337,-0.016517563,-0.044000357,0.018523952,0.1150969,-0.673126,0.11356914,0.12815402,0.15284291,0.060756728,-0.24069208,-0.16073118,-0.13740927,0.07678472,0.34998477,-0.43905875,0.024235705,0.21752584,-0.14635278,-0.120286815,-0.38906187,-0.33118674,-0.5938947,0.19183408,0.615046,-0.10601886,-0.15883814,0.24989624,-0.58257425,-0.10192462,-0.07601129,0.22863589,0.45497108,-0.5694798,-0.8995351,-0.63766295,0.29085517,-0.09347734,-0.33677772,-0.28032726,0.029814944,0.4356053,0.5110343,-0.6947959,-0.6152305,-0.7765717,0.20721658,-0.02379245,-0.07152666,-0.14429691,-0.63957447,0.3593065,0.10500364,-0.18911332,-0.29485536,-0.52013236,0.30905667,0.03552306,0.22083439,0.026136667,-1.1230683,0.09914374,-0.00639113,-0.055738617,-0.0603309,-0.26564738,0.40369928,0.094980985,0.3138288,0.010279731,0.14423506,-0.03246602,0.08848037,-0.6782097,0.18311346,-0.31786782,0.39441842,-0.18085665,0.048013136,-0.09124562,0.2776948,-0.045977127,0.0354378,-0.6998263,0.3387493,-0.28841504,0.43634146,-0.3212985,-0.018192545,0.12858535,-1.344949,-0.1467565,-0.31791034,-0.20772718,0.34809786,0.08572605,0.31680393,-0.08098778,0.17228551,0.29578823,-1.8815432,-0.24573806,-0.3804566,-0.5399666,0.5385347,0.24356343,0.07366906,0.33305025,-0.027092233,0.119465835,-1.0238249,-0.48059273,-0.5445404,-0.69192106,0.9028588,0.04699465,-0.3526773,0.34724098,-0.3661877,0.13045208,0.27700087,0.1590642,0.3556474,-0.31117037,-0.39948675,-0.18325557,0.44150007,0.02226801,-0.13551958,0.06655673,0.27849212,0.5750099,0.4504024,-0.038753398,-0.5557617,-0.4860801,0.3737814,-0.69113004,0.09811022,0.07084475,-0.6641407,0.30299157,0.6126027,0.19519182,-0.32348073,-0.31489974,0.06515491,-0.7382772,0.011906323,-0.31489146,0.08116455,-0.051491935,0.62459236,0.11927737,0.024648834,-0.37944221,-0.29846084,0.072002396,-0.29377276,-1.514383,-0.17875594,-0.1391809,0.2956682,0.0025529396,0.4474883,-0.045946047,-0.8550752,0.46656856,0.008965065,-2.188191,-0.056303408,-0.55221,-0.04721316,-0.1253109,0.5518126,0.48806503,-0.53743565,0.36546615,0.46272287,-0.73720056,-1.3558737,-0.749473,-0.17671835,-0.14108402,0.6060909,0.5902107,-0.16856496,-0.0011687055,0.41243777,0.007879394,-0.68772364,-0.54944086,-0.31618914,-0.22830923,0.747954,0.48797965,-0.24591875,0.00044080178,0.011724256,0.30211762,0.015499271,-0.1606692,-0.69652396,-0.24380596,0.21741672,0.5075309,-0.41265342,0.12560858,-0.35811377,-0.070657946,-0.114508964,0.54959446,0.34875375,-0.09370311,-0.11092973,-0.5428841,0.40886924,-0.9144232,-0.8109548,-0.11302944,-0.06290671,1.0078617,0.40541545,0.20546874,-0.37947068,-0.8235983,0.47905484,-0.53087103,-1.1960139,-0.20803584,-0.3652188,0.665519,0.521101,-0.16449985,-0.4860383,-0.43413034,0.035298932,-0.07986088,-0.32946783,-0.9551801,0.0070204856,0.61085016,0.39914063,0.064783104,-0.277421,-0.47843876,-0.37426192,-0.028518014,0.2630876,-2.1141129,-0.7697848,0.4557206,-0.03258436,0.34172988,0.20173447,0.27480525,-0.5040943,0.054345723,0.23429026,-0.92500424,-0.6851567,0.10179709,-0.037596557,0.062969506,0.46081805,0.524732,-0.7543986,0.05083251,0.0944447,-0.70326823,-1.390906,-0.32737717,0.3842337,0.109083906,0.5136393,0.40569758,-0.008058574,0.027350185,-0.6117206,-0.6079428,-0.54308194,-0.15262322,0.41187304,0.22135384,0.41026968,0.11416796,0.47423065,-0.22419102,-1.2999021,-0.4344521,0.13986039,0.37654266,0.044669773,0.039535645,0.38265622,-0.376707,0.14016578,-0.25373316,-1.3026507,-0.59631294,-0.7321739,0.17406242,0.6334468,-0.28384948,0.730815,-1.0400499,0.17648792,-0.326381,-1.2919478,-0.73819757,-0.47387883,0.22448798,0.51314896,-0.34134343,0.71383154,-1.2970797,0.08547791,0.15133478,-1.2270119,-0.7627638,-0.37983438,0.15928744,0.20130223,-0.65012455,0.38546586,-1.0170457,0.050064072,0.376978,0.1833225,-0.46054658,-0.44472137,0.027038192,-0.061031688,0.091405325,-0.037663676,-0.26496595,0.2615995,-0.18395655,0.54764545,0.06526487,-1.0902724,0.15462156,0.059257317,0.40628844,0.39147204,-0.04465275,0.19040549,-1.0432261,0.24240024,0.052189272,-0.49039528,0.17145889,0.3637754,-0.2596236,0.39753965,0.1790111,-0.5107971,-0.10266061,-0.8376233,-0.26399162,-0.65309864,0.23345196,0.34191975,-0.18728225,0.1259629,0.17661807,-0.18495847,0.34367383,-1.3925177,-0.93414974,0.3713943,0.4936233,0.099693425,-0.0020724584,-0.0747501,-0.23150252,-0.008044313,0.21736197,-1.1776963,-0.7803716,0.43243393,0.94791085,-0.015577131,0.040738825,-0.17203517,-0.5776476,-0.40156522,0.2488413,-0.7129438,-0.6505005,0.388817,-0.2009249,0.53722024,-0.18422975,0.32153112,-0.77166414,-0.28175873,-0.36811674,-0.4104219,-1.1452392,0.020895367,0.09572477,0.78941685,-0.51645935,0.8756646,-1.7334163,-0.19947451,-0.35382602,-0.11625746,-0.26143408,-0.039113227,0.062811896,0.5678174,-0.57383865,0.6435756,-0.9224082,-0.19033398,-0.6021991,0.045780115,0.29758215,-0.37289992,-0.12054137,0.4166692,-0.73864126,0.48330376,-0.095620275,-0.19432402,-0.84095263,0.28583673,0.41428065,-1.1593299,-0.08014555,0.50820476,-1.4103286,0.4570419,0.28963792,-0.48235697,-0.3177479,-0.111631304,0.19063735,-0.1864174,0.29419774,0.28938508,-1.67232,0.2676228,0.35936847,-1.0429769,-0.024516135,-1.0643793,-0.14215916,0.193066,0.8052754,0.057605132,-0.66639495,-0.08161711,0.23065276,-1.2186086,0.20099,-1.3716267,-0.6632405,0.44458464,1.326814,-0.54471296,-0.23488256,-0.49264383,-0.15730056,-0.7189048,-0.0468358,-0.4459968,-0.6889576,0.047974955,1.3235325,-0.70705473,-0.16655414,-0.20318381,-0.5638604,-0.5512084,-0.16243364,-0.18252394,-0.80617744,0.45434368,-0.31500894,0.37698933,-0.32570818,0.23435672,-0.52476925,0.38467073,-0.82568353,0.08001036,-0.99832207,0.13189353,-0.3476001,0.695865,0.049742576,0.54020476,-1.3020356,0.111644045,-1.6929138,0.095745794,-0.16807577,-0.33387628,-0.2139588,0.5621908,-0.2497388,0.5259841,-1.4742888,-0.0038941314,-0.78770775,0.2281184,0.25033933,-1.4437529,-0.36788255,0.43107244,-1.0993743,0.47657546,-0.5540097,-0.5974565,0.14063118,0.17120457,0.5508307,-1.5840883,-0.049620956,0.42184484,-2.199273,0.4311676,0.08394464,-0.9885899,0.4714212,-0.42462727,0.42570245,0.098408274,0.14647067,0.12580782,-1.0507712,0.17994271,-0.007879757,-0.59835005,0.2860816,-0.71556777,0.0428728,0.39217043,0.90796703,-0.54083234,0.37665156,-0.33318305,-0.46602845,-0.82007504,-0.13568352,-0.31122148,-0.8031305,0.12374109,1.4426175,-1.2133771,0.5425206,-0.65258825,-0.7122414,-0.5207956,-0.57711285,0.20825948,-0.35241133,-0.10875285,0.8004454,-0.9663735,0.22007975,-0.5284492,-0.5784671,-0.4415405,-0.43407628,0.43962777,-0.278819,-0.47665536,-0.67782944,0.2989796,0.034837313,-0.39118743,0.00837101,0.24603468,-0.93128663,0.46278566,-1.1643255,-1.1285079,-0.98152864,0.92718303,-0.44472417,0.13752955,-0.0158994,0.10696569,-1.8563794,0.47724316,-1.3118421,-1.5708114,-1.14582,1.3017837,-1.5781412,0.4269849,-0.38822848,-0.033254273,-1.0873044,0.12022537,-0.81444514,-1.4611158,-0.9213069,1.4491644,-2.2223055,0.83345777,-0.3261458,-0.3739385,-0.33205694,-0.45602623,-0.07837331,-0.92822367,-0.37112197,1.1442379,-1.838076,0.6960719,-0.3857307,-0.41040564,0.16478217,-0.77403724,0.062305667,-0.6705222,-0.00575833,0.31291506,-0.85430425,0.22488876,-0.39890498,0.093353376,0.23744825,-0.105907276,-0.5456118,-0.8138692,0.41666454,-0.29027075,-0.51151925,-0.13836801,-0.58407336,-0.04366105,-0.41538635,0.7545495,-0.41020682,-0.093143724,0.2835516,-0.43276995,-0.61837846,-0.26150423,-0.29742488,-0.14189097,-0.7982836,0.70216835,-0.301025,-0.044018425,0.18974301,-0.15789805,-0.3332296,0.049269658,-0.0581408,0.09800237,-0.43998903,0.18632133,-0.56143224,0.04709087,-0.012007463,0.41615802,0.26722986,-0.6827881,-0.07465691,-0.04370009,-0.51703787,0.0016086479,-0.42569417,-0.029340098,0.31885332,0.4269368,-0.3379175,-0.31379175,0.08529023,-0.54423344,-0.6411031,-1.1977934,-0.18747672,-0.47678578,0.5016455,0.4910836,-0.7399076,-0.18607022,0.481279,-0.6804447,-0.14351502,-1.2034287,-0.052921284,0.18226884,0.56185895,0.4384766,-1.0904423,-0.07725033,0.13316424,-1.1421149,0.17059413,-0.78239775,0.24711229,0.12313496,0.46285585,0.26628256,-0.9842874,-0.054220486,0.074118055,-1.6362883,0.30575225,-1.1639267,0.2631237,-0.2833393,0.4474571,0.15907866,-0.82689184,0.136568,0.3065396,-2.167746,0.32757238,-1.6677569,0.20739934,-0.044302635,0.2178873,0.037569053,-0.3298732,0.2917337,0.77401996,-2.4701777,0.13013457,-1.8939708,-0.08272779,0.5141319,-0.2195038,-0.51939994,0.054849464,0.08775276,0.9591507,-2.8352404,0.025522072,-1.9466878,-0.5397823,0.10962115,-0.8542665,-1.3416562,0.28958452,0.4125295,1.1987131,-1.9164487,-0.40781218,-2.425142,-0.94191325,0.23825856,0.21850318,0.53598076,0.15828708,-1.175254,-0.26971874,0.54713744,-0.5149301,-1.496262,-0.34391403,-0.3425023,0.23336923,0.39759457,0.07458671,-0.34499735,-0.2935157,0.4065813,-0.1281934,-0.9038932,-0.20277134,-0.7824786,0.21790181,0.2790276,-0.11751661,-0.0153102875,-0.19581684,0.3868011,-0.012206403,-0.31366387,-0.04481785,-0.25878853,0.20459048,0.18955009,-0.20600322,0.106677085,-0.28448087,0.16803308,-0.023575615,-0.036231294,0.08951378,-0.037028417,0.101663776,0.12268726,-0.49979857,-0.012308816,-0.20723382,0.030901777,0.09146136,0.25368366,0.20122069,-0.04950506,0.07970186,0.056423318,-0.5277818,-0.052672055,-0.17973688,-0.0050230296,0.054277588,0.2504948,0.12807706,-0.10152065,-0.005808826,-0.02671659,-0.22573014,0.016160458,-0.1762868,-0.036963128,0.06853267,-0.021247966,0.07465037,0.0039530452,-0.04056474,-0.2446139,-0.0068231784,0.16088279,0.014430778,-0.24249887,0.12951855,-0.2419837,0.0050503113,-0.06399318,-0.58943135,-0.94947547,0.5748557,0.58422405,0.18463016,-0.89196974,0.30381992,-1.3931141,-0.54220045,-0.2994315,0.3102653,0.7355866,-0.23379749,-1.5713933,-0.86651045,0.8186815,-0.06270376,-1.0561882,-0.1621164,-0.29389226,0.035158645,0.2614265,-0.14551847,-0.16701671,-0.34385785,0.309534,0.06238924,-0.18654917,-0.065011226,-0.46294454,-0.0031757522,-0.041060608,-0.041174874,0.07846915,-0.097817704,0.3426629,0.1209784,-0.045035735,0.031409618,-0.18988279,-0.07834178,-0.263554,0.15418185,0.16004364,-0.08592643,0.26247713,0.09801922,0.116345026,0.055985205,0.20453279,-0.114834554,0.022746539,-0.39097628,0.04151032,-0.10146048,0.20142297,-0.0026917765,0.04347264,0.19281973,0.2800451,0.013006527,0.2397129,-0.3065916,-0.16560926,-0.27436578,0.22002076,-0.08423287,0.12531732,0.23754655,-0.18951957,0.06938963,0.1420809,0.054498386,-0.24343961,-0.56092304,0.19424236,0.054743487,0.13322546,0.19987835,-0.09856388,0.008432119,0.087756716,-0.059415545,-0.123721495,-0.3780679,0.068588644,0.17155991,-0.089528695,0.2815846,-0.7013809,-0.23977804,-0.4698992,-0.05494608,0.5804391,-0.6602325,-0.52659816,0.2793857,-0.86358833,-0.615956,0.046047468,-0.57027894,0.28398883,-0.2819884,-0.044341605,-0.641441,0.82454425,0.10001774,-0.20921941,0.023069864,-0.11521866,-0.8183752,-0.5003948,0.105748795,-0.041991442,0.012336175,0.33439153,0.27188113,0.2436019,0.06424688,-0.40261063,-0.74367493,-0.73701674,0.4540878,0.14769971,0.08561323,0.15157738,0.14698888,0.24785368,0.1719721,-0.7010254,-0.72663295,-0.26633447,0.43012768,0.27303246,0.17608556,-0.054737058,0.24349776,0.16936229,-0.24540211,0.36203772,-0.52400637,0.010852098,-0.057132468,0.114773884,-0.11483596,-0.27327484,0.172364,-0.1634481,-0.43717015,0.38305542,-0.19651684,0.10441527,0.19294548,-0.27257857,-0.2739091,0.22584212,-0.034219205,0.18648818,0.07616738,-0.2304188,0.0004867172,0.012196823,0.31464034,-0.5443471,-0.294658,0.2997849,0.030707013,0.28469798,0.27669632,-0.61786276,0.06119344,-0.14248472,0.029086757,-0.93067765,0.19423647,0.121502385,0.18663342,0.13915244,0.67413324,-1.3955467,-0.2543743,-1.2161298,-0.31864697,-0.32684022,0.59561926,-0.5155742,0.50470245,-0.48977044,-0.30571297,-0.18592928,-0.42196736,-0.08489554,0.0761623,-0.43510497,-0.98605543,0.7385838,-0.48359668,0.26826787,0.13305123,-0.17719653,-0.5422866,-0.96601313,0.49849468,-0.1705004,0.1596403,0.24015705,-0.31481168,0.46200716,0.28854892,-1.274934,-0.39106876,-0.51263064,0.43191227,0.12796777,0.07723369,-0.24852228,-0.09323434,0.3388029,0.10626091,-0.47559953,-0.21850756,-0.08804499,0.37272826,0.20469919,0.2704516,-0.79946,0.116234556,0.12192369,-0.67750263,0.42710462,-0.007999525,0.17799853,0.23592721,0.07118281,0.13041641,-0.69970095,0.27577814,0.09535872,-0.90800786,0.3708563,-0.07553118,0.025221942,0.28023255,-0.19645658,-0.06377664,0.06298151,0.0646956,0.2181676,0.024286067,-1.0033982,-0.089274816,-0.0378443,0.44574136,-0.22755928,-0.01812109,0.2895991,-0.14058521,0.3009065,0.26866916,-1.1449679,-0.05088612,-0.22390328,0.21484442,-0.3015613,0.21042326,0.19362293,-0.30749846,0.16060664,0.63441646,-0.84810233,0.0345092,-0.6457841,-0.008696596,-0.7104798,0.57424766,-0.40044996,-0.118160866,-0.5206616,-0.14181237,-1.2783096,0.48967037,0.96401656,-0.37626603,-0.31008944,-1.4520122,0.21084097,-1.388451,0.037771247,0.11204874,-1.333292,0.0072756833,0.094771996,0.30698612,-0.050641783,-0.07353677,-0.13926242,-0.40716472,0.2834943,0.37298575,-0.43234387,0.026561728,-0.35381123,0.27678064,-0.2371126,0.28219414,-0.37199056,-0.12795463,0.34534466,0.1532622,-0.069338776,0.09542558,-0.38808075,0.16754296,-0.32465136,0.34504625,-0.5057329,0.117234774,0.04271297,-0.79753506,0.36520937,0.2685062,-0.17000456,0.17757487,-0.27697098,0.16537224,-0.23405933,0.19526997,-0.069975026,-0.3107656,0.1089967,-0.03300731,-0.09094014,0.23307951,-0.22126801,0.020421278,0.076030485,0.012119314,0.086332254,0.16008659,-1.5012481,-0.017750772,0.040556297,0.24733965,0.017312858,0.045670427,0.10849045,-0.2793476,0.14408572,0.2553983,-0.33308384,-0.044095412,0.051264945,-0.0374752,0.043314766,0.19347814,-0.030719576,-0.25111595,-0.23152016,0.3053215,-0.15639672,0.31828958,-0.0012846258,-0.47647628,0.031837743,0.14228465,-0.65756565,-0.059923314,-1.0122015,-0.2134988,-0.64237744,0.7159194,1.1620976,-0.9245189,-0.09252385,-1.6830785,-0.6732973,-0.7201894,-0.86692303,0.26117408,-0.237236,0.28720453,0.46206743,-0.76671606,0.26600736,-0.3470987,-1.0941061,-0.064921305,-0.34674612,0.31149304,0.033424746,0.2240196,0.10043242,-0.62646425,-0.004057173,0.08081803,-0.620253,-0.013279206,-0.2709496,0.25724652,-0.011333857,0.15708585,-0.27321115,-0.357343,-0.119858384,0.36424392,-0.16874082,0.08512189,-0.4512753,-0.0034067456,0.28095996,0.116450265,-0.2360417,-0.067760356,-0.14522602,0.26386842,0.011417124,-0.014100824,-0.19039154,-0.033942465,-0.052716043,0.029860023,0.030463962,0.06107468,0.069218986,0.19817933,-0.060649324,-0.07252013,0.007636471,0.085571215,-0.23925921,0.08730101,0.18752737,-0.159667,0.16387384,0.26432526,-0.37631476,-0.017225588,-0.19903477,-0.05365345,0.26136997,0.14892308,0.12565826,-0.46945798,0.24204737,0.16903396,-0.8207111,0.02059435,-0.1484981,0.20456168,0.1257701,0.2555578,0.02147717,-0.99494207,0.3788355,-0.0716761,-1.315155,0.18619363,-0.58883154,-0.041144434,0.2737575,0.6384639,0.83706146,-1.2917311,-0.36267483,-1.7696823,-0.25589228,-0.664823,-0.7249711,0.30818504,0.40508235,0.33503413,0.3514496,-1.4533252,-0.15205874,-1.0765114,0.03286618,0.2554746,-0.18087828,0.164416,0.06080903,0.18039307,0.14200762,-0.83375365,-0.039603114,-0.4131397,-0.15121941,0.11068724,-0.38158327,0.31059477,-0.117582716,0.077584766,-0.0013128587,-0.4798358,0.004563006,0.14620817,-0.10438566,0.1139975,-0.35304055,0.1721905,0.038297366,-0.11422623,0.008039577,-0.13659781,0.021428375,0.19034366,0.026354998,0.08579965,-0.14201912,-0.03417035,0.13860284,-0.14404052,0.09925338,0.030027848,0.12415708,0.011829744,-0.14924271,0.09894506,-0.17201912,-0.21406992,0.3836117,0.04581499,0.0458408,0.016233064,0.21186219,-0.14265788,-0.53005445,0.09503684,-0.08068351,0.030381428,-0.24168876,-0.13122688,0.02560013,0.0072468864,0.27112633,-0.3595007,-1.1170774,0.18356463,0.1579541,-0.059475206,-0.25669336,0.013539671,-0.67029285,-0.11973889,0.7041772,-0.7386021,-1.6154364,0.08183642,0.47829464,-0.80139554,-0.123137556,-0.39727938,1.0679024,-0.49770385,-0.19323577,-0.54255444,0.67400336,-1.3073193,0.14621235,-0.27386177,0.21730585,-0.3709648,0.5255039,-0.5632845,-0.6244533,-2.232478,0.89993554,-0.36078024,0.43847448,-0.17264876,-0.24171098,-0.28622794,0.33272424,-0.033129025,-0.15997946,-2.4291859,0.62614363,0.15102275,0.3034436,0.100448206,-0.48721096,-0.28131264,0.34210575,-0.17496993,0.20046656,-2.3389866,0.372272,0.20131901,0.1556177,-0.020691985,-0.3286072,-0.43270984,0.18340455,-0.16009793,0.29659185,-1.7728748,0.3022722,0.23370138,0.099009216,-0.23012453,0.2521063,-0.42233562,0.14391436,0.058797523,0.23959996,-1.6093191,0.4032728,0.25855505,0.23800927,-0.5841881,0.2153333,-0.30649206,0.0018575438,0.015218937,-0.016766777,-1.5953813,0.012991353,0.07895221,0.5098457,-0.8797704,-0.14444222,-0.3384231,-0.4538156,0.069632344,0.3350325,-1.2299632,-0.10143982,0.1278179,0.7347661,-0.6929802,-0.3816776,-0.16954614,-0.5805704,-0.23902239,0.30946457,-1.2887383,-0.54828227,-0.22178961,0.8018081,-0.05777652,0.05571867,-0.13674326,0.32190728,0.10583288,-0.23746271,0.16965654,-0.024519905,-0.29477504,0.09512035,-0.5058803,0.14370948,0.15746233,0.4299759,-0.33023778,-0.6150433,0.5653254,-0.6372706,-0.6616664,-0.5542923,-0.3822866,-0.5009267,0.6028627,0.4144674,-1.3310481,-0.51943165,0.6249893,-1.2125052,-0.29722503,-1.4479777,-0.19709247,-0.36768323,0.6433995,0.63333225,-1.7301155,-0.19782506,0.6078871,-1.4218895,-0.30429015,-1.1169702,-0.14949729,0.16881764,0.68240565,0.57668895,-1.6244206,-0.15435632,0.50382775,-1.6307344,-0.0887834,-1.3319669,-0.16586132,-0.48578545,0.54121447,0.47922733,-1.2632438,0.18746613,0.6358616,-2.2016385,-0.3235376,-1.7894362,-0.14853683,-0.6813361,0.28619617,0.29486114,-0.6339427,0.2965686,0.99409837,-2.1167555,-0.42744562,-1.6960394,-0.26614848,0.0462105,-0.2269709,-0.34642357,-0.16110384,0.17596003,1.0028381,-1.5181363,-0.3421236,-1.5391498,-0.5534407,-0.18303622,-0.72399044,-1.0324157,0.049326666,0.27111197,0.93375355,-0.5155082,-0.42581794,-0.61322206,-0.56085294,-0.15266311,0.070710085,0.516814,0.361462,-0.81125987,0.055730123,0.08122606,-0.60774755,-0.8850247,-0.052219022,-0.0836332,0.086942546,0.17770162,0.13857281,0.02737005,-0.100954056,0.31353784,-0.14960942,-0.8171592,-0.102042474,-0.43993488,0.09551074,0.13969637,-0.109128095,0.035368547,0.004483596,0.10648252,-0.054920487,-0.2989049,-0.043766465,0.105369195,0.0960609,0.06946082,-0.22783217,0.06253486,-0.16620348,0.02734613,-0.020935846,-0.13274008,0.03366006,0.019439934,0.066857584,0.060214594,-0.57517546,-0.058826275,-0.1436841,-0.24643433,0.047808897,0.008722171,0.15618005,-0.025931118,0.057364535,0.073064275,-0.4156332,0.013768407,-0.0379593,-0.17369652,0.07608898,0.02767842,0.18847096,0.10104443,0.09559285,0.067437895,-0.23817272,0.1177392,0.11198006,-0.30570632,0.123931535,-0.030747453,0.19048187,0.25463578,0.08286391,-0.05718971,-0.035371147,0.07240231,0.121489905,-0.61220247,0.15114217,-0.22464336,-0.25680864,0.033446938,-0.70892286,-0.74724627,0.4600946,0.5418744,0.50228876,-1.5031947,0.22670744,-1.3623809,-0.45827302,-0.067636974,0.21563546,0.38017774,0.08305343,-1.0699937,-0.66524583,0.5519953,0.045048483,-0.8646999,-0.076699585,0.013710103,0.0133548435,0.17516261,-0.0936725,-0.06211771,-0.07784396,0.20463893,0.091457844,-0.06989671,-0.037995454,-0.30426022,0.048259232,-0.026077434,0.015108288,0.12160659,-0.033309303,0.15492073,0.06547403,-0.027185058,0.0033384813,-0.18821655,-0.053539842,-0.14672275,-0.05710383,0.03156745,-0.09455673,0.15933226,0.037171174,0.051056955,0.1574446,0.20526434,0.039005317,0.06216993,-0.46521854,0.03811404,-0.0011403892,0.17495105,-0.013314111,0.14678112,0.16985793,0.053852025,0.0050451444,0.09523182,-0.30580455,-0.11749353,-0.25243807,0.1998674,-0.09813261,0.110717215,0.18872735,-0.025750792,0.029116124,0.023828812,-0.02813797,-0.077519454,-0.44390136,0.13257016,0.04223002,-0.028108973,0.07835947,0.09266375,-0.028392237,0.05723287,-0.021733858,0.066591784,-0.37815025,0.09567232,0.086951345,-0.038175523,0.1879369,-0.49178565,-0.5421716,-0.75729,0.053212076,0.8861941,-0.34414887,-0.46820125,0.34240812,-0.9227038,-0.31596637,-0.041722927,-0.31842887,0.37156722,-0.3438797,-0.29337,-0.7401055,0.57343686,0.15369555,-0.27371952,0.010107276,0.19694129,-0.58466756,-0.42449707,0.016702479,0.19429234,0.04720057,0.15989348,0.10163809,0.10109395,-0.03589844,-0.38500103,-0.4977264,-0.6516319,0.2356209,0.13144627,0.006831498,0.17715985,0.103222825,0.23071952,0.08247464,-0.3037324,-0.50312406,-0.2788724,0.2973553,0.17934532,0.1402004,0.013883049,0.14611614,0.063047916,-0.11497485,0.48942667,-0.33413893,0.18195783,-0.25740477,0.053373136,-0.05958266,0.14134695,0.06825292,-0.13102663,-0.19591062,0.15636985,-0.08725667,0.11198279,0.13649337,-0.39293993,-0.47808525,0.2326608,-0.07837789,0.11336953,0.14074159,-0.048876736,0.043204952,0.14137265,0.21220449,-0.63009495,-0.2512127,0.23676711,0.085201226,0.20507167,0.20606577,-0.43599477,0.061818212,-0.018275268,-0.006477454,-0.76717985,0.25804833,0.05071076,0.100793734,0.030125193,0.55753106,-1.4982747,-0.51673484,-1.3381664,-0.35616302,0.53891665,0.36264908,-0.56366765,0.48419705,-0.7698449,-0.32067925,-0.008797768,-0.7870684,-0.36019674,0.17658082,-0.117605984,-0.574189,0.70565104,-0.13578723,0.299947,0.068043046,0.0254751,-0.7272061,-1.0316106,0.4482387,-0.049328946,0.15033314,0.24519224,-0.14932147,0.37089548,0.19987021,-1.1214702,-0.50232846,-0.380033,0.43368375,0.20163578,0.26460782,-0.08711782,-0.115202844,0.26081035,0.06540281,-0.28319126,-0.3164134,0.03165551,0.34153494,0.17341332,0.1775279,-0.6498079,0.13648966,0.025597798,-0.64715225,0.2935505,-0.10219722,0.16651094,0.12662233,0.008680414,0.014632979,-0.45688808,0.22716577,0.08395057,-0.7583858,0.13333781,-0.10880988,-0.008683206,0.25100783,-0.32581368,-0.17306864,0.07884174,-0.023632627,0.19244689,0.1611498,-0.6901743,-0.012050219,-0.02284632,0.27350265,-0.30287454,-0.021591099,0.24321938,-0.11185733,0.30936098,0.25784877,-0.85544455,-0.05748211,-0.34236452,0.26317957,-0.5325168,0.36701486,0.13297796,-0.08325924,0.38164356,0.49704647,-0.4118906,0.054740474,-0.5433338,-0.22055793,-1.176357,0.60796106,-0.56131464,0.32385173,-0.62686735,-0.084235616,-0.63949895,0.509727,0.8553553,-0.15795451,-0.5818284,-0.99030983,0.23596764,-1.3591944,0.15422752,0.14271292,-1.1716127,0.016939944,-0.24084616,0.31296,-0.36225381,0.05001072,-0.051373627,-0.301686,0.18759145,0.29416725,-0.31573862,-0.05608521,-0.5099301,0.2867798,-0.18168285,0.21161541,-0.43140668,-0.16376671,0.15003186,0.049621023,0.06465488,0.1705556,-0.24771959,0.15282752,-0.20513356,0.2730787,-0.6306439,0.13764423,-0.03354466,-1.0434515,0.2517412,0.16598816,-0.0661036,0.17605336,-0.24306226,0.11922805,-0.095286906,0.08304867,0.011385053,-0.24247028,-0.08027439,0.009681413,-0.037385937,0.28441814,-0.1873181,0.008207099,0.12427136,-0.063148424,0.20473485,0.19999975,-1.4014615,0.09950871,0.047308013,0.22907759,0.012982178,0.05399725,0.21357755,-0.26802424,0.119620465,0.13867529,-0.12781382,-0.07116843,0.024308564,-0.1518071,-0.0027419028,0.14152251,-0.038934063,-0.27861556,-0.16574359,0.50935477,0.29101318,0.43913272,0.0057367026,-0.4311388,0.16584046,0.093338296,-0.64610577,-0.18733807,-1.2697811,0.07725285,-1.0169245,0.54537386,0.8373666,-0.8261437,-0.18857573,-1.2877734,-0.29246363,-0.4510794,-0.22739413,0.15211283,-0.10127958,0.28406045,0.34632257,-0.26761198,0.095802926,-0.20401663,-0.8509919,-0.0050786836,-0.17843485,0.26557046,0.10221589,0.23637886,-0.14540763,-0.20205867,-0.1179936,0.20833626,-0.5692444,0.101268806,-0.18341805,0.1612399,0.17229609,0.20076402,-0.4039512,-0.14960073,-0.31625614,0.3523307,-0.024521148,0.121741645,-0.29072815,-0.11577219,0.20111087,0.08549017,-0.21506152,0.062725715,-0.18689035,0.13943465,0.03641471,-0.07143465,-0.1020248,0.025669482,-0.14980565,0.030029176,0.051178332,0.096062176,-0.008093823,0.07615632,-0.06363033,-0.14987685,0.015402995,0.081872694,0.053485494,0.05854147,0.12933657,-0.19033231,0.19317964,0.14354612,-0.32534125,-0.13662085,-0.104965635,-0.003308583,0.6916441,-0.024728257,0.0627697,-0.31611994,0.25735325,0.07264007,-0.72066236,0.0007039086,-0.11615607,0.098498635,0.4215424,0.3268352,-0.115883626,-0.95201623,0.2846139,-0.2008989,-0.90981716,0.15638863,-0.4618816,-0.08300875,0.19296503,0.60421777,0.6556026,-0.71979237,-0.44738537,-1.5658277,-0.3438685,-0.37226433,-0.24472043,0.17045204,0.41644275,0.35142615,0.37441912,-1.3471923,-0.11983303,-0.56941926,0.010071754,0.1343371,-0.2671954,0.16560122,0.15674223,0.26791406,0.14445914,-0.669282,0.0362672,-0.09969341,-0.035266526,0.10613658,-0.3355776,0.14664619,-0.020965891,0.08785982,-0.03573346,-0.404813,-0.010265719,0.20042843,-0.039602272,-0.04168829,-0.30314943,0.0746824,0.015627788,-0.093221545,-0.02672224,-0.12951398,0.009701178,0.19014396,-0.022347063,-0.020770598,-0.160237,-0.040323686,0.0957073,-0.09380555,0.12869294,-0.041843083,0.0998993,0.13376245,-0.25404924,-0.04371642,-0.21472515,-0.08088593,0.45705178,-0.01345486,0.10817343,-0.104099266,0.14011708,-0.017752925,-0.50560963,-0.019910667,-0.13856295,0.12656882,-0.010662221,-0.18985209,-0.05745756,-0.026054751,0.28895164,-0.13971514,-1.0589355,0.13178216,0.12769157,-0.021758288,0.21124604,0.102705054,-0.49850243,-0.2664692,0.6366688,-0.41089264,-1.0962507,0.06994453,0.37297598,-0.6321179,-0.15730566,-0.042706266,0.78876716,-0.7881716,-0.23811673,-0.45961943,0.48884153,-1.025441,0.19443268,-0.0039110654,0.50337464,0.04912259,0.1345258,-0.37041956,-0.68234265,-2.3204384,0.8507252,-0.041354116,0.44392616,0.056351002,0.14957015,0.05600827,0.16533878,0.08838006,-0.05749896,-2.0161142,0.46545196,0.100547336,0.20555931,0.19709332,-0.22498396,-0.1167866,0.1566195,-0.15218653,0.14082384,-1.4697738,0.24368304,0.09046744,0.08724661,0.14407954,-0.08463106,-0.1782357,0.18557493,-0.10725938,0.20740949,-0.9701081,0.18676066,0.212855,0.022088164,-0.114411585,0.41623512,-0.20468152,0.052084476,0.007148744,0.22403352,-0.94697547,0.1352595,0.1629537,0.089842774,-0.352891,0.24872005,-0.25272828,-0.011139681,0.070693694,0.19813007,-1.119147,-0.14242639,0.10371884,0.27954867,-0.5625466,-0.042640403,-0.28295842,-0.36683184,0.14438026,0.21872953,-0.8609269,-0.3284032,0.21544594,0.7271864,-0.4157763,-0.32710147,-0.19066389,-0.4384266,-0.05091828,0.18386416,-0.6499261,-0.6222933,-0.4254632,0.67794114,-0.64277047,0.308494,-0.10690346,0.64225465,0.20716581,-0.88884306,-0.0078911,-0.11676129,-0.76076937,-0.75004345,-0.35963646,-0.15724045,0.24265301,0.5059257,-0.13933408,-0.61568767,0.23908043,-0.4609453,-0.5219139,-1.8486394,-0.21757637,-0.48867375,0.40375382,0.24535297,-0.36910447,-0.18171187,0.266345,-0.6536246,-0.12767984,-1.4363,0.0532147,0.33644843,0.39329132,0.26156852,-0.34633452,-0.114595145,0.006071683,-1.1849071,0.18302292,-0.94568115,0.29329622,0.30158192,0.3198216,0.20865142,-0.35133708,-0.08355283,0.08621029,-1.7088578,0.3483493,-1.1173799,0.21083163,0.045454163,0.2686278,0.13649493,-0.20739594,0.10437601,0.33182815,-2.0416267,0.32170102,-1.3027171,0.11621948,0.017648289,0.01566873,-0.15393591,0.09901785,0.18761449,0.5508271,-2.8486588,0.20780796,-1.8497795,-0.100727305,0.45914504,-0.27914762,-0.54819936,0.35775754,0.22367603,0.7967929,-3.3264904,0.06702322,-2.1798697,-0.4611396,0.069140814,-0.9433199,-1.6115829,0.33758438,0.42944786,1.0575014,-2.6755912,-0.23121564,-3.1936603,-0.6822576,-0.054320663,0.121528305,0.8230695,0.3083502,-1.160218,-0.41936696,0.5575409,-0.64791876,-1.8257804,-0.3895572,-0.43579614,0.21461213,0.38120595,0.0165258,-0.2565538,-0.20735475,0.5939492,-0.07119826,-0.76404476,-0.09077868,-0.6295412,0.13621832,0.30567917,-0.00194077,0.014063614,-0.08820893,0.42716563,0.17049882,-0.10528445,-0.06871933,-0.3068647,0.060962513,0.10407294,-0.17394388,-0.01844763,-0.1250334,0.12567502,0.0646016,0.097339936,0.11962752,-0.15445171,-0.008016661,0.013873458,-0.40818995,-0.027339961,-0.04266157,0.050586596,0.12236414,0.29214826,0.15385604,-0.10159537,-0.08087152,-0.052463222,-0.33680895,-0.039746888,-0.042596508,0.03835273,0.07529325,0.2191727,0.025346499,-0.18841161,-0.18678698,-0.113634884,-0.015929477,0.13877735,-0.11405469,0.07577898,0.050148785,0.039059334,0.02102919,0.029639222,-0.22643477,-0.30305547,0.14345983,0.3742486,-0.053646818,-0.07903493,0.12225788,-0.31277052,-0.047137626,-0.3188552,-0.75807834,-1.0328714,0.5393724,0.87284064,-0.028550316,-0.60087126,0.35464415,-1.4074498,-0.52211756,-0.387812,0.42548952,0.620077,-0.5304425,-0.89241374,-0.92953694,0.5822791,-0.14099373,-0.6362268,-0.0978513,-0.24130005,0.011013473,0.20155676,-0.29694605,-0.20186098,-0.13210663,0.15538397,0.0863844,-0.11942446,-0.06434718,-0.6677168,-0.00875074,-0.1891242,0.0033495212,-0.01173073,-0.11997416,0.2387054,0.06653801,0.17046054,0.11052515,-0.44106862,-0.20356525,-0.24015933,0.005545681,0.017778015,0.047563534,0.11041836,0.067756355,0.1572917,0.032469653,0.3296812,-0.16813995,0.06252452,-0.41400132,-0.018978737,0.021874022,0.13855861,-0.09139896,0.10877631,-0.008741978,0.0749906,-0.10984613,0.142979,-0.07182246,-0.2373411,-0.22359164,0.2124148,-0.096799254,-0.025136653,0.107175335,-0.18910001,-0.11746281,0.029729964,0.18208118,-0.08758683,-0.47055644,0.2480326,0.11848569,-0.0865853,0.111534365,-0.42423487,-0.24172401,-0.13231474,0.03040998,0.29423177,-0.22438237,0.012043312,0.21696381,-0.26895154,0.054031197,-1.3359758,-0.6993859,-0.9200343,-0.23085834,1.3003653,-0.59089965,-0.50471467,0.4169831,-1.0752025,-0.005340411,-0.1587577,-0.8844856,0.023809696,-0.34822,-0.07074763,-0.38277653,0.37377623,0.16189519,0.18148221,0.08411594,0.08741633,-0.63423455,-0.5899973,0.24327667,0.06543514,0.2129475,0.21779738,0.104717776,0.3316272,0.21915153,-1.1005946,-0.6153673,-0.36014184,0.47622657,0.10181094,0.18301354,0.09502277,0.078906864,0.3797792,0.059049,-0.11905326,-0.5973413,0.09302822,0.2772341,0.14190891,0.15462059,-0.13495417,0.09468563,0.070315234,-0.3262096,0.3686398,-0.22567071,0.26446748,-0.06424862,0.00038487389,0.025029466,-0.21528329,0.023551218,0.005200654,-0.67451507,0.059052892,-0.112155266,0.06980311,0.28534165,-0.34476283,-0.19932815,0.13115987,0.07568724,0.27625763,-0.14208256,-0.75566167,-0.08856213,-0.05655792,0.20622274,-0.4668815,-0.022151416,0.20417954,0.1935631,0.2804982,0.25929862,-0.9473562,-0.021055408,-0.38914523,0.06808659,-0.61848897,0.42089865,0.095011145,0.42396253,0.1305825,0.59066856,-1.1842787,-0.1727747,-1.4990258,-0.64106303,0.22104846,0.5612634,-0.6764522,0.62077016,-0.73608446,0.0732089,-0.17986977,-0.46225703,-0.0046654264,0.09598643,-0.51485825,-0.29444718,0.3585696,-0.8593394,0.33069652,0.17562616,-0.23611596,-0.22420326,-0.59238344,0.44509727,-0.19091764,-0.004820903,0.28535864,-0.623827,0.27620244,0.33434013,-1.4092672,-0.022796819,-0.06861822,0.49101472,0.11739923,0.32864845,-0.18215643,-0.24844217,0.23285851,0.048395302,0.13076344,0.08867531,0.1634283,0.19264728,-0.04868021,0.12061003,-0.8552023,0.06693822,0.011212195,-1.4898094,0.29739738,0.18512763,0.0044966685,0.21431659,-0.19130722,0.10872506,-0.26020578,0.091378696,0.16223952,-0.47732747,-0.15433605,0.067814484,-0.15330367,0.2741498,-0.34021828,0.050475918,0.07349089,0.06092129,0.18644685,0.2096562,-1.8811871,0.063551195,-0.114219524,0.33061862,-0.30546147,0.12211961,0.22128285,-0.13885716,0.15491459,0.2040447,-1.3611357,-0.15839265,-0.21535693,0.3264278,-0.44977129,0.26011974,0.091190785,-0.23891196,-0.24657579,0.40963417,-0.78499466,0.46622533,-0.25295395,-0.023592511,-0.60597825,0.16697824,-0.20889986,-0.24908154,-1.2333144,0.0956463,-1.8282464,0.37098047,0.6849446,-0.16562964,-0.027763093,-0.93173873,-0.0649566,-0.98843557,-0.29863954,0.19705124,-1.0003555,0.10929501,-0.033495765,0.2927556,-0.08417707,-0.05909379,-0.012468021,-0.18635044,0.046546444,0.28944623,-0.3362486,0.11430628,-0.41282085,0.13779412,-0.30931064,0.2510251,-0.14716838,0.1855785,-0.005625367,-0.1294009,0.22779599,0.25050074,-0.42255056,0.006356044,-0.48194954,0.25594646,-0.12665226,0.3482475,-0.042335287,-0.390272,0.38987765,0.28543785,-0.27133772,0.28072762,-0.35220724,0.16421445,0.20970935,0.10361874,0.13116334,0.008398625,-0.42861536,0.105570324,-0.07055064,0.2757699,-0.15704763,0.05875129,0.13230515,-0.33921805,0.102511905,0.36876288,-1.3965623,0.07927205,0.18257833,0.119078085,0.076495424,0.29892537,0.23338152,-0.34585452,-0.07228497,0.18210714,-0.055377983,0.19947138,-0.14055638,0.030855216,-0.11348604,0.21824075,0.017554618,-0.24373534,-0.5395723,0.25862482,0.1729059,1.1081792,-0.19078256,-0.38013405,-0.14877622,-0.10711384,-0.6451637,-0.19129048,-1.5502713,0.08091378,-0.55851537,0.5567155,0.88679034,-0.6523049,0.11312341,-1.4166932,-0.670633,-0.22103038,-0.7386792,0.16528632,0.037086807,0.33944046,0.25877544,-0.7776083,0.1965288,-0.3753146,-0.77770066,0.11492069,-0.78641546,0.17116141,0.0018423471,0.26335946,-0.11235829,-0.70351166,0.0047414573,0.17662126,-0.4007486,0.19934878,-0.6541981,0.059870522,0.13690221,0.11293978,-0.11456083,-0.30204657,-0.061435472,0.18796693,-0.05451707,-0.0039988523,-0.3441574,0.037182484,0.0335808,-0.10303646,-0.09267483,-0.06828868,-0.05851295,0.122196,0.016419506,-0.3728061,-0.08209196,0.19841237,-0.40710968,0.039212536,0.19468533,-0.19054157,0.10567798,0.3015931,-0.1704273,-0.13563918,-0.11873903,0.23798749,-0.07335502,0.21295713,0.2882853,-0.46635216,0.16306125,0.45155597,-0.4756405,-0.017886156,-0.35999018,0.21069491,0.31005782,0.36695653,0.027153678,-0.5059644,0.15897751,0.21774992,-1.0803162,0.004290824,-0.27607104,-0.118537396,0.26214552,0.8527412,-0.571678,-0.94720894,0.26777053,-0.13176179,-1.5497646,-0.08046043,-0.5125737,0.20461647,0.57144594,0.5027603,0.4331651,-1.2407901,-0.536277,-2.055499,-0.008599261,-0.40186414,-0.4233532,0.14300138,0.24088088,0.38751826,0.39879546,-1.0433961,-0.04404378,-1.2323177,0.11722667,0.07695579,-0.31566975,0.17740433,0.09195388,0.2759125,0.15320936,-0.4098976,0.0846846,-0.40194377,-0.02829567,0.018251086,-0.25758168,0.12548433,-0.09661965,-0.06891378,0.08785429,-0.16413498,0.06502401,-0.1550659,-0.026665911,-0.03945472,-0.13366686,0.08278626,-0.28647897,-0.27112415,0.082707606,-0.11186622,0.054014,0.014194823,-0.11589493,0.13002373,-0.13891916,0.13209842,-0.2200178,-0.17944461,0.12456184,-0.14542663,0.13501461,-0.038418997,-0.397856,0.20446013,-0.17866704,0.10507305,0.31911027,0.14040025,0.08557804,-0.050900333,0.175779,-0.10530623,-0.79733944,0.19376425,-0.027231174,0.062513314,-0.015321606,0.16634268,-0.18011756,0.13533168,0.3428286,-0.44979528,-1.213451,0.1372763,0.11844174,-0.24035381,-0.23858477,0.7088719,-0.98218143,0.07104238,0.31410688,-0.9619534,-1.5917408,-0.50146204,0.39295092,-0.7552288,0.093621776,-0.3633577,0.86731434,-0.5967319,-0.5170898,-0.8924852,0.5840252,-1.2453886,0.40746036,-0.80142933,0.07258442,-0.5498536,0.5933431,-0.2557213,-0.4598507,-2.3463733,0.78688425,-0.41957888,0.6374257,-0.71485037,-0.36173695,-0.51561844,0.51894873,0.07752849,-0.011839282,-3.3292975,0.50668293,-0.18580079,0.42167315,-0.34825355,-0.7736675,-0.582233,0.59464383,-0.1251941,0.31264478,-2.9491816,0.4443288,0.07818606,0.38399395,-0.15955585,-0.63698095,-0.60024756,0.5541167,-0.23908666,0.4294547,-2.3739269,0.38438126,0.34797305,0.23354165,-0.22529112,-0.48548123,-0.3894722,0.32367036,-0.2505841,0.27825075,-1.7541014,0.28524962,0.39593408,0.34941453,-0.7437295,-0.3655118,-0.19415057,0.13438237,-0.30362362,0.05803787,-1.6125207,0.03693128,0.26657572,0.621837,-0.79341656,-0.32431123,-0.08624202,-0.33024505,-0.10462549,0.1623115,-1.314369,-0.44130075,0.066082954,1.017586,-0.6351339,-0.35842043,0.05096419,-0.6757637,-0.20669447,0.36437225,-0.8435232,-0.6506854,-0.4093783,0.61668533,-0.5512184,2.452308,-0.54353034,-1.0674621,0.72039795,0.25892586,0.09100775,0.9159683,-1.3589133,-0.193268};


int8_t binary_weights_bias [] = {0b00011101,0b00000011,0b00000001,0b00101000,0b00100101,0b11111011,0b11111101,0b00101010,0b00100100,0b11111010,0b11111100,0b00100100,0b00101010,0b11111010,0b11111010,0b00110000,0b00111001,0b11111011,0b00000001,0b00110011,0b00110010,0b00000000,0b11111011,0b00110011,0b00011010,0b11111011,0b00000010,0b00010000,0b00011110,0b11111011,0b00000001,0b00011011,0b00100010,0b11111010,0b00000011,0b00011100,0b00000000,0b11111111,0b11111111,0b00000000,0b11010101,0b00001111,0b00001011,0b11100010,0b00000000,0b11111101,0b11111100,0b00000000,0b00000011,0b00000000,0b00000000,0b00000100,0b11010110,0b00001010,0b00000110,0b11011011,0b11001000,0b00001000,0b00100000,0b11110100,0b00000010,0b11111100,0b11111110,0b00000000,0b00000000,0b00000010,0b11111100,0b00000100,0b11001010,0b00001101,0b00100000,0b11110001,0b11000111,0b11101101,0b00000111,0b00000100,0b11111101,0b11111101,0b00000000,0b11111101,0b00000010,0b11111111,0b11111100,0b00000010,0b11000011,0b11110001,0b00001111,0b11111101,0b00001011,0b00001111,0b00010000,0b00000101,0b11111111,0b00000001,0b11111111,0b00000011,0b00000011,0b00000011,0b11111111,0b00000011,0b00001110,0b00010100,0b00001110,0b00001101,0b00001011,0b00010111,0b00100001,0b00011000,0b00000010,0b00000000,0b00000000,0b00000001,0b00000100,0b11111101,0b00000100,0b11111101,0b00000100,0b00010101,0b00100011,0b00010011,0b00000100,0b11111111,0b00001111,0b00010101,0b00000001,0b11111101,0b00000000,0b00000001,0b00000100,0b00000001,0b11111111,0b11111100,0b00000100,0b00000010,0b00010111,0b00011000,0b00100110,0b00010001,0b00000011,0b00010001,0b00000011,0b00000000,0b00000000,0b00000011,0b00000100,0b00000000,0b00000001,0b11111110,0b00100110,0b00010010,0b11111110,0b00010010,0b00011001,0b00001101,0b00001111,0b00001011,0b00000011,0b00000100,0b00000010,0b11111100,0b00000010,0b00000100,0b00000010,0b11111110,0b00011111,0b00010111,0b00010011,0b00001111,0b00011001,0b00001110,0b00001110,0b00010000,0b00000010,0b11111111,0b11111100,0b00000000,0b00000010,0b11111111,0b11111110,0b11111101,0b00011001,0b00010100,0b00001010,0b00010100,0b00000000,0b11111010,0b11110110,0b11111110,0b11111110,0b00000001,0b11111110,0b00000101,0b00000010,0b11111011,0b11111101,0b11111101,0b11111011,0b11110111,0b11110111,0b00000000,0b11111111,0b00000110,0b00000100,0b11110101,0b11111110,0b11111111,0b11110111,0b00000000,0b11111111,0b00000000,0b11111101,0b00000101,0b00000001,0b11111100,0b00000010,0b11111111,0b11111011,0b00000001,0b11110101,0b00000100,0b11111110,0b00001010,0b00000011,0b11110001,0b11111111,0b11111110,0b11110011,0b11110011,0b11111011,0b11111011,0b00000000,0b00000100,0b00000101,0b11111010,0b11111111,0b00000010,0b11111101,0b11110100,0b11111001,0b11111111,0b00000101,0b00000110,0b11111010,0b11111010,0b00000001,0b11110111,0b11110101,0b11101100,0b11110111,0b00000010,0b00000010,0b00000110,0b11111010,0b11110110,0b00001001,0b11110101,0b11110101,0b11110111,0b11111010,0b11111101,0b00000011,0b00001000,0b11111101,0b11110110,0b00000011,0b11111000,0b11110111,0b11100010,0b11111101,0b11111011,0b00000010,0b00000011,0b00000011,0b11111100,0b11111101,0b00000001,0b11111110,0b11110110,0b11111101,0b11111000,0b00001000,0b00000111,0b11110100,0b11111101,0b00000111,0b11110101,0b11111101,0b11101100,0b11111001,0b11110111,0b00001001,0b00000110,0b11101010,0b11110111,0b00001001,0b11101100,0b11111011,0b11101000,0b11111100,0b11111000,0b00000110,0b00000011,0b11111010,0b11111101,0b00000100,0b11110101,0b11111101,0b11101001,0b11111111,0b11111111,0b00000001,0b00000001,0b00000001,0b11111101,0b11111010,0b11111110,0b00000000,0b11111010,0b11111111,0b00000010,0b00001000,0b00000111,0b11101110,0b11111110,0b00000010,0b11101101,0b00000010,0b11110011,0b11111100,0b11111010,0b00001010,0b00001010,0b11100100,0b11111100,0b00001001,0b11101001,0b11111011,0b11101110,0b00000000,0b00000101,0b00000110,0b00000100,0b11111010,0b11111110,0b00000000,0b11101101,0b00000010,0b11110000,0b00000001,0b11111111,0b00000001,0b00000000,0b11111111,0b11111100,0b11111101,0b11111001,0b00000001,0b11111100,0b00000011,0b00000001,0b00000111,0b00000100,0b11110000,0b11111111,0b00000001,0b11100101,0b00000100,0b11101101,0b11111101,0b00000010,0b00001010,0b00001001,0b11100110,0b11111101,0b00001000,0b11100101,0b11111110,0b11101010,0b00000100,0b00000100,0b00000101,0b00000011,0b11111010,0b11111110,0b00000001,0b11100100,0b00000101,0b11101110,0b00000001,0b11111111,0b00000001,0b11111111,0b11111111,0b11111110,0b00000000,0b11110101,0b00000011,0b11111100,0b00000100,0b11111011,0b00000111,0b00000010,0b11110010,0b00000010,0b00000100,0b11011101,0b00000101,0b11100101,0b11111101,0b11111000,0b00001000,0b00000111,0b11101011,0b00000010,0b00001010,0b11011100,0b11111010,0b11100011,0b00000011,0b00000000,0b00000100,0b00000010,0b11111100,0b00000001,0b00000101,0b11011111,0b00000101,0b11101011,0b00000000,0b11111111,0b11111110,0b11111100,0b00000011,0b00000000,0b00000010,0b11110011,0b00000010,0b11110111,0b00000011,0b11111111,0b00000011,0b00000000,0b11111010,0b00000100,0b00001100,0b11011000,0b00000010,0b11100001,0b11111101,0b11110101,0b00000100,0b00000100,0b11110101,0b00000100,0b00001111,0b11011110,0b11111001,0b11100100,0b00000001,0b00000000,0b00000000,0b11111101,0b00000001,0b00000011,0b00001000,0b11010010,0b00000011,0b11100010,0b00000000,0b00000001,0b11111011,0b11111001,0b00000100,0b00000010,0b00000110,0b11110010,0b00000001,0b11110000,0b11111110,0b00001000,0b11111100,0b11110111,0b00000000,0b00000001,0b00001111,0b11010010,0b00000000,0b11100000,0b11111011,0b00000000,0b11111100,0b11111010,0b11111101,0b00000010,0b00010000,0b11100111,0b11111010,0b11100111,0b11111110,0b00000111,0b11111011,0b11110111,0b00000101,0b00000011,0b00001100,0b11001010,0b00000001,0b11011101,0b00000000,0b00000000,0b11111000,0b11110100,0b00000110,0b00000110,0b00000101,0b11101110,0b11111111,0b11100111,0b11110111,0b00000001,0b11110010,0b11101010,0b00000100,0b00000110,0b00010011,0b11100001,0b11111001,0b11011001,0b11110111,0b11111101,0b11110100,0b11101111,0b00000000,0b00000100,0b00001110,0b11110111,0b11111001,0b11110110,0b11111000,0b00000001,0b11110000,0b11100110,0b00000101,0b00000110,0b00010000,0b11010101,0b11111100,0b11001100,0b11111101,0b11111101,0b00000001,0b00000110,0b00000100,0b11110010,0b11110110,0b00000111,0b11111110,0b11110011,0b11110000,0b00000011,0b00000011,0b00001000,0b00000010,0b11101101,0b11111011,0b00001000,0b11110111,0b11101000,0b11110111,0b11111101,0b00000001,0b00001000,0b00000101,0b11110011,0b00000000,0b00000001,0b11110110,0b11110001,0b11110101,0b11111111,0b00000001,0b00001101,0b00000100,0b11101101,0b11111001,0b00001000,0b11110101,0b11100010,0b11111100,0b11111111,0b00000010,0b00000110,0b11111101,0b11111000,0b11111000,0b00001000,0b11111110,0b11111001,0b11111010,0b11111010,0b00000011,0b00000110,0b00000001,0b11111010,0b11111011,0b00000110,0b11111101,0b11110001,0b11111111,0b11111110,0b00000001,0b00000010,0b00000010,0b00000000,0b11111110,0b00000101,0b11111101,0b11110010,0b11111001,0b11111001,0b00000011,0b00000110,0b00000000,0b11111011,0b11111100,0b00001001,0b11111110,0b11110011,0b11111011,0b11110011,0b00000011,0b00000011,0b11111111,0b11111100,0b11110100,0b00000101,0b00000000,0b11111110,0b11111100,0b11110011,0b00000011,0b00000100,0b11111110,0b11111111,0b11111100,0b00000110,0b11111111,0b11111010,0b11111110,0b11111000,0b00000001,0b00000010,0b11111110,0b00000000,0b00000000,0b00000001,0b11111111,0b11111011,0b11111110,0b11110101,0b00000010,0b00000100,0b11111111,0b00000000,0b11111110,0b00000110,0b00000010,0b11111110,0b11111110,0b11110100,0b00000001,0b00000001,0b11111110,0b11111110,0b11110101,0b00000010,0b00000000,0b00000010,0b11111111,0b11111011,0b00000011,0b00000011,0b11111100,0b00000001,0b11111011,0b00000010,0b11111111,0b11111111,0b11111111,0b00000001,0b00000001,0b00000001,0b11111100,0b00000001,0b11111101,0b00000000,0b11111111,0b11111101,0b11111110,0b11111011,0b00000000,0b00000001,0b11111101,0b11111111,0b11111101,0b00000010,0b00000001,0b00000001,0b00000000,0b11111010,0b00000000,0b00000000,0b11111011,0b11111111,0b11111000,0b00000001,0b00000001,0b00000010,0b00000001,0b11111111,0b00000001,0b00000001,0b11111000,0b11111111,0b11111100,0b00000000,0b00000001,0b00000100,0b00000000,0b00000000,0b00000001,0b00000000,0b11110110,0b11111111,0b11111101,0b11111100,0b00000000,0b00000000,0b00000001,0b11111101,0b11111111,0b00000000,0b11111001,0b11111111,0b11111111,0b00000000,0b00000001,0b00000100,0b00000010,0b11111101,0b00000000,0b00000000,0b11111010,0b00000000,0b11110101,0b00000001,0b00000001,0b00000011,0b00000011,0b11111111,0b00000001,0b00000000,0b11110111,0b11111111,0b11111101,0b11111111,0b00000000,0b00000100,0b00000010,0b11111111,0b00000000,0b00000001,0b11111001,0b00000000,0b11111111,0b11111101,0b00000001,0b00000000,0b00000010,0b11111110,0b11111110,0b11111111,0b11111010,0b11111111,0b11111111,0b00000000,0b00000001,0b00000011,0b00000011,0b11111011,0b11111111,0b11111111,0b00000000,0b00000001,0b11110101,0b00000001,0b00000010,0b00000010,0b00000010,0b11111110,0b11111111,0b11111111,0b11111100,0b00000000,0b11111101,0b11111111,0b00000001,0b11111111,0b00000011,0b00000001,0b00000001,0b00000001,0b11111100,0b00000001,0b00000001,0b11111011,0b00000001,0b11111111,0b00000000,0b11111100,0b11111101,0b11111110,0b11111111,0b00000010,0b11111110,0b00000001,0b00000000,0b00000000,0b00000000,0b11111100,0b11111101,0b11111101,0b00000001,0b00000101,0b11111000,0b00000000,0b00000011,0b11111101,0b00000001,0b00000000,0b11111111,0b11111100,0b11111111,0b00000010,0b00000000,0b11111100,0b00000010,0b11111100,0b00000011,0b00000100,0b00000001,0b11111111,0b11111111,0b00000001,0b00000001,0b11110110,0b00000010,0b11111100,0b00000000,0b00000000,0b11111100,0b11111011,0b00000010,0b00000101,0b11111111,0b11111110,0b00000001,0b11111010,0b11111110,0b11111001,0b11111010,0b11110110,0b00000011,0b00001001,0b11111110,0b11111101,0b00000011,0b11110110,0b00000000,0b11111110,0b11110110,0b11110000,0b00001001,0b00001001,0b00000010,0b11110001,0b00000100,0b11101001,0b11111011,0b00000000,0b11110100,0b11110100,0b00000111,0b00001000,0b00001000,0b11100111,0b00000011,0b11101010,0b11111111,0b11111010,0b11110011,0b11101111,0b00001000,0b00001101,0b11111111,0b11110110,0b00000101,0b11101001,0b11111110,0b11111110,0b00000011,0b00000111,0b11110110,0b11110001,0b11110101,0b00000100,0b11111110,0b11111010,0b11110111,0b11111011,0b00000100,0b00001011,0b11111100,0b11100110,0b11110010,0b00001101,0b11111110,0b11101111,0b11111000,0b11111110,0b00000011,0b00000110,0b00000001,0b11101110,0b11110101,0b00001000,0b00000000,0b11110010,0b11110111,0b11111001,0b00000110,0b00001001,0b11110111,0b11110001,0b11110001,0b00001001,0b11111101,0b11110101,0b11111011,0b00000000,0b00000110,0b00001000,0b11110100,0b11110110,0b11110011,0b00000011,0b11111111,0b11111110,0b11111101,0b11111011,0b00000000,0b00000100,0b11111101,0b11111101,0b11111010,0b00000100,0b00000000,0b11111101,0b11111110,0b00000000,0b00000000,0b00000010,0b11111110,0b11111111,0b11111110,0b00000011,0b00000001,0b11111110,0b11111110,0b11111100,0b00000000,0b00000011,0b11111011,0b11111100,0b11111101,0b00000010,0b00000001,0b11111110,0b11111101,0b11110101,0b00000101,0b00000001,0b11111100,0b11111011,0b11110111,0b00000100,0b00000000,0b00000011,0b11111110,0b11111000,0b11111111,0b11111111,0b11111111,0b00000001,0b11111110,0b00000101,0b00000001,0b11111111,0b11111111,0b11111011,0b00000000,0b11111111,0b00000000,0b00000001,0b11111111,0b00000010,0b00000001,0b11111111,0b11111110,0b11110101,0b11111111,0b11111100,0b00000000,0b11111111,0b11111110,0b00000011,0b00000001,0b00000010,0b00000000,0b11101110,0b00000001,0b11111111,0b11111111,0b11111111,0b11111011,0b00000110,0b00000001,0b00000101,0b00000000,0b11111100,0b11111110,0b11111011,0b00000010,0b00000010,0b11111110,0b00000100,0b00000001,0b00000001,0b00000000,0b11111100,0b11111111,0b11111101,0b11111111,0b00000000,0b11111110,0b00000010,0b00000000,0b00000000,0b00000001,0b11111000,0b11111100,0b11111100,0b00000000,0b00000000,0b00000000,0b00000001,0b00000001,0b00000010,0b00000000,0b00000010,0b11111111,0b00000001,0b11110101,0b00000010,0b11111010,0b00000110,0b11111101,0b00000000,0b00000000,0b00000011,0b11111110,0b00000000,0b11111001,0b00000000,0b11111110,0b00000011,0b11111111,0b00000000,0b00000010,0b00000011,0b00000000,0b00000000,0b11111000,0b00000000,0b11111111,0b00000010,0b11111111,0b00000010,0b00000000,0b00000101,0b11111101,0b00000001,0b11111001,0b11111111,0b00000000,0b00000010,0b11111110,0b00000001,0b11111110,0b00000100,0b11111111,0b00000000,0b11110100,0b00000101,0b11111011,0b00000110,0b11111010,0b11111111,0b00000011,0b00000100,0b00000000,0b00000011,0b11111011,0b11111101,0b11111011,0b00000011,0b11111110,0b00000010,0b00000010,0b00000000,0b00000000,0b00000001,0b11111011,0b11111110,0b11111011,0b00000011,0b11111110,0b00000001,0b11111111,0b00000001,0b11111110,0b00000010,0b11111110,0b11111100,0b11111100,0b00000011,0b11111110,0b11111111,0b00000010,0b11101010,0b11111101,0b11111010,0b11111100,0b00000101,0b00000001,0b00000101,0b11111110,0b00000010,0b00000011,0b11111100,0b00000001,0b00000010,0b00000000,0b11111100,0b11110111,0b00000011,0b00000000,0b00000010,0b00000011,0b11111111,0b00000000,0b00000000,0b11111111,0b11111110,0b11111000,0b00000010,0b00000000,0b11111111,0b00000001,0b11111100,0b11111110,0b00000000,0b00000010,0b11111110,0b11111000,0b00000011,0b00000001,0b11111110,0b00000100,0b11100001,0b11111100,0b11111001,0b11110111,0b00001000,0b00000011,0b00000001,0b00000101,0b11111111,0b00000011,0b11111110,0b00000000,0b00000001,0b11111111,0b11111110,0b11111001,0b00000001,0b00000010,0b11111110,0b00000001,0b00000001,0b11111111,0b00000000,0b11111111,0b00000001,0b11111001,0b00000001,0b00000001,0b11111111,0b00000001,0b11111001,0b11111100,0b11111101,0b00000000,0b00000100,0b11111100,0b00000000,0b00000011,0b11111011,0b00000001,0b11101111,0b11111000,0b11110111,0b11110100,0b00001110,0b00000000,0b11111010,0b00000101,0b11111010,0b00000100,0b11110100,0b11111100,0b11111000,0b11111111,0b00001001,0b11110101,0b11110111,0b00000100,0b11110010,0b00000011,0b11111000,0b11110111,0b11110011,0b00000000,0b00001110,0b11111010,0b11111000,0b00000101,0b11110001,0b00000000,0b11101010,0b11110100,0b11110001,0b11111100,0b00010100,0b11110110,0b11110111,0b00000110,0b11101110,0b00000010,0b00000100,0b00000010,0b00000101,0b11111011,0b11111001,0b11111101,0b00000111,0b00000000,0b11111101,0b11110110,0b00000000,0b11110110,0b00000100,0b11111011,0b11111111,0b11110101,0b00001101,0b00000001,0b11111100,0b11111010,0b11111111,0b11111010,0b00000101,0b11111010,0b11111011,0b11110100,0b00001001,0b00000010,0b11111011,0b11111111,0b11111101,0b11110001,0b00000000,0b11111010,0b11111110,0b11111001,0b00000101,0b00000010,0b00000010,0b00000001,0b00000100,0b00001001,0b00000111,0b11111111,0b11110111,0b11111000,0b00000101,0b11110100,0b00000001,0b00000000,0b11111110,0b11110010,0b11110111,0b00000001,0b11111111,0b00000000,0b00000101,0b00000100,0b00000011,0b00000000,0b00000011,0b11110110,0b11111001,0b00000000,0b00000011,0b00000000,0b00000010,0b00000001,0b00000001,0b00000001,0b00000001,0b11110101,0b11110110,0b00000011,0b00000001,0b00000011,0b00000011,0b00000001,0b00000101,0b00000001,0b11110101,0b00000100,0b00001001,0b00000011,0b11111010,0b11111010,0b00000001,0b11110100,0b00000000,0b00000001,0b11111001,0b11110100,0b11110100,0b00000111,0b00000010,0b00000001,0b00000010,0b00000010,0b00000011,0b11111111,0b11111001,0b11111000,0b11110101,0b00000011,0b00000010,0b00000000,0b00000010,0b00000001,0b00000011,0b00000011,0b11101110,0b11110110,0b11111010,0b00000111,0b00000001,0b00000010,0b00000001,0b00000001,0b00000110,0b11111010,0b00000001,0b11111111,0b00001001,0b00000001,0b00000000,0b11111001,0b11111011,0b00000001,0b11111011,0b00000010,0b11110100,0b11110100,0b11111011,0b00000110,0b00000100,0b00000010,0b11111111,0b00000011,0b00000010,0b00000001,0b11111011,0b11110111,0b11111011,0b00000100,0b00000010,0b00000010,0b00000000,0b00000010,0b00000001,0b00000000,0b11111110,0b11110110,0b00000001,0b00000100,0b00000010,0b00000010,0b11111101,0b00000001,0b00000001,0b11100111,0b11111101,0b11111101,0b00000100,0b00000000,0b00000111,0b11111111,0b11110010,0b00000111,0b00000000,0b11111100,0b00000101,0b11110111,0b00000000,0b11111111,0b00000001,0b11111110,0b11111011,0b00000010,0b11111101,0b11111110,0b00000111,0b11111010,0b00000010,0b11111011,0b00000000,0b11111111,0b00000010,0b00000001,0b11111101,0b11111010,0b00000101,0b11111100,0b00000100,0b11111110,0b00000000,0b00000000,0b11111100,0b00000000,0b00000000,0b11011100,0b11111111,0b11110111,0b11111111,0b11111101,0b00001000,0b00000111,0b11110111,0b00000101,0b00000111,0b11111001,0b00000110,0b11111100,0b00000001,0b00000011,0b11111011,0b11111011,0b00000011,0b11111111,0b00000010,0b11111100,0b00000010,0b11111110,0b00000001,0b00000010,0b11111001,0b11111000,0b00000011,0b11111110,0b00000001,0b11110101,0b00000000,0b11111110,0b00000001,0b00000100,0b11111010,0b11111100,0b00000010,0b00000001,0b00000100,0b11110100,0b11101010,0b11110100,0b11111101,0b11111101,0b00001001,0b00001001,0b11111101,0b11111111,0b00000110,0b00000001,0b11111100,0b00000000,0b00000000,0b00000101,0b11110111,0b11111011,0b00000100,0b00000000,0b00000100,0b00000010,0b11111111,0b00000000,0b00000010,0b00000011,0b11110101,0b11111011,0b00000011,0b00000001,0b00000011,0b11111101,0b11110011,0b11111110,0b11111111,0b00000011,0b11111000,0b11111111,0b00000011,0b00000011,0b00000100,0b00000000,0b11110100,0b11110111,0b11111010,0b11111100,0b00001011,0b00000111,0b11111100,0b00000000,0b00000000,0b00000100,0b11110110,0b00000000,0b11111101,0b00000000,0b11110001,0b00000011,0b00000001,0b00000010,0b00000010,0b00000011,0b11111001,0b00000000,0b11111111,0b11111111,0b11110011,0b00000100,0b00000000,0b00000001,0b00000000,0b00000100,0b11110000,0b11111111,0b11111001,0b00000001,0b11110110,0b00000110,0b00000001,0b00000110,0b00000010,0b00000100,0b00000000,0b11111101,0b11110100,0b11111100,0b00000011,0b00001000,0b11111001,0b00000010,0b11111010,0b00001010,0b11101001,0b11111011,0b11101100,0b11111010,0b11111010,0b00001001,0b11110111,0b00001000,0b11111000,0b00001000,0b11101000,0b11110111,0b11101010,0b11111010,0b00001000,0b00000101,0b11110110,0b00000111,0b11110011,0b00001001,0b11101101,0b11111101,0b11101000,0b11110101,0b00000011,0b00001000,0b11110101,0b00001001,0b11110100,0b11111110,0b11111110,0b00001000,0b00000101,0b11111110,0b11111110,0b11110111,0b00000110,0b11110001,0b11110011,0b11111011,0b11111101,0b11111001,0b11111110,0b00000001,0b11111001,0b11110000,0b00001011,0b11111000,0b00000100,0b11111010,0b11111111,0b11110011,0b11111010,0b00000010,0b11111110,0b11110110,0b00001011,0b11111101,0b00000100,0b00000001,0b11111101,0b11111000,0b11111111,0b00000001,0b11110111,0b11111011,0b00000101,0b11110010,0b00000101,0b11111110,0b11111110,0b00010000,0b00000110,0b00000011,0b11111001,0b11110010,0b00000111,0b11110111,0b11101100,0b00000010,0b11111101,0b11110111,0b11110000,0b00000111,0b11111101,0b00000010,0b00000011,0b11111010,0b00000111,0b00000001,0b00000000,0b11110100,0b11101111,0b00000111,0b11111111,0b00000010,0b00000011,0b11111101,0b00000101,0b00000010,0b11111100,0b11111100,0b11110110,0b00000111,0b11111100,0b11111111,0b00000100,0b11110110,0b00000100,0b11111100,0b11111010,0b00001010,0b00001000,0b11111101,0b11111000,0b11111001,0b00000000,0b11111110,0b11111010,0b00000100,0b11101011,0b11111001,0b11110111,0b00000110,0b00000010,0b00000001,0b11111100,0b11111110,0b00000101,0b00000011,0b11101110,0b11110111,0b11111001,0b00000110,0b00000011,0b00000100,0b11111110,0b11111110,0b00000100,0b00000101,0b11101001,0b11111111,0b11111110,0b00000111,0b00000001,0b00000101,0b11111101,0b11111100,0b00000011,0b11110000,0b00000000,0b00001001,0b00000110,0b00000001,0b11111011,0b11111000,0b11111010,0b11111111,0b00000100,0b00000001,0b11111000,0b11111100,0b11111110,0b00000101,0b00000011,0b00000100,0b11110011,0b00000001,0b00000001,0b00000001,0b11111011,0b11111010,0b00000000,0b00000101,0b00000010,0b00000010,0b11110101,0b00000010,0b00000000,0b00000000,0b00000010,0b00000001,0b00000010,0b00000011,0b11111111,0b00000001,0b11110010,0b00000001,0b00000000,0b11011110,0b11110011,0b00000111,0b11111111,0b00000101,0b00000011,0b00000100,0b11110111,0b00000000,0b00000011,0b11110101,0b00000110,0b11111111,0b00000010,0b00000011,0b00000001,0b00000010,0b11110100,0b00000100,0b00000001,0b11110101,0b00000100,0b11111110,0b00000010,0b00000010,0b00000000,0b00000000,0b11111000,0b00000011,0b00000001,0b11101000,0b00000100,0b00000010,0b00000000,0b00000011,0b11111100,0b00000001,0b11111011,0b00000001,0b00000010,0b11110001,0b11110101,0b00000001,0b11111111,0b00000001,0b00000111,0b00001000,0b11110011,0b00000000,0b00000001,0b11110001,0b00000101,0b11111110,0b00000000,0b00000100,0b11111100,0b11111110,0b00000001,0b00000001,0b00000011,0b11110011,0b00000010,0b11111110,0b11111111,0b00000100,0b11111010,0b11111101,0b00000001,0b11111111,0b00000011,0b11111000,0b11111101,0b00000001,0b11111101,0b00000100,0b11111010,0b00000000,0b00000001,0b00000000,0b00000010,0b11110100,0b11101001,0b11111010,0b00000110,0b00000001,0b00001000,0b00000110,0b11111111,0b00000000,0b11110110,0b00000000,0b11101111,0b11111110,0b11111111,0b00000111,0b11111100,0b11111111,0b00000100,0b11111101,0b00000100,0b00000010,0b11110100,0b11111111,0b11111111,0b00000100,0b11111011,0b11111111,0b00000011,0b11111110,0b00000100,0b00000011,0b11100001,0b00000001,0b11111110,0b00000101,0b11111011,0b00000001,0b00000011,0b11111101,0b00000010,0b11110110,0b11110111,0b11111101,0b00000110,0b00000011,0b00000110,0b00000001,0b00000111,0b11111100,0b11101011,0b00000100,0b11101101,0b11111111,0b11111100,0b00000011,0b11111011,0b00000011,0b00000011,0b11111011,0b00000010,0b00000100,0b11110010,0b11111111,0b11111010,0b00000100,0b11110111,0b00000101,0b00000010,0b11111110,0b00000110,0b00000011,0b11101010,0b11111101,0b11111100,0b00000101,0b11111000,0b00000100,0b00000001,0b11111100,0b11111100,0b11111001,0b00000010,0b00000110,0b00000000,